<?xml version="1.0"?>
<opencv_storage>
<cascade>
  <stageType>BOOST</stageType>
  <featureType>LBP</featureType>
  <height>30</height>
  <width>40</width>
  <stageParams>
    <boostType>GAB</boostType>
    <minHitRate>9.9500000476837158e-001</minHitRate>
    <maxFalseAlarm>5.0000000000000000e-001</maxFalseAlarm>
    <weightTrimRate>9.4999999999999996e-001</weightTrimRate>
    <maxDepth>1</maxDepth>
    <maxWeakCount>100</maxWeakCount></stageParams>
  <featureParams>
    <maxCatCount>256</maxCatCount>
    <featSize>1</featSize></featureParams>
  <stageNum>14</stageNum>
  <stages>
    <!-- stage 0 -->
    <_>
      <maxWeakCount>2</maxWeakCount>
      <stageThreshold>1.3687144033610821e-002</stageThreshold>
      <weakClassifiers>
        <_>
          <internalNodes>
            0 -1 34 -21 -1 -16 -1 -256 -1 -2560 -1</internalNodes>
          <leafValues>
            -9.4187581539154053e-001 9.5962315797805786e-001</leafValues></_>
        <_>
          <internalNodes>
            0 -1 3 -69733489 -1073560958 81936 -399589246 -1052540789
            -738197376 -1035755373 -3957</internalNodes>
          <leafValues>
            -9.4341814517974854e-001 9.5556294918060303e-001</leafValues></_></weakClassifiers></_>
    <!-- stage 1 -->
    <_>
      <maxWeakCount>2</maxWeakCount>
      <stageThreshold>-1.3610151410102844e-001</stageThreshold>
      <weakClassifiers>
        <_>
          <internalNodes>
            0 -1 18 -1056881 -12847885 -479263474 -34603121 -7342129
            -2242649 -1575985 -17</internalNodes>
          <leafValues>
            -9.4074076414108276e-001 9.2211222648620605e-001</leafValues></_>
        <_>
          <internalNodes>
            0 -1 4 -8390930 -170934433 -141889494 -525378 -135271425
            -289409397 -67110145 -1057</internalNodes>
          <leafValues>
            -9.7061562538146973e-001 8.0463922023773193e-001</leafValues></_></weakClassifiers></_>
    <!-- stage 2 -->
    <_>
      <maxWeakCount>2</maxWeakCount>
      <stageThreshold>-2.8200622648000717e-002</stageThreshold>
      <weakClassifiers>
        <_>
          <internalNodes>
            0 -1 17 -201349201 -67121153 -139475065 -529665 -33557825
            -86783257 -120587281 -1048593</internalNodes>
          <leafValues>
            -9.0081518888473511e-001 8.6780107021331787e-001</leafValues></_>
        <_>
          <internalNodes>
            0 -1 0 -285217025 -831040261 -1318206473 -136579081
            -405799941 -75646273 -68682757 -5</internalNodes>
          <leafValues>
            -8.8009679317474365e-001 8.7261462211608887e-001</leafValues></_></weakClassifiers></_>
    <!-- stage 3 -->
    <_>
      <maxWeakCount>2</maxWeakCount>
      <stageThreshold>-9.5571704208850861e-002</stageThreshold>
      <weakClassifiers>
        <_>
          <internalNodes>
            0 -1 5 -1809527554 -82161637 -719823873 -4730597 -1131763201
            -5570405 -371479553 -22017</internalNodes>
          <leafValues>
            -9.2372882366180420e-001 8.2575756311416626e-001</leafValues></_>
        <_>
          <internalNodes>
            0 -1 33 -269746258 -105514209 -922491910 -2100841 -107742209
            -107224653 -86840321 -1025</internalNodes>
          <leafValues>
            -8.9964264631271362e-001 8.2815712690353394e-001</leafValues></_></weakClassifiers></_>
    <!-- stage 4 -->
    <_>
      <maxWeakCount>3</maxWeakCount>
      <stageThreshold>-9.1638827323913574e-001</stageThreshold>
      <weakClassifiers>
        <_>
          <internalNodes>
            0 -1 20 -196611 -3 -131073 -8454147 -458755 -65537
            -1073954819 -1154998900</internalNodes>
          <leafValues>
            -8.3843648433685303e-001 8.7849831581115723e-001</leafValues></_>
        <_>
          <internalNodes>
            0 -1 12 -199683 -46100204 -2055090855 -145247741 -87118337
            -325034071 -376452929 -6305125</internalNodes>
          <leafValues>
            -8.2774400711059570e-001 8.4042745828628540e-001</leafValues></_>
        <_>
          <internalNodes>
            0 -1 19 352338068 2098241544 -603948547 -544138855
            -1735899988 -81755768 -1095192849 -273120340</internalNodes>
          <leafValues>
            -8.5426563024520874e-001 7.4979221820831299e-001</leafValues></_></weakClassifiers></_>
    <!-- stage 5 -->
    <_>
      <maxWeakCount>2</maxWeakCount>
      <stageThreshold>-2.3966848850250244e-002</stageThreshold>
      <weakClassifiers>
        <_>
          <internalNodes>
            0 -1 25 -204803 -65540 -3 -65540 -212993 -65540 -268517377
            -5743300</internalNodes>
          <leafValues>
            -8.0829018354415894e-001 8.5714286565780640e-001</leafValues></_>
        <_>
          <internalNodes>
            0 -1 35 -3147777 -104611753 -633084950 -202656997 -705692688
            -4595509 -283117152 -68158481</internalNodes>
          <leafValues>
            -8.8080853223800659e-001 7.8432333469390869e-001</leafValues></_></weakClassifiers></_>
    <!-- stage 6 -->
    <_>
      <maxWeakCount>3</maxWeakCount>
      <stageThreshold>-8.3994626998901367e-001</stageThreshold>
      <weakClassifiers>
        <_>
          <internalNodes>
            0 -1 10 -136314881 -35652673 -1187522753 -1653 1409913229
            1364312706 -259150129 -11544897</internalNodes>
          <leafValues>
            -8.3516484498977661e-001 7.8756475448608398e-001</leafValues></_>
        <_>
          <internalNodes>
            0 -1 14 -678952961 1430388687 -137494529 -136839169 -2097153
            -784269329 -2097153 -3932161</internalNodes>
          <leafValues>
            -7.6265442371368408e-001 8.1296110153198242e-001</leafValues></_>
        <_>
          <internalNodes>
            0 -1 16 142492893 -6310981 -682534529 -33565793 -364128513
            -3155797 -343152129 -2372882</internalNodes>
          <leafValues>
            -8.1774246692657471e-001 7.8850895166397095e-001</leafValues></_></weakClassifiers></_>
    <!-- stage 7 -->
    <_>
      <maxWeakCount>3</maxWeakCount>
      <stageThreshold>-9.9492776393890381e-001</stageThreshold>
      <weakClassifiers>
        <_>
          <internalNodes>
            0 -1 30 -201326593 -712715896 -1313667841 -144720421
            -250680401 -997682552 -1148481025 -136315953</internalNodes>
          <leafValues>
            -8.0689656734466553e-001 7.5483870506286621e-001</leafValues></_>
        <_>
          <internalNodes>
            0 -1 2 -167780353 -18951426 -519854761 -151595410 -630587973
            -544216405 -72617217 -257</internalNodes>
          <leafValues>
            -8.9000648260116577e-001 6.9062858819961548e-001</leafValues></_>
        <_>
          <internalNodes>
            0 -1 23 -45057 -607394145 -104644711 -543204353 -115377186
            -540683638 -252477697 2147450351</internalNodes>
          <leafValues>
            -8.3566176891326904e-001 7.0197528600692749e-001</leafValues></_></weakClassifiers></_>
    <!-- stage 8 -->
    <_>
      <maxWeakCount>3</maxWeakCount>
      <stageThreshold>-9.3544542789459229e-001</stageThreshold>
      <weakClassifiers>
        <_>
          <internalNodes>
            0 -1 13 -549745249 -1080321227 -1223881313 -1650482305
            -1735546705 -1131570647 -1967649345 -1078284577</internalNodes>
          <leafValues>
            -8.0481100082397461e-001 7.5792878866195679e-001</leafValues></_>
        <_>
          <internalNodes>
            0 -1 36 -44040737 -538203509 -1964027366 -36974457
            -397821881 448979170 -747903904 -2097177</internalNodes>
          <leafValues>
            -8.1686025857925415e-001 6.9372624158859253e-001</leafValues></_>
        <_>
          <internalNodes>
            0 -1 9 -1558005967 -134753935 136566751 -35924265 -91301905
            -105216789 -403983121 -3073</internalNodes>
          <leafValues>
            -8.0350118875503540e-001 6.8622583150863647e-001</leafValues></_></weakClassifiers></_>
    <!-- stage 9 -->
    <_>
      <maxWeakCount>3</maxWeakCount>
      <stageThreshold>-9.8154032230377197e-001</stageThreshold>
      <weakClassifiers>
        <_>
          <internalNodes>
            0 -1 8 -70257185 -6614769 -785527013 -793897 -469465976
            -1280919160 -138958117 -4196385</internalNodes>
          <leafValues>
            -7.7747625112533569e-001 7.5098294019699097e-001</leafValues></_>
        <_>
          <internalNodes>
            0 -1 29 -178521121 -11013877 -1442122309 -14680353
            1091948895 1091016199 1901833183 -44045345</internalNodes>
          <leafValues>
            -8.3217310905456543e-001 7.2216945886611938e-001</leafValues></_>
        <_>
          <internalNodes>
            0 -1 6 -674299906 -537646888 -720857125 -42141346 -924153346
            -69432385 -635504645 -1385542</internalNodes>
          <leafValues>
            -8.4844869375228882e-001 6.2810903787612915e-001</leafValues></_></weakClassifiers></_>
    <!-- stage 10 -->
    <_>
      <maxWeakCount>3</maxWeakCount>
      <stageThreshold>-7.9720270633697510e-001</stageThreshold>
      <weakClassifiers>
        <_>
          <internalNodes>
            0 -1 24 -524289 -1 -131073 -3407873 -62587444 -538976306
            -524305 -4097</internalNodes>
          <leafValues>
            -7.1947401762008667e-001 8.1895935535430908e-001</leafValues></_>
        <_>
          <internalNodes>
            0 -1 1 -295698433 -422583309 -619324449 -6302957 -1425290241
            -90549730 -137102965 -2097157</internalNodes>
          <leafValues>
            -8.5569280385971069e-001 6.5685510635375977e-001</leafValues></_>
        <_>
          <internalNodes>
            0 -1 32 -681050385 -795620607 415750079 -671875245
            -1060385137 -2147385344 1682303487 -69207297</internalNodes>
          <leafValues>
            -7.3373889923095703e-001 7.7796411514282227e-001</leafValues></_></weakClassifiers></_>
    <!-- stage 11 -->
    <_>
      <maxWeakCount>3</maxWeakCount>
      <stageThreshold>-8.1110256910324097e-001</stageThreshold>
      <weakClassifiers>
        <_>
          <internalNodes>
            0 -1 21 -16777225 -134744317 -454623381 1347778375 -1052689
            -67108865 -1 -84412553</internalNodes>
          <leafValues>
            -7.4379086494445801e-001 7.7414965629577637e-001</leafValues></_>
        <_>
          <internalNodes>
            0 -1 28 9416623 -2384417 1494794751 -134224385 -120984145
            -1171535735 -322576133 -2359553</internalNodes>
          <leafValues>
            -7.8757756948471069e-001 7.1006208658218384e-001</leafValues></_>
        <_>
          <internalNodes>
            0 -1 15 -673718793 -788267913 1343341919 -682364545
            1346586879 419627031 -653793061 -540017937</internalNodes>
          <leafValues>
            -7.3964321613311768e-001 7.2026586532592773e-001</leafValues></_></weakClassifiers></_>
    <!-- stage 12 -->
    <_>
      <maxWeakCount>3</maxWeakCount>
      <stageThreshold>-8.5128372907638550e-001</stageThreshold>
      <weakClassifiers>
        <_>
          <internalNodes>
            0 -1 27 -1 -3154981 -1852705827 -10488631 -217318945
            -611655446 -51381281 1039891387</internalNodes>
          <leafValues>
            -7.8561353683471680e-001 7.0417195558547974e-001</leafValues></_>
        <_>
          <internalNodes>
            0 -1 22 1465382367 -217319477 -240667713 -1416658817
            1124853711 -762862941 -1165233521 -343149845</internalNodes>
          <leafValues>
            -7.3756921291351318e-001 7.6349824666976929e-001</leafValues></_>
        <_>
          <internalNodes>
            0 -1 11 -201591809 -116422399 -532751909 -677523045
            -1064910778 -56915757 -1004288907 -252183577</internalNodes>
          <leafValues>
            -8.1788647174835205e-001 6.7472523450851440e-001</leafValues></_></weakClassifiers></_>
    <!-- stage 13 -->
    <_>
      <maxWeakCount>3</maxWeakCount>
      <stageThreshold>-8.4359145164489746e-001</stageThreshold>
      <weakClassifiers>
        <_>
          <internalNodes>
            0 -1 7 -355594498 -4254763 -1791478273 -6581959 1256005119
            -273006086 -48505349 -6553701</internalNodes>
          <leafValues>
            -7.8662872314453125e-001 6.9385194778442383e-001</leafValues></_>
        <_>
          <internalNodes>
            0 -1 31 -1057 1363270605 -848884353 -135281847 -879787041
            -801071672 -340855829 -3147009</internalNodes>
          <leafValues>
            -7.0774632692337036e-001 7.6121431589126587e-001</leafValues></_>
        <_>
          <internalNodes>
            0 -1 26 -143188219 -10489409 -1652309027 -26347 -608450081
            -122978138 -873479969 -1461</internalNodes>
          <leafValues>
            -8.0200433731079102e-001 6.5078359842300415e-001</leafValues></_></weakClassifiers></_></stages>
  <features>
    <_>
      <rect>
        0 0 2 3</rect></_>
    <_>
      <rect>
        0 0 2 5</rect></_>
    <_>
      <rect>
        0 3 2 9</rect></_>
    <_>
      <rect>
        0 6 2 8</rect></_>
    <_>
      <rect>
        0 6 4 5</rect></_>
    <_>
      <rect>
        0 12 10 2</rect></_>
    <_>
      <rect>
        0 24 9 2</rect></_>
    <_>
      <rect>
        1 13 6 1</rect></_>
    <_>
      <rect>
        4 10 4 4</rect></_>
    <_>
      <rect>
        5 0 2 2</rect></_>
    <_>
      <rect>
        5 4 3 6</rect></_>
    <_>
      <rect>
        5 7 2 6</rect></_>
    <_>
      <rect>
        5 11 6 3</rect></_>
    <_>
      <rect>
        6 10 9 2</rect></_>
    <_>
      <rect>
        11 7 3 5</rect></_>
    <_>
      <rect>
        12 8 2 4</rect></_>
    <_>
      <rect>
        13 0 3 2</rect></_>
    <_>
      <rect>
        13 6 5 3</rect></_>
    <_>
      <rect>
        14 5 4 3</rect></_>
    <_>
      <rect>
        14 14 7 1</rect></_>
    <_>
      <rect>
        14 27 5 1</rect></_>
    <_>
      <rect>
        15 9 2 5</rect></_>
    <_>
      <rect>
        18 0 4 8</rect></_>
    <_>
      <rect>
        18 5 1 3</rect></_>
    <_>
      <rect>
        18 11 5 3</rect></_>
    <_>
      <rect>
        18 27 5 1</rect></_>
    <_>
      <rect>
        19 0 2 3</rect></_>
    <_>
      <rect>
        19 5 1 3</rect></_>
    <_>
      <rect>
        20 0 1 5</rect></_>
    <_>
      <rect>
        20 5 3 6</rect></_>
    <_>
      <rect>
        25 10 4 4</rect></_>
    <_>
      <rect>
        27 5 3 6</rect></_>
    <_>
      <rect>
        28 8 2 5</rect></_>
    <_>
      <rect>
        30 2 3 5</rect></_>
    <_>
      <rect>
        34 9 2 5</rect></_>
    <_>
      <rect>
        34 9 2 7</rect></_>
    <_>
      <rect>
        37 8 1 4</rect></_></features></cascade>
</opencv_storage>
