%YAML:1.0
---
opencv_ml_svm:
   format: 3
   svmType: C_SVC
   kernel:
      type: LINEAR
   C: 1.
   term_criteria: { iterations:100 }
   var_count: 336
   class_count: 10
   class_labels: !!opencv-matrix
      rows: 10
      cols: 1
      dt: i
      data: [ 48, 49, 50, 51, 52, 53, 54, 55, 56, 57 ]
   sv_total: 45
   support_vectors:
      - [ 0., 7.36080183e-05, 4.01802536e-05, 6.32975134e-05,
          -9.71320787e-06, 3.25970905e-05, 1.21127137e-04,
          -1.29543296e-05, -3.87519458e-06, -1.08584703e-04,
          -1.24408107e-04, -8.61611115e-05, 0., 4.94702763e-05,
          -2.50212724e-05, -3.36957310e-05, 8.67985273e-06,
          3.38813179e-21, 3.38813179e-21, 1.20141573e-04,
          -1.39398935e-05, 7.39889720e-06, -6.62091188e-05,
          -8.61611115e-05, 6.59257785e-05, 4.72252323e-05,
          -3.46812958e-05, 3.38813179e-21, -1.47034152e-04,
          -1.11843059e-04, -3.82350408e-05, 8.19065244e-05,
          -5.21749353e-05, -3.08361450e-05, -6.62091188e-05,
          -4.18488089e-05, 1.62925680e-05, 4.72252323e-05,
          -3.46812958e-05, -7.34261412e-05, -1.47034152e-04,
          -1.63420686e-04, -1.11843059e-04, 8.19065244e-05,
          2.12512023e-05, -3.08361450e-05, 7.39889720e-06,
          1.55320795e-05, 5.33024904e-05, -6.68390785e-05,
          -1.25780807e-05, -2.17801244e-05, -1.53962785e-04,
          -7.68519676e-05, 7.04627382e-05, -1.01598371e-05,
          2.12512023e-05, -3.08361450e-05, 7.39889720e-06,
          1.55320795e-05, 1.36523868e-05, 5.95809752e-06, 3.50825467e-05,
          6.40458456e-05, -9.37351797e-05, -9.62353006e-05,
          7.52508786e-05, 5.83103065e-06, -2.11243823e-05,
          -3.23207714e-05, 7.39889720e-06, 9.45481952e-06,
          5.28766104e-05, 5.53767313e-05, 6.40458456e-05, 1.81078794e-05,
          -9.37351797e-05, -8.54602768e-05, 5.34023711e-05,
          5.83103065e-06, 3.95309435e-05, 5.91427033e-06, 5.91427033e-06,
          -6.94366145e-06, 6.24560471e-06, 7.98536203e-05,
          8.70381118e-05, 2.63827860e-05, -7.77659880e-05,
          -7.77659880e-05, -5.84642912e-05, 5.83103065e-06,
          3.95309435e-05, -2.36063693e-06, 5.91427033e-06,
          -6.94366145e-06, 6.24560471e-06, 7.98536203e-05,
          8.70381118e-05, 3.40770748e-05, -7.77659880e-05,
          -1.20141573e-04, -5.90449090e-05, 5.83103065e-06,
          3.95309435e-05, -2.36063693e-06, 5.33365164e-06,
          -6.94366145e-06, 1.26387182e-04, 7.98536203e-05,
          9.47324006e-05, 3.40770748e-05, -7.77659880e-05,
          -1.20141573e-04, 7.00995442e-05, 5.83103065e-06,
          3.95309435e-05, -2.36063693e-06, 5.33365164e-06,
          6.66643537e-05, 1.34081463e-04, 2.07689474e-04, 9.47324006e-05,
          3.40770748e-05, -7.77659880e-05, -1.20141573e-04,
          1.74993204e-06, -9.17427315e-06, 3.95309435e-05,
          4.92155523e-05, -1.14397717e-05, 2.84293146e-05,
          1.34081463e-04, 2.07689474e-04, 1.68158542e-04, 3.40770748e-05,
          -4.15796740e-06, -1.20141573e-04, -3.69756162e-05,
          -9.17427315e-06, 8.19065244e-05, 4.67154314e-05,
          -1.14397717e-05, 2.84293146e-05, 7.34261412e-05,
          2.50065059e-04, 1.68158542e-04, 9.47324006e-05,
          -4.15796740e-06, -1.20141573e-04, -3.69756162e-05,
          -9.17427315e-06, 8.29851069e-06, 4.67154314e-05,
          -1.39398935e-05, 2.07350258e-05, 7.34261412e-05,
          2.88300100e-04, 1.68158542e-04, 9.47324006e-05,
          -4.15796740e-06, -1.20141573e-04, -1.42399833e-04,
          -9.17427315e-06, 8.29851069e-06, 4.67154314e-05,
          -1.39398935e-05, -1.39462709e-05, 7.34261412e-05,
          2.14692089e-04, 1.68158542e-04, 9.47324006e-05,
          -4.65335543e-05, -1.20141573e-04, -1.01712649e-04,
          -6.98295989e-05, 8.29851069e-06, 4.67154314e-05,
          -1.39398935e-05, 2.07968446e-06, 7.34261412e-05,
          2.14692089e-04, 1.68158542e-04, 9.47324006e-05,
          -4.15796740e-06, -1.20141573e-04, -9.92125279e-05,
          -6.98295989e-05, 8.29851069e-06, 4.67154314e-05,
          4.67154314e-05, 2.07968446e-06, 1.15801726e-04, 1.54036767e-04,
          9.47324006e-05, 9.47324006e-05, -4.65335543e-05,
          -1.20141573e-04, -9.92125279e-05, -6.98295989e-05,
          4.65335543e-05, 4.67154314e-05, 4.67154314e-05,
          -1.26376726e-05, 1.15801726e-04, 1.54036767e-04,
          9.47324006e-05, 9.47324006e-05, 1.41217733e-05,
          -1.27835854e-04, -9.92125279e-05, -6.98295989e-05,
          4.65335543e-05, 4.67154314e-05, 6.17207334e-05,
          -1.26376726e-05, 1.15801726e-04, 1.54036767e-04,
          9.47324006e-05, 5.64973598e-05, 1.41217733e-05,
          -1.20141573e-04, -9.92125279e-05, -6.98295989e-05,
          4.65335543e-05, 4.67154314e-05, 1.93451506e-05,
          -3.69863046e-05, 1.54036767e-04, 1.54036767e-04,
          9.47324006e-05, 5.64973598e-05, 1.41217733e-05,
          -1.35146867e-04, -9.92125279e-05, -2.74540143e-05,
          4.65335543e-05, 1.20141573e-04, -1.88898903e-05,
          2.36690230e-05, 1.54036767e-04, 1.54036767e-04, 3.40770748e-05,
          5.64973598e-05, 1.41217733e-05, -8.83530618e-07,
          2.09290411e-05, -2.84395774e-05, -1.41217733e-05,
          1.20141573e-04, 5.45362454e-05, 2.36690230e-05, 1.54036767e-04,
          1.54036767e-04, 3.40770748e-05, 1.41217733e-05,
          -8.83530618e-07, -8.83530618e-07, -1.00198093e-04,
          -2.84395774e-05, -1.41217733e-05, 1.20141573e-04,
          5.45362454e-05, 8.88202558e-05, 1.15801726e-04, 1.54036767e-04,
          3.40770748e-05, 5.64973598e-05, -8.83530618e-07,
          -8.57781924e-06, -1.00198093e-04, -2.84395774e-05,
          -1.41217733e-05, 4.15796740e-06, 5.45362454e-05,
          7.97411194e-05, 7.34261412e-05, 1.54036767e-04, 1.07503212e-04,
          5.64973598e-05, 1.41217733e-05, -8.83530618e-07,
          -5.78225081e-05, -2.84395774e-05, 4.65335543e-05,
          7.77659880e-05, -1.88898903e-05, -4.82630858e-05,
          7.34261412e-05, 1.54036767e-04, 3.38951941e-05, 1.07503212e-04,
          1.14918192e-04, 8.35036553e-05, -1.36226836e-05,
          7.04507911e-05, 4.65335543e-05, 4.33984769e-06,
          -1.88898903e-05, -5.58249740e-05, 0., 1.11661182e-04,
          3.38951941e-05, 1.07503212e-04, 1.14918192e-04, 7.74263972e-05,
          9.82203783e-05, 1.20141573e-04, 1.20141573e-04,
          -3.38951941e-05, -7.95452142e-05, -5.58249740e-05, 0., 0.,
          -8.48039053e-06, 1.07503212e-04, 1.53153233e-04,
          1.23355727e-04, 2.18361951e-04, 7.97118046e-05, 2.84242869e-05,
          -1.88898903e-05, -1.53153233e-04, -1.21738703e-04, 0., 0.,
          -4.67154314e-05, 6.51276277e-05, 9.24979104e-05,
          7.97270986e-05, 8.77832936e-05, 2.79522956e-05,
          -6.15702666e-05, -1.23355727e-04, -1.15661438e-04,
          -1.15661438e-04 ]
      - [ -5.52065670e-04, -4.04129241e-04, -1.62121272e-04,
          -4.12575064e-05, -7.20538446e-05, 3.51894239e-04,
          4.17070201e-04, 2.84894777e-04, 4.55767527e-04, 4.04181425e-04,
          9.77128657e-05, 8.67051785e-05, -4.85920580e-04,
          -8.38920005e-06, 8.59120773e-05, 4.75411944e-05,
          -4.19934549e-05, -6.70628506e-05, -6.70628506e-05,
          -8.46973489e-05, -4.41434349e-05, -1.33735530e-05,
          -1.80293733e-04, 9.77128657e-05, -7.83466094e-05,
          4.76969180e-05, 4.75411944e-05, -1.04256824e-05,
          -2.07297926e-04, 2.54983519e-04, 3.45472159e-04,
          -1.65721227e-04, -2.77600357e-05, -4.41434349e-05,
          -9.51648908e-05, -3.03346926e-04, -2.05678716e-05,
          2.55857794e-05, 4.06752588e-05, -2.97529303e-04,
          5.60462140e-05, -9.30396200e-05, 5.64165703e-07,
          2.49558274e-04, -4.31016706e-05, -1.90740411e-05,
          -1.33735530e-05, -2.76508188e-04, 4.71983658e-05,
          1.56058650e-05, -4.03646345e-06, 2.84063746e-04,
          -5.21566872e-05, -1.98850885e-05, 1.74100169e-05,
          3.39363737e-06, -2.25561991e-04, -1.90740411e-05,
          1.16958417e-05, -1.33456444e-04, 3.03525139e-05,
          -9.40088739e-06, -7.67509846e-05, 3.59516212e-04,
          -5.88000285e-06, -4.06752588e-05, 1.90740411e-05,
          -2.85416918e-05, -9.69466491e-05, -1.90740411e-05,
          1.16958417e-05, -1.08387052e-04, 6.77216594e-05,
          8.29044002e-05, 2.70924629e-05, -1.47753119e-04,
          -3.09493989e-05, -4.06752588e-05, -1.16958417e-05,
          -1.85617773e-05, -9.96874514e-05, 1.16958417e-05,
          1.85617773e-05, -8.86820781e-05, 2.12241339e-05,
          1.16659787e-04, 2.70924629e-05, -1.37773197e-04,
          1.37623247e-05, -4.06752588e-05, -1.16958417e-05,
          -1.85617773e-05, 2.84378912e-05, 1.16958417e-05,
          1.85617773e-05, -8.86820781e-05, 5.17143017e-05,
          1.64275523e-04, 7.47081940e-05, 1.90038754e-05, 1.37623247e-05,
          0., -1.16958417e-05, -4.82466639e-05, 3.94455783e-05,
          1.16958417e-05, 2.85416918e-05, -1.19668468e-04,
          7.27583247e-05, 1.64275523e-04, 7.47081940e-05, 1.90038754e-05,
          1.37623247e-05, -8.04749361e-05, -1.85617773e-05,
          -1.13474729e-04, 2.84378912e-05, 1.85617773e-05,
          2.85416918e-05, 2.73509359e-05, 7.27583247e-05, 1.64275523e-04,
          1.19419921e-04, 1.90038754e-05, 1.37623247e-05,
          -1.11244823e-04, -3.44868822e-05, -1.13474729e-04,
          5.92077740e-05, 2.45069659e-05, 2.85416918e-05, 8.24883391e-05,
          1.17470045e-04, 2.08987243e-04, 2.13023712e-04, 1.90038754e-05,
          7.87008539e-05, -1.11244823e-04, -3.44868822e-05,
          -9.66219231e-05, 7.42519260e-05, 2.45069659e-05,
          4.82466639e-05, 5.74189435e-05, 1.11524852e-04, 2.13023712e-04,
          2.13023712e-04, 2.49490658e-05, 4.79309747e-05,
          -1.28090673e-04, -5.41918525e-05, -5.56276245e-05,
          4.28484236e-06, 3.44868822e-05, 1.13474729e-04, 5.74189435e-05,
          1.11524852e-04, 2.13023712e-04, 2.13023712e-04, 2.49490658e-05,
          4.10650391e-05, -1.28090673e-04, -1.02567108e-04,
          -1.09159027e-05, 4.28484236e-06, 5.41918525e-05,
          1.13474729e-04, 5.33824823e-05, 1.11524852e-04, 1.31232373e-04,
          2.13023712e-04, 8.09625908e-06, -7.68314749e-06,
          -1.47795639e-04, -1.02567108e-04, -1.30916305e-06,
          4.28484236e-06, 5.41918525e-05, 1.13474729e-04, 4.84241609e-05,
          1.11524852e-04, 1.31232373e-04, 2.13023712e-04, 2.75054590e-05,
          -4.20175638e-05, -1.47795639e-04, -7.17972289e-05,
          -1.30916305e-06, -7.54849316e-05, 5.41918525e-05,
          1.19419921e-04, 4.84241609e-05, 1.15561321e-04, 1.25287173e-04,
          1.19419921e-04, 2.20645416e-05, -4.60540286e-05,
          -1.47795639e-04, -7.17972289e-05, 1.83958073e-05,
          -8.64926187e-05, 1.19419921e-04, 1.19419921e-04,
          4.84241609e-05, 6.10665711e-06, 1.25287173e-04, 1.19419921e-04,
          5.21869106e-06, -5.03332521e-05, -1.96170906e-04,
          -5.62452988e-05, 2.83757236e-05, -1.80963470e-04,
          1.19419921e-04, 1.19419921e-04, 4.84241609e-05,
          -4.90307466e-05, 1.25287173e-04, 5.20922586e-05,
          -1.16218296e-04, -5.03332521e-05, -1.96170906e-04,
          -1.15335770e-05, 2.83757236e-05, -1.80963470e-04,
          1.19419921e-04, 1.15383453e-04, 4.84241609e-05,
          -4.90307466e-05, 1.25287173e-04, 6.20791325e-05,
          -1.26198211e-04, -5.03332521e-05, -1.76465925e-04,
          2.83757236e-05, 3.24121866e-05, 3.67975619e-04, 2.13023712e-04,
          1.15383453e-04, 5.43693495e-05, -4.90307466e-05,
          1.05582207e-04, 4.61540258e-05, -1.26198211e-04,
          -1.15561321e-04, -5.10935861e-05, 2.83757236e-05,
          3.24121866e-05, 4.27258492e-04, 1.68311977e-04, 1.48723586e-04,
          4.56833550e-05, -6.87357169e-05, 1.05582207e-04,
          4.61540258e-05, -2.18783287e-04, -1.15561321e-04,
          -5.10935861e-05, 2.83757236e-05, 9.76402516e-05,
          -3.11109470e-04, 1.52760054e-04, 1.28519256e-04,
          7.74850705e-05, -6.87357169e-05, 1.05582207e-04,
          2.93012181e-05, -2.79974891e-04, -1.15561321e-04,
          -7.48123275e-05, -4.21123405e-05, 2.54821152e-05,
          2.13802108e-04, 1.59580413e-05, 9.77493764e-05, 3.67352732e-05,
          -7.27721854e-05, 6.79463919e-05, 1.22905010e-04,
          -2.79974891e-04, -1.15561321e-04, -1.25287173e-04,
          -1.15383453e-04, -4.51970664e-05, 2.20775881e-04,
          6.11916039e-05, -1.55593807e-05, -1.42652949e-04,
          -1.24435232e-04, 2.86121358e-05, 1.24433809e-05,
          -1.70015905e-04, 3.10778705e-04, 5.34469582e-05,
          -3.31119190e-05, 1.67211270e-04, -1.81155337e-04,
          -3.24121866e-05, -2.18185796e-05, -4.82609357e-05,
          -3.51096765e-04, -3.05617323e-05, -3.66159293e-05,
          -6.04352044e-06, -8.75899423e-05, -2.98790081e-04,
          2.26075557e-04, -4.82714677e-05, 1.55519283e-05,
          -2.71521858e-05, -1.83507273e-05, -2.50201236e-04,
          -5.20556932e-04, -3.56934906e-04, -4.06523905e-05,
          1.50355424e-06, 1.68528059e-05, 2.37187414e-05, 1.03083919e-04,
          5.41918525e-05, 5.01553877e-05, 2.83442605e-05,
          -2.04213255e-04, 2.21182127e-05, -6.47117908e-04,
          -5.27422875e-04, -3.05108697e-04, -9.07447538e-05,
          -3.12857555e-05, 3.50529481e-05, -1.99336500e-05,
          -5.92670985e-05, -7.79877446e-05, 1.90481805e-04,
          2.21182127e-05, -1.68528059e-05 ]
      - [ 0., 2.46407017e-05, -2.74867398e-05, -1.91066611e-05,
          -4.61009622e-05, -2.34888848e-05, 1.48498384e-06,
          -3.53542491e-05, 1.06603929e-05, 1.30795670e-05, 0., 0.,
          -1.03406828e-05, 5.35758727e-06, 1.99215883e-05,
          -8.29656256e-06, -3.52001043e-05, -1.25672159e-05,
          5.71747239e-20, 1.70742351e-05, -6.82892351e-05,
          1.79293038e-05, 9.14206794e-06, 0., 4.82943396e-05,
          1.87194128e-05, 3.39775142e-05, 5.71747239e-20,
          -9.69391986e-05, -2.11505703e-05, 7.56620102e-06,
          -8.68897678e-06, -8.51932346e-05, -3.82256039e-05,
          -1.69132600e-05, -2.30872465e-05, 4.13941561e-05,
          1.73957415e-06, -9.15481723e-06, -6.24902823e-05,
          -3.88037151e-05, -6.37869816e-05, -1.20395471e-05,
          1.11562340e-05, -3.92245311e-05, -7.33266788e-05,
          -9.33111551e-06, -1.97570680e-05, 5.88621042e-05,
          -3.09603311e-05, -1.44596497e-05, -4.03353406e-05,
          -6.88034634e-05, -5.68475625e-05, 9.82689744e-06,
          -2.16740336e-05, -2.95857280e-05, -7.33266788e-05,
          -1.50912310e-05, 1.18831040e-05, 3.73611365e-05,
          2.57177871e-05, 5.58623105e-06, 1.52771081e-05,
          -1.86470988e-05, 9.15481723e-06, 1.34651089e-06,
          1.17720947e-05, -3.87405453e-05, -7.33266788e-05,
          -1.50912310e-05, 5.71962846e-06, 6.21984655e-05,
          3.95606658e-05, 5.57437379e-05, 2.58992131e-05, 1.47990286e-05,
          9.15481723e-06, 3.64475854e-05, 9.72933503e-06, 2.01541916e-05,
          -3.64475854e-05, -2.52401492e-06, -1.19891695e-06,
          4.32032539e-05, 8.05947348e-05, 1.27499545e-04, 1.17195894e-04,
          1.47990286e-05, 9.15481723e-06, 5.35218205e-05, 1.93967880e-05,
          1.67419366e-05, -6.82892351e-05, -1.34651089e-06,
          -4.36523296e-05, 8.50697252e-05, 1.12305512e-04,
          1.27368679e-04, 1.27949825e-04, 1.47990286e-05, 0.,
          5.35218205e-05, 2.41850048e-05, 2.57492193e-05,
          -3.64475854e-05, 3.44170462e-06, -2.16090029e-05,
          1.04344159e-04, 1.29379754e-04, 1.63998542e-04, 9.93512222e-05,
          1.47990286e-05, 0., 5.35218205e-05, 1.13007391e-05,
          5.53566281e-07, -6.82892351e-05, 3.44170462e-06,
          1.95261418e-05, 1.09132372e-04, 1.75016903e-04, 1.99099624e-04,
          1.21322169e-04, 1.47990286e-05, 0., 1.99057831e-05,
          3.58761810e-07, 5.53566281e-07, -3.46731977e-05,
          3.44170462e-06, 1.93969572e-06, 1.38267729e-04, 2.10117971e-04,
          2.56151892e-04, 1.21322169e-04, 1.44299311e-05,
          -6.71921298e-05, -5.35423060e-05, -4.52866261e-05,
          -1.41335649e-05, -3.46731977e-05, 3.10926516e-05,
          7.26452618e-06, 1.04651692e-04, 2.19272784e-04, 2.56151892e-04,
          1.04637918e-04, -4.28771818e-05, -1.39465439e-04,
          -1.17871947e-04, -8.91474701e-05, -7.19548698e-05,
          -3.46731977e-05, 1.27043295e-05, 5.03169467e-05,
          1.04651692e-04, 2.56151892e-04, 2.49311299e-04, 8.55440958e-05,
          -1.19882709e-04, -2.25250682e-04, -1.82538002e-04,
          -1.26845465e-04, -7.55449073e-05, -5.17474327e-05,
          3.55248631e-05, 6.47008274e-05, 1.04651692e-04, 2.21170500e-04,
          2.49311299e-04, 7.82063216e-05, -8.39129134e-05,
          -2.28131685e-04, -1.76384245e-04, -1.27729392e-04,
          -8.81121232e-05, -5.17474327e-05, 7.23502126e-06,
          -6.67564109e-06, 1.04651692e-04, 2.21170500e-04,
          2.56151892e-04, 1.42195131e-04, 2.37761415e-05,
          -2.95943046e-05, -2.29099078e-05, -9.44294079e-05,
          -8.81121232e-05, -5.17474327e-05, 1.60588243e-05,
          -6.22617199e-06, 1.22813799e-04, 1.87554455e-04,
          2.04404452e-04, 1.70430634e-04, 4.18030977e-05, 0.,
          4.69592196e-05, 1.51267895e-05, -1.19713814e-05,
          -5.17474327e-05, -1.09739688e-06, -2.04273183e-05,
          1.17508964e-04, 1.87554455e-04, 2.04404452e-04, 1.70430634e-04,
          7.42416305e-05, 0., 5.17474327e-05, 5.82542270e-05,
          4.55289774e-05, -5.17474327e-05, -1.05958361e-05,
          -4.22937628e-05, 9.48760717e-05, 1.48142615e-04,
          1.70958316e-04, 1.29867112e-04, 6.85974228e-05, 0.,
          5.17474327e-05, 3.18650491e-05, 5.12458719e-05,
          -5.17474327e-05, -1.97506524e-05, -5.21137117e-05,
          9.83090358e-05, 1.31475448e-04, 1.70958316e-04, 1.29867112e-04,
          6.85974228e-05, 0., 5.17474327e-05, 5.00271526e-05,
          4.41166740e-05, 5.71747239e-20, -5.66297458e-05,
          -2.20877082e-05, 9.29924281e-05, 1.18202785e-04,
          1.22217505e-04, 1.29867112e-04, 7.45631405e-05, 6.85974228e-05,
          5.17474327e-05, 1.89693401e-05, 1.31635761e-05, 5.71747239e-20,
          -3.83284423e-05, -1.84976743e-05, 2.65670751e-05,
          6.86965795e-05, 6.47255511e-05, 2.53156668e-05, 4.27214909e-05,
          6.85974228e-05, 5.17474327e-05, 3.18080201e-05, 2.02927713e-05,
          1.70742351e-05, -3.83284423e-05, 3.79483536e-05,
          -2.66205698e-05, 3.61084785e-05, 4.81121751e-05,
          -3.89653942e-05, -2.04703770e-06, 1.65469623e-06,
          -1.35403461e-05, 1.50189499e-05, -3.66747481e-05,
          -2.70619657e-05, -3.90689638e-06, 4.27365703e-05,
          -3.66946224e-05, 1.67481915e-06, 9.55198811e-06,
          -6.16700418e-05, -4.55979898e-05, 9.27846827e-07,
          -3.16592123e-05, -5.89737429e-05, -2.47086755e-05,
          -1.81621017e-05, -2.39882775e-05, -1.84318305e-05,
          2.72264206e-05, 6.99142811e-06, -1.64221110e-05,
          -8.83633402e-06, 3.90452151e-05, 3.18709535e-05,
          -1.08159002e-05, -5.87795830e-06, -2.95366644e-05,
          -4.87125362e-05, -2.59322260e-05, 1.80165916e-05,
          1.35609043e-05, 2.59779081e-05, -2.70849741e-05,
          -1.65418023e-05, -1.57838185e-05, -9.15291002e-06,
          1.11379277e-05, 1.39887845e-07, 1.90435333e-06,
          -5.49274810e-05, 1.74082140e-06, 1.21414605e-05, 0.,
          5.56531950e-06, 1.93978394e-05, 5.23052768e-05, 1.89785878e-05,
          1.90435333e-06, 5.71747239e-20, -3.50346818e-05,
          -4.06812760e-05, 2.40212321e-05, -2.09473474e-05,
          -5.44472005e-06, 0., -3.41225586e-06, 4.84948541e-05,
          6.68435678e-05, 3.46450979e-05, -2.93565899e-05,
          -3.47621572e-05, -4.22963458e-05, -1.16256142e-05,
          -3.23434542e-05, -8.85697591e-06, 0. ]
      - [ 0., 1.27211351e-05, -4.12928493e-05, -4.38424868e-05,
          6.24052263e-05, 1.31485664e-04, 1.79608440e-04, 8.17829205e-05,
          5.16345681e-05, 6.14417559e-06, -3.23227650e-05,
          -3.00414958e-05, -3.37199781e-05, 3.02469343e-05,
          2.31169815e-05, 5.63111535e-05, 1.38748597e-04, 1.19766810e-04,
          1.67889593e-04, 1.47080049e-04, 3.32255768e-05, 5.16345681e-05,
          3.44821492e-05, -3.23227650e-05, 1.68602128e-05,
          7.79246911e-05, 5.63111535e-05, 8.04973897e-05, 4.52281856e-05,
          7.41738040e-05, 8.07918332e-05, 7.96643362e-05, 1.58613911e-05,
          2.70074415e-05, 3.89134329e-05, 8.17494583e-06, 1.89971488e-05,
          7.54532084e-05, 5.63111535e-05, 1.14169634e-05, 4.30912514e-05,
          -1.98685575e-05, 3.52462557e-05, 7.75274020e-05,
          5.32992854e-05, 3.42703861e-05, 5.16345681e-05, 3.44821492e-05,
          6.69239671e-05, 8.48786731e-05, 5.63111535e-05, 9.28002646e-06,
          -4.16380462e-05, -7.24254960e-06, 4.37036724e-05,
          4.37727977e-05, 5.32992854e-05, 3.42703861e-05, 5.88975126e-05,
          3.67764951e-05, 6.69239671e-05, 8.17259061e-05, 1.14169634e-05,
          9.28002646e-06, -4.16380462e-05, -4.25476755e-05,
          3.08855997e-05, 3.65098531e-05, 2.91130473e-05, 3.42703861e-05,
          7.24285637e-05, 5.75704944e-05, 6.69239671e-05, 6.30947980e-05,
          1.14169634e-05, -5.49188480e-05, -4.89009908e-05,
          -4.04665916e-05, 3.33570824e-05, 3.65098531e-05,
          7.91608254e-05, 5.88975126e-05, 7.24285637e-05, 1.06127838e-04,
          6.14657765e-05, 4.35915463e-05, 1.14169634e-05,
          -5.49188480e-05, -5.30527213e-05, -8.90239389e-05,
          3.33570824e-05, 3.65098531e-05, 7.91608254e-05, 7.24285637e-05,
          1.20985911e-04, 1.03833489e-04, 7.27155566e-05, 4.35915463e-05,
          1.14169634e-05, -5.49188480e-05, -9.95289811e-05,
          -9.45790671e-05, 3.65098531e-05, 3.65098531e-05,
          8.14551749e-05, 7.24285637e-05, 1.20985911e-04, 1.03833489e-04,
          6.95627896e-05, 4.20156866e-05, 1.14169634e-05,
          -6.84499028e-05, -8.08978730e-05, -9.21075844e-05,
          3.65098531e-05, 5.49188480e-05, 9.28652662e-05, 7.24285637e-05,
          1.20985911e-04, 1.16554627e-04, 4.93422303e-05, 3.16840269e-05,
          -6.99203019e-06, -6.84499028e-05, -8.08978730e-05,
          -9.21075844e-05, -1.14169634e-05, 6.84499028e-05,
          9.49862297e-05, 1.68912724e-04, 1.20985911e-04, 9.19274971e-05,
          4.24606696e-05, 3.16840269e-05, 4.85573437e-05,
          -1.17007243e-04, -6.57052515e-05, -8.73789540e-05,
          6.99203019e-06, 6.84499028e-05, 1.67729813e-04, 1.68912724e-04,
          1.20985911e-04, 8.46645562e-05, 1.04359760e-05, 5.58702668e-05,
          0., -6.90804300e-05, -5.93687946e-05, -8.04973897e-05,
          2.05230845e-05, 1.17007243e-04, 1.52871740e-04, 1.68912724e-04,
          1.20985911e-04, 8.46645562e-05, -7.37770506e-07,
          6.69663423e-05, 0., -4.91957944e-05, -5.93687946e-05,
          -6.69663423e-05, 6.90804300e-05, 1.17007243e-04,
          1.71387597e-04, 1.68912724e-04, 1.20985911e-04, 6.04942907e-05,
          -1.52171460e-05, 5.68785845e-06, 0., -5.14901440e-05,
          -8.04022638e-05, -4.85573437e-05, 6.90804300e-05,
          6.90804300e-05, 1.71387597e-04, 1.68912724e-04, 1.18691562e-04,
          6.04942907e-05, -1.02323493e-05, 5.68785845e-06, 0.,
          -4.05612409e-05, -5.62160276e-05, 0., 6.90804300e-05,
          6.90804300e-05, 1.32871850e-04, 1.30396991e-04, 1.66618382e-04,
          6.04942907e-05, -3.23091081e-05, -6.06479516e-05,
          -6.90804300e-05, -3.22120432e-05, -5.42452035e-05, 0.,
          6.90804300e-05, 3.56647433e-05, 8.08198893e-05, 6.30972208e-05,
          1.03743092e-04, 4.18631826e-05, -3.23091081e-05,
          -6.06479516e-05, -6.90804300e-05, -1.35809360e-05,
          -1.98494417e-05, -4.85573437e-05, 3.96472533e-05,
          -7.17349467e-05, 2.97910592e-05, -1.46266370e-06,
          6.12657750e-05, 4.02873193e-05, -3.23091081e-05,
          -6.06479516e-05, -4.91957944e-05, -2.03902091e-05,
          -1.98494417e-05, -6.52411691e-05, -1.20628620e-05,
          -9.05846100e-05, -6.79170353e-06, -3.86365646e-05,
          -4.35553920e-05, -9.34156560e-05, 3.45217850e-05,
          -6.06479516e-05, -6.90804300e-05, -2.88476294e-05,
          -6.16907664e-06, -6.68170323e-05, -3.88010412e-05,
          -7.50329273e-05, -2.52006976e-05, 1.26260084e-05,
          -8.91531454e-05, -4.84232332e-05, 3.45217850e-05,
          1.52056327e-05, -5.49188480e-05, -2.12775103e-05,
          -2.68158219e-05, -4.88373917e-05, -1.22265585e-04,
          -1.06290048e-04, -8.57535197e-05, 0., -3.84817067e-05,
          -6.70227892e-05, 2.45702122e-05, 2.36630531e-05,
          -4.64614277e-05, -2.34752770e-05, 2.74276954e-06,
          -3.07430746e-05, -1.26434170e-04, -1.24699043e-04,
          -8.57535197e-05, 0., -3.52055940e-05, -2.50819321e-05,
          -2.39327092e-05, 2.36630531e-05, -4.64614277e-05,
          -3.68707661e-05, -9.41733815e-05, -8.90733281e-05,
          -1.60455311e-04, -1.31853754e-04, -8.57535197e-05,
          -3.69073750e-05, -3.52055940e-05, 2.55141786e-05,
          -2.94878391e-05, 4.22941630e-05, 3.89557608e-05,
          -1.57681716e-05, -5.92149991e-05, -8.66018381e-05,
          -1.15166476e-04, -1.13222653e-04, -3.78267068e-05,
          -2.64805876e-05, -7.37517621e-05, -7.48092425e-05,
          -3.97895110e-06, 4.47656457e-05, 3.10004616e-05,
          6.96610732e-05, 6.81722158e-05, 5.47854979e-05,
          -5.32264639e-05, -1.50636943e-05, -2.61078567e-05,
          -9.55610158e-05, -6.02207074e-05, -6.95208510e-05,
          -6.15989775e-05, 4.75101006e-05, 6.96500065e-05,
          7.51081971e-05, 9.39925740e-05, 5.54570433e-05, 8.68705538e-05,
          7.39282041e-05, 0., -1.06657091e-04, -1.10723398e-04,
          -9.01736348e-05, -1.16089550e-05, -4.37811213e-05,
          6.53279567e-05, 1.12815003e-04, 1.61204720e-04, 2.06958153e-04,
          1.21427649e-04, 3.24625835e-05, -8.20299610e-05,
          -6.02207074e-05, -1.20673147e-04, -5.23510862e-05,
          -4.62905547e-07, 6.80003859e-06, 6.04860470e-05,
          1.09547000e-04, 1.78347487e-04, 1.64760990e-04, 1.32884554e-04,
          3.11132208e-05, -1.35248803e-04, -1.44002188e-04,
          -9.55570795e-05, 0. ]
      - [ -1.38887641e-04, -1.42467092e-04, -1.38864052e-04,
          1.70269377e-05, 2.01043422e-05, 1.35626600e-04, 1.32028625e-04,
          5.45657167e-06, -1.32809118e-05, -1.23898601e-04,
          -1.79778857e-04, -8.40277717e-05, -1.14978386e-04,
          -5.78632025e-05, 3.01755099e-05, 5.99234336e-05,
          5.43012429e-05, 3.53899159e-05, 5.29817335e-05, 9.80561672e-05,
          -1.02915918e-04, -5.18089582e-05, -4.45109290e-05,
          -1.03724167e-04, -2.92875029e-05, -1.12703410e-05,
          7.34915520e-05, 5.15509746e-05, -7.87230965e-05,
          -3.92329166e-05, -9.75584612e-07, -1.10799147e-06,
          -9.55753057e-05, -5.05008684e-05, -4.63348115e-05,
          7.35525146e-06, -1.22220226e-05, 5.40546425e-05,
          3.05441208e-05, -4.27148880e-05, 3.27246598e-05,
          -9.91243214e-05, -2.45548526e-05, -2.34200761e-05,
          3.21384232e-06, -1.21334106e-05, 4.91591018e-05,
          3.40157821e-05, 6.04137931e-05, 6.08710179e-05, 1.73714834e-05,
          -1.52780976e-05, -5.59329819e-05, -5.75017584e-05,
          4.38957359e-05, 1.99862097e-05, 4.75655652e-05, 9.46972505e-05,
          7.38606759e-05, 7.13577465e-05, 8.46455005e-05, 2.75856764e-05,
          -3.26333648e-05, -1.52780976e-05, -7.01649333e-05,
          -7.34915520e-05, 6.96305797e-05, 7.02856705e-05,
          4.40168442e-05, 1.47678991e-04, 1.66533107e-04, 9.62587728e-05,
          4.72411557e-05, 2.75856764e-05, -5.27460688e-05,
          -6.72906608e-05, -7.64542565e-05, -5.37951564e-05,
          1.14705013e-04, 1.48645442e-04, 1.75884983e-04, 1.66533107e-04,
          1.66533107e-04, 1.25542341e-04, 1.18880416e-05, 2.75856764e-05,
          -7.67163328e-06, -1.06981366e-04, -1.38853538e-05,
          -2.05098167e-05, 1.47990359e-04, 1.48645442e-04,
          2.20959424e-04, 2.40891110e-04, 1.95816669e-04, 1.20809244e-04,
          2.01286930e-05, -3.07740470e-06, -5.27460688e-05,
          -1.19135897e-04, -3.12241536e-05, -6.69959263e-05,
          8.09944249e-05, 1.00560850e-04, 1.58696581e-04, 2.13585881e-04,
          2.40891110e-04, 1.65883685e-04, 2.01286930e-05,
          -3.07740470e-06, -5.27460688e-05, -1.23254897e-04,
          -1.07910797e-04, -1.39160591e-04, 8.82975564e-06,
          -4.46758386e-05, 8.91759410e-05, 1.17096708e-04,
          2.13585881e-04, 1.97115136e-04, 2.57897882e-05, 3.03521006e-06,
          -7.45694706e-05, -1.71244508e-04, -2.08052224e-04,
          -3.33772710e-04, -1.65148871e-04, -9.18579535e-05,
          4.87478865e-05, 5.65781920e-05, 1.56787413e-04, 1.51432992e-04,
          1.36352555e-05, 3.03521006e-06, 3.72912436e-05,
          -1.33953276e-04, -1.98474780e-04, -3.02018627e-04,
          -2.87006784e-04, -1.94019463e-04, -2.68706717e-05,
          5.38791646e-05, 1.25928882e-05, 7.09355663e-05,
          -9.96637846e-06, 6.35115503e-05, 3.72912436e-05,
          -6.05323876e-05, -6.25159737e-05, -2.03476884e-04,
          -1.82259930e-04, -1.48830251e-04, -9.28162044e-05,
          1.19430615e-05, -1.21086878e-05, -9.35139087e-06,
          4.97094061e-06, 1.41619690e-04, 7.87530589e-05,
          -6.91603827e-06, -6.09780327e-05, -1.34712755e-04,
          -6.01432839e-05, -6.11246724e-05, -4.90065031e-05,
          -4.52859058e-05, -3.82749022e-05, -1.11888439e-05,
          4.83604344e-05, 1.44585967e-04, 1.62810058e-04, 1.38665520e-04,
          -2.23069146e-05, -3.32853415e-05, 1.20005661e-05,
          -3.71533461e-05, -1.90360515e-05, -7.45694706e-05,
          -4.30079963e-05, -4.71005660e-05, 4.42387827e-05,
          2.05869132e-04, 2.41222238e-04, 1.58778217e-04, 2.93271187e-05,
          0., 7.45694706e-05, 4.12064292e-05, 3.86990723e-05,
          -7.45694706e-05, -3.64849475e-05, -4.71005660e-05,
          1.02972081e-04, 1.52560940e-04, 1.86765479e-04, 2.04522425e-04,
          3.80478414e-05, 0., 7.45694706e-05, 4.12064292e-05,
          6.81658930e-05, -7.45694706e-05, -3.64849475e-05,
          -4.84200718e-05, 1.56251728e-04, 2.25806230e-04,
          2.36628679e-04, 2.46397511e-04, 1.11468726e-04, 0.,
          7.45694706e-05, 1.78243627e-05, 7.96278327e-05,
          -7.45694706e-05, -3.64849475e-05, -5.44735885e-05,
          1.47297178e-04, 2.30440623e-04, 1.82994074e-04, 2.48559285e-04,
          1.08774002e-04, 0., 7.45694706e-05, 1.78243627e-05,
          2.26454958e-05, -7.45694706e-05, -1.59751326e-05,
          -7.62969867e-05, 1.49145519e-04, 1.86017744e-04,
          2.01310948e-04, 1.55849091e-04, 7.88035468e-05, 0.,
          7.45694706e-05, 4.71220774e-05, 9.47359076e-05,
          -8.80914265e-20, -3.48292597e-05, -3.41110645e-05,
          9.25797285e-05, 1.14097144e-04, 7.13242698e-05, 1.24614133e-04,
          5.82466273e-05, 1.08774002e-04, 7.45694706e-05, 2.04764069e-06,
          2.13150252e-05, -8.80914265e-20, 3.97402109e-05,
          -3.41110645e-05, 7.73421125e-05, 8.48135824e-05,
          2.97170700e-05, 4.34837129e-05, 1.24128797e-04, 1.08774002e-04,
          7.45694706e-05, 2.04764069e-06, -1.19703154e-05,
          -8.80914265e-20, 3.97402109e-05, 3.77636788e-05,
          7.99542249e-05, 4.51228807e-05, 2.97170700e-05, 5.76760940e-05,
          8.19459747e-05, 1.08774002e-04, 6.41972292e-05,
          -6.51386642e-07, -3.16667065e-05, -3.06341717e-05,
          3.97402109e-05, 2.37044896e-05, 3.76222124e-05,
          -2.92109671e-05, -3.83448860e-05, -7.46010846e-05,
          1.36124772e-05, 7.15737333e-05, -1.64259509e-05,
          -6.07647526e-05, 4.17541778e-05, 4.10484745e-06,
          -4.76870700e-05, -8.96810161e-05, 4.41175325e-05,
          -2.56269032e-05, -8.86612979e-05, -4.45072255e-05,
          -7.56668305e-06, -2.35830685e-05, -2.58676464e-05,
          -1.59546653e-05, -1.68478473e-05, -8.13404113e-05,
          -1.44017285e-05, 1.98215675e-05, -3.70763992e-05,
          -1.01608002e-05, -8.86612979e-05, -7.34208879e-05,
          -2.22077015e-05, -3.05540998e-05, -1.15581929e-06,
          7.60255571e-05, -6.75679121e-06, -1.44017285e-05,
          -1.90883729e-05, 1.26366126e-06, -2.68280255e-05,
          -2.53693215e-05, -2.16521621e-05, -2.83464487e-05,
          -8.80914265e-20, -8.80914265e-20, -8.80914265e-20,
          -6.24149325e-05, -2.30902333e-05, -3.28258211e-05,
          -1.73038879e-05, 0., 0., -7.91670118e-06, -1.21989406e-05,
          3.81132668e-05, -2.42274491e-05, -6.30781069e-05,
          -8.02231734e-05, -5.23260205e-05, -2.56614967e-05,
          -1.05875952e-05, 0., 0. ]
      - [ 6.13022712e-06, 1.29965019e-05, -3.40459737e-05,
          2.29106045e-05, -5.52876154e-05, 2.58189521e-05,
          6.37298945e-05, -1.51375789e-04, -4.98358786e-05,
          1.27607891e-05, 5.72619610e-05, -6.61174772e-06,
          1.29965019e-05, -2.16804037e-05, 2.00146878e-05,
          -2.56041835e-06, 9.62189370e-06, -2.06676039e-19,
          -2.06676039e-19, 4.75328379e-05, -9.32530602e-05,
          -1.21145218e-04, -6.01819302e-05, 6.25639004e-05,
          5.78593426e-05, -6.87245702e-05, -2.56041835e-06,
          3.07598602e-05, -3.50963746e-05, -2.09782102e-05,
          -7.05611455e-05, 1.40671589e-04, -1.63528006e-04,
          -1.76667483e-04, -5.84073905e-06, 4.19332828e-05,
          -9.40700647e-06, 4.22406411e-05, -4.39185460e-05,
          -3.93855134e-06, -1.26854525e-06, -7.81108683e-05,
          -3.41146151e-05, -6.35421165e-05, -4.63118995e-05,
          -1.08143453e-04, -1.37867382e-05, -9.36787837e-05,
          2.71554945e-05, -5.29219460e-06, 6.67720451e-05,
          4.15012255e-05, 4.24792270e-05, 1.02077474e-05, 7.03990081e-05,
          1.15360606e-04, 5.64242464e-06, 2.74856084e-05,
          -2.66487477e-05, 3.95463139e-05, -6.03319540e-06,
          -5.29219460e-06, -4.77962794e-06, 9.30000679e-05,
          6.01935099e-05, 1.56827045e-05, 2.02485520e-04, 1.25599327e-04,
          2.62893082e-05, 1.97693385e-04, 1.97270710e-04, 1.02852522e-04,
          -5.35660329e-05, -1.49140888e-05, -7.75592780e-05,
          -1.53913534e-05, 6.01935099e-05, 1.56827045e-05,
          2.02485520e-04, 2.55054387e-04, 3.17195547e-04, 3.25829809e-04,
          2.89778720e-04, 1.72415617e-04, -7.07278843e-07,
          -1.49140888e-05, -7.75592780e-05, -5.85826529e-05,
          -9.36959259e-06, 1.56827045e-05, 2.02485520e-04,
          2.84126785e-04, 4.23389138e-04, 5.16188040e-04, 4.28623811e-04,
          2.99265434e-04, -3.75788909e-06, -1.49140888e-05,
          -9.86972445e-05, 2.01250969e-05, -3.92682205e-06, 0.,
          1.81347554e-04, 2.61481211e-04, 4.23389138e-04, 5.16188040e-04,
          4.57192305e-04, 2.99265434e-04, 6.22547959e-05,
          -5.29219460e-06, -4.39962569e-05, -1.01286764e-06,
          -1.51167929e-04, -2.46553449e-04, -4.40679396e-05,
          1.75069363e-05, 1.83435535e-04, 2.90772528e-04, 4.47570405e-04,
          2.99265434e-04, 8.10506390e-05, -1.49140888e-05,
          -8.72343735e-05, -6.29300994e-05, -2.54707236e-04,
          -3.56178760e-04, -3.13614582e-04, -1.42613804e-04,
          1.49444677e-04, 2.78123043e-04, 3.87974258e-04, 2.20080445e-04,
          1.10738940e-04, -1.49140888e-05, -2.06676039e-19,
          -2.02485520e-04, -3.07348673e-04, -4.07387910e-04,
          -4.20636003e-04, -2.97537190e-04, 1.03585189e-05,
          1.85124969e-04, 1.36980248e-04, 2.20080445e-04,
          -1.07993837e-04, 1.03905095e-05, -2.06676039e-19,
          -8.72343735e-05, -3.01770808e-04, -3.00068205e-04,
          -2.12833824e-04, -1.16732124e-04, -4.80977942e-05,
          2.55109662e-05, 1.17406664e-04, 1.41659635e-04,
          -1.07993837e-04, 7.68615394e-07, -2.06676039e-19,
          -8.72343735e-05, -2.57157197e-04, -2.36098858e-04,
          -1.92102598e-04, -1.07137552e-04, -3.17428457e-05,
          -7.96417808e-05, -3.77613796e-05, 1.32461748e-04,
          -1.12856833e-04, -2.06676039e-19, -2.06676039e-19,
          -5.84973823e-05, -1.96453999e-04, -1.89196056e-04,
          -6.20214487e-05, -1.55787871e-04, -2.42614096e-05,
          -8.72343735e-05, -1.13969400e-04, 9.36750366e-05,
          -9.76387309e-05, -2.06676039e-19, 2.87369912e-05,
          -7.66666835e-06, -9.24416454e-05, -4.65368794e-06,
          8.72343735e-05, -5.52888087e-05, -5.15640131e-05,
          -8.72343735e-05, -7.49880928e-05, -4.18698364e-05,
          -2.83079316e-05, -3.80300007e-05, -5.84973823e-05,
          8.04574811e-05, -1.26224288e-04, 0., 7.96417808e-05,
          5.09047895e-05, -1.35768259e-05, -8.72343735e-05,
          -7.49880928e-05, -1.42868317e-04, -6.23485466e-05,
          -3.80300007e-05, -5.84973823e-05, 3.72193608e-05,
          -1.23534883e-05, 0., 7.96417808e-05, 5.09047895e-05,
          3.94399685e-05, -8.72343735e-05, -8.18120752e-05,
          -8.10898346e-05, -6.51232403e-05, -3.80300007e-05,
          -5.84973823e-05, 2.78029638e-05, -1.63345321e-05, 0.,
          8.72343735e-05, 5.09047895e-05, 6.39723730e-05,
          -8.72343735e-05, -7.34114728e-05, -8.07734759e-05,
          4.03302147e-05, -6.61012236e-05, -5.84973823e-05,
          3.24566499e-05, 3.04917576e-05, 0., 8.72343735e-05,
          2.33493720e-05, 1.40073695e-04, -2.06676039e-19,
          -7.34114728e-05, 1.97510126e-05, 5.88382100e-05,
          -6.61012236e-05, -1.26215687e-04, -3.66866952e-05,
          2.08698639e-05, 6.77182979e-05, 8.72343735e-05, 6.65874904e-05,
          6.90679299e-05, -2.06676039e-19, 1.38229034e-05,
          -4.38983770e-05, 9.46986256e-06, -6.61012236e-05,
          -1.80348390e-04, -4.29530010e-05, -2.68101388e-07,
          3.80300007e-05, 8.72343735e-05, 6.65874904e-05, 1.11997208e-04,
          -2.06676039e-19, 1.38229034e-05, 5.09285928e-05,
          -1.76260673e-05, -7.03617261e-05, -1.80348390e-04,
          -4.38270326e-05, -2.68101388e-07, 2.84081088e-05,
          7.96417808e-05, 5.69655967e-05, 3.47760688e-05,
          -1.56827045e-05, 2.14154988e-05, 6.23236265e-05,
          2.74356789e-05, 6.71263842e-06, -3.89813104e-05,
          -8.54047994e-06, -1.36715025e-04, 2.84081088e-05,
          8.48145373e-06, -3.14930221e-05, 7.29528401e-05,
          -8.09010817e-06, -7.88425605e-05, -5.17784611e-05,
          -8.62807574e-05, -4.86940698e-05, -6.77182979e-05,
          -4.68902617e-05, -7.50872859e-05, -2.97891002e-05,
          4.72852662e-05, 2.86742397e-05, -2.75565308e-05,
          -8.57025880e-05, 2.27972942e-05, 1.80595962e-05,
          -1.66409183e-04, 3.67306602e-05, -3.80300007e-05,
          -6.77182979e-05, 2.08280399e-05, 9.37755176e-05,
          4.40642998e-06, -5.35830486e-06, 1.72144901e-05,
          -1.08348169e-04, -5.85693706e-05, 2.28827848e-05, 0.,
          -7.73799693e-05, -2.13282074e-05, -9.70257024e-05,
          4.75328379e-05, -2.06676039e-19, -2.06676039e-19,
          -9.26654684e-05, -8.39294516e-05, 1.77904360e-06,
          -1.81221185e-06, 0., 0., 0., -6.98141739e-05, -6.27648624e-05,
          1.08399807e-04, 1.57316354e-05, 2.33242317e-05,
          -2.90941025e-05, 1.14469090e-04, 9.57743168e-07,
          -2.17913075e-05, 0. ]
      - [ -5.24772549e-05, -6.60236765e-05, -4.59948169e-05,
          -5.85269008e-05, -5.00281840e-06, 5.68247960e-05,
          5.81172790e-05, -1.79473391e-05, -3.60739214e-05,
          -1.13198548e-04, -1.29764318e-04, -1.12930218e-04,
          -6.68927096e-05, -1.48909894e-05, 3.85245448e-06,
          1.53269757e-05, 3.56807941e-05, 3.92810398e-05, 4.24465397e-05,
          2.56124422e-05, -4.36033442e-05, -4.92700092e-05,
          -9.98523319e-05, -1.31105262e-04, -3.10097312e-06,
          -2.42575697e-05, 5.31244677e-06, 2.25007643e-05,
          -5.18449524e-05, -3.39664366e-05, 4.09780159e-06,
          -9.45550073e-06, -7.06181891e-05, -7.06181891e-05,
          -9.16304998e-05, -6.78267461e-05, -1.23678856e-05,
          -2.99242365e-05, 3.70334128e-05, -1.99335409e-05,
          -3.55199081e-05, -3.96490723e-05, 1.76721005e-05,
          1.02862859e-05, -4.13789749e-05, -8.69637224e-05,
          -2.23314546e-05, -4.55633344e-05, 2.24799605e-05,
          -9.37070035e-06, 1.70338153e-05, 1.43513880e-05,
          -5.83925175e-05, -3.83081351e-05, 2.26132870e-05,
          -3.70377602e-05, -4.00380341e-05, -8.69637224e-05,
          -3.67673892e-05, -1.82625408e-05, 8.05340824e-05,
          5.30242542e-05, 4.56269117e-05, 4.99423804e-05,
          -1.84924756e-05, -1.28258098e-05, 2.54969545e-05,
          -2.45222618e-05, -6.03918525e-05, -8.69637224e-05,
          -3.67673892e-05, 1.55141497e-05, 8.54752652e-05,
          6.18461563e-05, 6.48978967e-05, 4.61544514e-05, 2.03538184e-05,
          -1.70338153e-05, 3.86769825e-05, -2.99635121e-05,
          -4.85828969e-05, -3.86769825e-05, -3.67673892e-05,
          9.84748294e-06, 5.35638537e-05, 8.54752652e-05, 8.37445914e-05,
          8.18352491e-05, 2.03538184e-05, -1.70338153e-05,
          3.67673892e-05, -3.12559969e-05, -1.25362012e-05,
          -3.86769825e-05, -2.99185594e-05, 2.30623959e-06,
          5.92305187e-05, 1.07976033e-04, 1.00578691e-04, 8.18352491e-05,
          2.03538184e-05, -3.73876319e-05, 3.67673892e-05,
          -6.11274081e-05, 6.13471184e-06, -3.86769825e-05,
          -2.99185594e-05, 7.97290613e-06, 7.60646144e-05,
          1.07976033e-04, 1.00578691e-04, 8.18352491e-05, 2.03538184e-05,
          -3.73876319e-05, 3.67673892e-05, -6.60685910e-05,
          6.13471184e-06, -3.67673892e-05, -1.30844610e-05,
          4.99843045e-05, 7.60646144e-05, 1.26646948e-04, 1.00578691e-04,
          8.18352491e-05, 2.03538184e-05, -3.92972288e-05,
          -3.01149375e-05, -8.18352491e-05, 6.13471184e-06,
          -1.80239476e-05, -8.14327632e-06, 3.90852001e-05,
          7.60646144e-05, 1.26646948e-04, 1.57899864e-04, 8.18352491e-05,
          1.29680038e-05, -3.92972288e-05, -7.37308219e-05,
          -8.18352491e-05, 2.64885293e-05, -1.11751160e-05,
          1.98137286e-06, 5.22652299e-05, 5.73211728e-05, 1.47000756e-04,
          1.57899864e-04, 9.86690939e-05, 1.29680038e-05,
          -4.61460586e-05, -8.61632361e-05, -8.18352491e-05,
          1.42594945e-06, -1.11751160e-05, 1.05881245e-05,
          5.22652299e-05, 5.73211728e-05, 1.57899864e-04, 1.57899864e-04,
          6.12814620e-05, 1.29680038e-05, -4.93115585e-05,
          -8.74557227e-05, -8.18352491e-05, 3.33554294e-06,
          -8.00961516e-06, 4.05451938e-05, 3.19114115e-05,
          5.73211728e-05, 1.25988459e-04, 1.57899864e-04, 4.26105507e-05,
          -7.38581502e-06, -6.24915920e-05, -1.00578691e-04,
          -5.44326322e-05, 6.50104357e-06, -8.00961516e-06,
          3.50543087e-05, 3.19114115e-05, 5.73211728e-05, 1.25988459e-04,
          1.20512232e-04, 4.26105507e-05, -7.06085711e-06,
          -6.24915920e-05, -1.00578691e-04, -5.44326322e-05,
          6.50104357e-06, -4.40936901e-06, 5.37977539e-05,
          3.19114115e-05, 9.63459024e-05, 1.07245010e-04, 6.31910589e-05,
          4.26105507e-05, -3.05801768e-05, -7.17584990e-05,
          -5.44326322e-05, -5.44326322e-05, 1.74001470e-05,
          1.57782652e-05, 5.37977539e-05, 3.19114115e-05, 9.63459024e-05,
          1.07245010e-04, 6.12814620e-05, 2.94305210e-05,
          -1.18367334e-05, -7.30994361e-05, -5.44326322e-05,
          -5.12671322e-05, 1.74001470e-05, 1.57782652e-05,
          5.37977539e-05, 3.19114115e-05, 9.63459024e-05, 1.07245010e-04,
          6.12814620e-05, 1.16825868e-05, -1.18367334e-05,
          -9.68680251e-05, -5.44326322e-05, -5.12671322e-05,
          3.41804225e-05, 3.01937180e-05, 3.34439355e-05, 3.19114115e-05,
          1.07245010e-04, 1.07245010e-04, 5.44326322e-05, 8.51708592e-06,
          -1.75033983e-05, -5.75707963e-05, -5.44326322e-05,
          4.53787607e-06, 3.98470875e-05, 1.04348990e-04, 2.25448312e-05,
          5.06548568e-05, 1.07245010e-04, 6.79477816e-05, 1.93436590e-05,
          8.51708592e-06, -5.05546086e-05, -2.94696165e-05,
          -5.12671322e-05, 4.53787607e-06, 2.80381319e-05,
          1.32459012e-04, 1.07976033e-04, 5.06548568e-05, 6.98573785e-05,
          6.79477816e-05, 1.93436590e-05, -1.67779181e-05,
          -2.01014609e-05, -2.94696165e-05, -5.12671322e-05,
          1.14723616e-05, 2.93790690e-05, 1.32459012e-04, 1.07976033e-04,
          1.07976033e-04, 5.70486773e-05, 4.47534221e-05, 1.93436590e-05,
          3.57590056e-06, -1.81918676e-05, -3.24926004e-05,
          -3.80871024e-05, 1.28133006e-05, 4.62131684e-05,
          1.05634637e-04, 1.07976033e-04, 1.07976033e-04, 3.66948589e-05,
          4.47534221e-05, 5.43936731e-05, -9.02525153e-06,
          -1.26355180e-05, -5.79334519e-05, -1.77332840e-05,
          1.28133006e-05, 4.81225143e-05, 1.18875134e-04, 5.06548568e-05,
          3.19114115e-05, 1.35004984e-05, 4.47534221e-05, 4.11531728e-05,
          7.78392132e-05, 5.13708765e-05, 3.29215727e-05, 2.46222589e-05,
          4.81225143e-05, 4.81225143e-05, 6.15539611e-05, 5.06548568e-05,
          3.19114115e-05, -4.38206771e-05, 2.43996019e-05,
          7.15332062e-05, 9.52176488e-05, 5.13708765e-05, 3.29215727e-05,
          7.30994361e-05, 8.00339258e-05, 9.81605044e-05, 5.06548568e-05,
          3.19114115e-05, 3.19114115e-05, -4.61460586e-05,
          -4.74209228e-05, 5.11793842e-05, 1.03976068e-04,
          9.77749951e-05, 6.24915920e-05, 7.30994361e-05, 2.40052341e-05,
          8.00308499e-06, 5.06548568e-05, 0., 0., -4.61460586e-05,
          -6.24915920e-05, 3.52553907e-05, 8.80802327e-05,
          9.22115796e-05, 1.44373262e-05, 7.00951716e-07,
          -3.55450857e-06, -9.36658034e-06, 0., 0., 0. ]
      - [ 8.10092170e-05, 3.37466154e-05, -1.80962714e-04,
          1.22904836e-04, -1.36573988e-04, 9.26823395e-06,
          1.20908997e-04, 2.03278960e-05, 8.27470139e-05, 9.78991011e-05,
          1.42998222e-04, -3.03921461e-05, -1.22654004e-04,
          -7.32763874e-05, -1.94913719e-05, -3.08806921e-05,
          4.87890978e-19, -4.34891735e-05, -2.56203857e-05,
          4.87890978e-19, -3.48034264e-05, -2.89688269e-05,
          -1.09822620e-04, -2.23355564e-05, 2.35785456e-06,
          7.94526641e-05, -3.02085318e-05, -4.05531537e-05,
          -1.02646962e-04, 7.23434787e-05, 1.10210647e-04,
          -1.25508959e-04, -6.73419854e-05, -4.34416361e-05,
          -1.48697072e-04, -1.35537586e-04, -3.15810990e-04,
          -1.33024412e-04, -7.07616855e-05, -1.22543584e-04,
          -1.32516405e-04, 1.07018685e-04, 4.14510068e-05,
          -1.22853189e-05, 6.51496230e-05, -6.73419854e-05,
          3.35323130e-05, 1.55790749e-05, -3.69985792e-05,
          -1.57882459e-04, -7.07616855e-05, 7.75196822e-05,
          -7.37369119e-05, 3.02085318e-05, 2.29541420e-05,
          1.15926523e-04, 1.39815835e-04, -6.73419854e-05,
          -1.82477161e-05, -2.19879817e-04, -1.54617068e-04,
          -9.77488307e-05, -4.46977938e-05, 2.19455877e-04,
          1.05804029e-04, 3.02085318e-05, 5.87037757e-05, 4.46977938e-05,
          4.40716303e-06, -6.73419854e-05, -1.82477161e-05,
          -2.75133236e-04, -2.27656619e-05, -9.77488307e-05,
          -8.51538571e-05, 4.49663712e-05, 9.80562836e-05,
          3.02085318e-05, 5.87037757e-05, 4.46977938e-05, 1.09607310e-04,
          -5.87037757e-05, -1.82477161e-05, -2.75181665e-04,
          -1.31136956e-04, -4.57386850e-05, -8.51538571e-05,
          7.04684790e-05, 1.97502013e-04, 3.02085318e-05, 5.87037757e-05,
          4.46977938e-05, -4.08408487e-05, -5.87037757e-05,
          -1.82477161e-05, -2.02398049e-04, -4.87010002e-05,
          -4.57386850e-05, -4.14464012e-06, 5.76118873e-06,
          1.92170555e-04, 0., 5.87037757e-05, 1.00372104e-04,
          8.13908118e-05, -5.87037757e-05, -5.87037757e-05,
          -8.84834881e-05, 5.20761641e-05, -4.57386850e-05,
          -4.14464012e-06, 8.67704002e-05, 1.06506719e-04, 0.,
          5.87037757e-05, 2.99523905e-04, 2.54173239e-04,
          -5.87037757e-05, -5.87037757e-05, 5.43898341e-06,
          8.83240591e-06, 4.79733308e-06, -4.19501594e-05,
          1.15755778e-04, 1.06506719e-04, 0., 5.87037757e-05,
          2.83990594e-05, 1.25392442e-04, -5.87037757e-05,
          -1.82477161e-05, 6.43452004e-05, 2.43475137e-04,
          1.59233950e-05, 4.87890978e-19, -3.05693684e-05,
          -3.89891684e-05, 0., 5.87037757e-05, -9.99193071e-05,
          7.82870702e-05, -5.87037757e-05, 2.52877129e-04,
          4.77887661e-05, 2.84605980e-04, 1.89768834e-04, 4.87890978e-19,
          -1.58527051e-04, -4.70572559e-04, -2.96612852e-04,
          -4.29280160e-04, -3.25010304e-04, -1.46517050e-04,
          -5.87037757e-05, 3.38073587e-04, 8.95447447e-05,
          4.43170575e-04, 2.87545670e-04, 4.87890978e-19,
          -1.58527051e-04, -9.91682871e-04, -7.76700559e-04,
          -9.26745473e-04, -7.95137836e-04, -2.31143160e-04,
          -5.87037757e-05, 3.86756146e-04, 4.73878870e-04,
          3.93699185e-04, 2.29609970e-04, 4.87890978e-19,
          -1.65418998e-04, -7.50766543e-04, -9.44151427e-04,
          -7.97467364e-04, -8.09360121e-04, -1.08262044e-04,
          -5.87037757e-05, 3.66467168e-04, 2.73542653e-04,
          3.12120566e-04, 1.64902682e-04, 4.87890978e-19,
          -1.65418998e-04, -2.32350620e-04, -1.78194809e-04,
          -1.30617103e-04, -3.23639135e-04, -1.08262044e-04,
          -5.87037757e-05, -2.40433492e-05, 8.33336089e-05,
          -8.96127967e-05, 3.72905124e-05, -5.87037757e-05,
          8.22276270e-05, 2.16511908e-05, -7.89296173e-05,
          5.87037757e-05, 6.65354855e-06, -7.95317319e-05,
          -5.87037757e-05, -4.07969674e-05, 1.59339790e-04,
          -1.79668466e-04, -3.16554724e-06, -5.87037757e-05,
          1.71376290e-04, 3.16155696e-04, 0., 5.87037757e-05,
          1.95403263e-04, 1.12161993e-04, -5.87037757e-05,
          -4.07969674e-05, 9.12276955e-05, -1.02128128e-04,
          -3.16554724e-06, -5.17738117e-05, 8.66665578e-05,
          2.15226682e-04, 0., 5.87037757e-05, 1.79565686e-04,
          1.74492016e-04, -5.87037757e-05, -7.10054956e-05,
          -6.20073843e-05, -1.59448085e-04, -3.16554724e-06,
          -7.58351889e-05, 6.06100984e-05, 1.74770612e-04, 0.,
          5.87037757e-05, 2.27792218e-04, 1.85941142e-04, 4.87890978e-19,
          -7.96437089e-05, 1.90018291e-05, -6.44427637e-05,
          4.55170048e-05, -7.58836031e-05, 7.17361618e-05,
          1.74770612e-04, 3.16554724e-06, 5.87037757e-05, 1.50989421e-04,
          1.85941142e-04, 4.87890978e-19, -2.09399332e-05,
          2.24821270e-06, 1.26414689e-05, -1.92326843e-05,
          -5.80148117e-05, -1.86647187e-04, 1.74770612e-04,
          3.16554724e-06, 5.87037757e-05, 1.27089079e-04, 2.50450743e-04,
          4.87890978e-19, -9.84802755e-05, 1.98518610e-05,
          4.98408226e-05, 8.59730644e-05, -5.80148117e-05,
          -2.09829552e-04, -5.00775116e-07, 3.16554724e-06,
          7.65725636e-05, 1.52619279e-04, 3.12574994e-05,
          -3.33740791e-05, -9.84802755e-05, -9.89628752e-05,
          -4.79557275e-05, 3.72905124e-05, -3.09533170e-05,
          -1.38991643e-04, -2.17188917e-05, -1.02576741e-04,
          -1.68299775e-05, -1.48738181e-04, 4.50745938e-06,
          -3.71004753e-05, 9.60720135e-05, 2.14151605e-05,
          -8.71977027e-05, 1.64686371e-05, -3.16554724e-06,
          1.60760188e-04, 5.91614189e-05, 1.28841755e-04,
          -2.08013691e-04, -1.24053811e-04, -4.10395187e-05,
          -1.13673043e-04, -9.55040887e-05, -6.75775664e-06,
          -7.15874412e-05, 2.05052074e-05, -7.30218235e-05,
          2.21638576e-04, 2.28193487e-04, 8.23442024e-05,
          -4.33262794e-05, -1.67798949e-04, -1.78687897e-05,
          3.01317225e-04, 8.33266822e-05, -1.10199624e-04, 0.,
          -2.61017976e-05, -2.61494686e-04, -9.43736959e-05,
          4.87890978e-19, 4.87890978e-19, 1.53235073e-04, 9.45313004e-05,
          5.66993767e-05, 3.94547496e-05, 4.48020583e-05, 0., 0.,
          1.78687897e-05, -4.58787181e-05, -6.15980753e-05,
          -6.16545803e-05, 1.27373914e-05, 6.65729312e-05,
          -6.85799969e-05, -3.64522521e-06, 1.09599838e-04,
          -2.39003512e-05, 0. ]
      - [ -2.18154255e-05, 1.16850915e-05, 9.77950731e-06,
          1.45546554e-04, -4.56229754e-05, -8.29802666e-05,
          -8.97126520e-05, -1.44366306e-04, 2.74851263e-05,
          1.58783660e-05, -5.32195227e-05, -5.06966462e-05,
          -8.49773714e-05, 5.34452811e-05, 5.40316796e-05,
          2.50788707e-05, -6.96342067e-06, -7.48805905e-05,
          -1.78543287e-05, -1.28606262e-05, -6.09426133e-05,
          3.26522240e-05, 1.35183072e-04, -5.80062660e-05,
          1.39424292e-05, 8.92587996e-05, 2.01591483e-05, 3.46157540e-05,
          -8.39524728e-05, -9.94530565e-05, -2.08158981e-05,
          -1.10887217e-04, -8.17833570e-05, -6.75678821e-05,
          4.09794666e-05, 8.20311470e-06, -4.34702451e-05,
          -5.73051293e-05, 3.04931861e-20, 3.06491092e-05,
          -9.19819213e-05, -8.11547143e-05, 2.12662071e-05,
          2.11613838e-06, 5.93668083e-05, -9.14727643e-05,
          -3.38200443e-05, 5.65391128e-05, 5.27856137e-05,
          1.00057470e-04, 7.47871527e-05, 8.13457591e-05,
          -7.11247048e-05, -1.04320447e-04, -5.08755784e-06,
          -2.77028721e-05, 1.55361868e-05, -7.82406496e-05,
          -1.59657175e-05, -2.34660292e-05, 2.95310074e-05,
          -3.25006949e-05, -3.96664382e-06, 1.05327468e-04,
          -8.20733403e-05, -4.99370162e-06, 8.48475029e-05,
          -6.93772818e-05, 4.36250375e-05, -7.82406496e-05,
          -6.60464575e-05, -1.69975847e-05, 5.94525991e-05,
          -2.77139534e-05, -3.69218942e-05, 1.07493426e-04,
          -1.95632510e-05, -4.99370162e-06, 8.48475029e-05,
          -1.41899427e-05, 1.06062711e-04, -7.16153882e-05,
          -6.60464575e-05, -9.28708614e-05, -2.62919511e-05,
          -6.62526463e-06, -3.69218942e-05, 5.45139883e-05,
          3.05174890e-05, 0., 8.48475029e-05, -2.10734626e-07,
          8.72148030e-06, -8.48475029e-05, -4.30882865e-05,
          -1.06969914e-04, -4.55584304e-05, -6.62526463e-06,
          -3.69218942e-05, -2.23600455e-06, 3.05174890e-05, 0.,
          8.48475029e-05, 3.50000992e-05, 9.59856479e-05,
          -8.48475029e-05, -4.30882865e-05, -2.56217518e-05,
          1.16323884e-06, 7.58521637e-05, -4.19155949e-05,
          9.60161742e-06, 3.05174890e-05, 0., 8.48475029e-05,
          1.20419290e-05, 1.35082219e-05, -8.98412036e-05,
          -4.30882865e-05, 5.51069897e-05, 5.35578147e-05,
          -6.62526463e-06, -2.80571549e-05, 4.94446977e-05,
          3.55907177e-05, 0., 7.37601003e-05, 3.38573554e-05,
          6.13108932e-05, -7.87538011e-05, -4.30882865e-05,
          5.37465639e-05, 6.95691633e-05, 7.58521637e-05, 5.06966462e-05,
          1.26064942e-05, 1.32253175e-04, 0., 7.37601003e-05,
          5.22053597e-05, 2.46552045e-05, -7.87538011e-05,
          -4.30882865e-05, 1.18492215e-04, -1.06488442e-05,
          -6.62526463e-06, 3.04931861e-20, 2.33678074e-05,
          4.97757574e-05, 0., 3.20008839e-05, 5.86917813e-05,
          -1.02613785e-05, -7.87538011e-05, -4.30882865e-05,
          1.21075955e-05, -9.70487745e-05, 8.24774252e-05,
          3.04931861e-20, -6.90880479e-05, -9.84662256e-05,
          -1.52284309e-04, -1.20283417e-04, 1.27920985e-05,
          -3.22960332e-05, -7.87538011e-05, -4.80819872e-05,
          -6.27140544e-05, -1.81266714e-05, 9.08886068e-05,
          3.04931861e-20, -1.12213616e-04, -2.09012782e-04,
          -2.94573460e-04, -2.10746424e-04, -1.85380151e-04,
          -1.19240416e-04, -7.87538011e-05, -1.01330361e-05,
          -2.35636926e-05, 1.10514826e-04, 1.28131025e-04,
          1.22817422e-04, -1.23560618e-04, -2.93057645e-04,
          -4.78415168e-04, -4.45843005e-04, -3.43542284e-04,
          -1.57189366e-04, -7.87538011e-05, -3.69945883e-05,
          -1.66002719e-05, 1.78641436e-04, 3.27894173e-04,
          1.96736335e-04, 4.59790499e-05, -2.15077089e-04,
          -4.94637352e-04, -5.20957168e-04, -3.11298005e-04,
          -6.80866797e-05, -7.87538011e-05, -3.69945883e-05,
          -5.53021382e-05, 2.76291714e-04, 3.88578570e-04,
          3.71544011e-04, 2.17851819e-04, -3.94291637e-05,
          -3.09125317e-04, -2.59544438e-04, -2.03656324e-04,
          -1.04713479e-04, -7.87538011e-05, -3.69945883e-05,
          -5.53021382e-05, 3.22643376e-04, 3.87435808e-04,
          4.63770033e-04, 1.43200101e-04, -3.55636912e-05,
          -2.67662428e-04, -1.30466040e-04, -3.69959853e-05,
          -6.32253577e-05, -7.87538011e-05, -3.69945883e-05,
          -4.20700235e-05, 3.38584970e-04, 5.87113434e-04,
          4.97611007e-04, 3.94554343e-04, 2.32098755e-04, 0.,
          -6.39735845e-06, 1.63895442e-04, -2.42558326e-05,
          3.04931861e-20, -4.36198497e-05, -1.07901098e-04,
          2.23826661e-04, 3.33810807e-04, 3.03887500e-04, 3.12076911e-04,
          1.72579501e-04, 2.52724403e-05, 7.87538011e-05, 1.24356346e-04,
          -6.42168961e-05, 3.04931861e-20, -6.62526463e-06,
          5.09547681e-05, 1.62654454e-04, 1.97874499e-04, 1.88727339e-04,
          1.73969296e-04, 1.72579501e-04, 2.52724403e-05,
          -3.72362501e-06, 4.88423357e-05, 1.48378419e-07,
          3.04931861e-20, 7.26177968e-05, 6.36674813e-05, 8.97240752e-05,
          1.45672864e-04, 2.10200582e-04, 1.84954028e-04, 1.13595073e-04,
          1.11672372e-04, 5.33026359e-05, -3.17651466e-05,
          -3.48991598e-05, -9.66624648e-05, 7.26177968e-05,
          6.01247775e-05, 7.46579972e-05, 3.01964610e-05, 7.02722900e-05,
          2.80925929e-06, 1.28862128e-04, 1.50892374e-04, 8.91124655e-05,
          6.79890945e-05, -1.04286177e-04, 8.24774252e-05,
          -8.66504342e-05, -1.70179366e-04, 5.84981171e-05,
          -1.67585793e-04, -2.02787378e-05, -5.46322881e-05,
          -3.32560944e-06, 6.58839781e-05, -1.28393658e-05,
          6.93193942e-06, -1.09160253e-04, -5.33026359e-05,
          -6.79986115e-05, -8.43127564e-05, -2.28051285e-05,
          1.47296669e-05, 4.95281383e-05, 5.85293965e-05, 3.09669485e-05,
          -4.13325433e-05, 9.48268553e-06, 6.62246966e-05,
          9.52580449e-05, 3.57527751e-05, -8.19661946e-05,
          7.39343886e-05, -1.46231556e-04, -1.04074250e-04,
          -1.03035658e-04, 6.37131743e-05, 7.48005768e-05,
          3.04931861e-20, 3.04931861e-20, 7.35305002e-05, 7.28971872e-06,
          -3.98858319e-05, -4.22296653e-05, 0., -7.89347177e-05,
          -1.11020716e-04, -8.88124487e-05, -5.42623129e-05,
          1.49877247e-04, -8.06263415e-05, -2.13608000e-04,
          -1.47950312e-04, 1.01559153e-05, -6.39258869e-05, 0., 0. ]
      - [ -4.34960821e-05, -2.92344794e-05, -6.36428449e-05,
          -3.04907269e-04, -1.06274587e-04, -6.15419485e-05,
          -1.60374020e-05, -1.34876886e-04, 4.64307850e-05,
          2.87215313e-04, 3.63264495e-04, 2.19243128e-04, 7.60113544e-05,
          2.53088019e-05, -3.15526850e-05, 8.96515558e-05,
          1.68796414e-05, 5.33995217e-06, 1.01286394e-04,
          -6.15308745e-05, 3.64157095e-05, 3.65531996e-05,
          2.23969968e-04, 1.98376787e-04, -3.36425983e-05,
          -2.71207100e-05, 4.24522159e-06, 1.12826077e-04,
          2.53427861e-04, 2.07545090e-04, 2.47123215e-04,
          -1.29238062e-04, 5.77217179e-05, -2.20541588e-05,
          4.80196068e-05, 1.94123932e-04, -1.19168556e-06,
          1.67629987e-05, 1.24543832e-04, -4.06575815e-20,
          3.46756453e-04, 2.52425467e-04, 3.31972115e-04, 1.08460401e-04,
          -4.85856981e-05, -2.20541588e-05, 2.95893133e-05,
          -8.37054831e-05, 6.45248219e-05, 1.63943900e-04,
          8.14980885e-05, 4.90000202e-05, 2.38936336e-04, 2.33084473e-04,
          1.07255335e-04, 4.66946003e-05, -4.85856981e-05,
          -9.18344958e-05, 2.95893133e-05, -8.37054831e-05,
          -6.15838944e-05, -2.23087001e-04, -2.00599956e-04,
          8.13885490e-05, 2.03898860e-04, 3.44056520e-04, 1.09169858e-04,
          1.75877813e-05, 3.82329563e-05, -9.18344958e-05,
          3.65531996e-05, -1.26493280e-04, -6.30738868e-05,
          -4.18848831e-05, 2.40422232e-05, 9.38225567e-05,
          1.94021850e-04, 2.20820817e-04, 1.15102477e-04, 1.00968005e-04,
          1.06744155e-04, -3.32271338e-05, 5.49834949e-05,
          -1.94881504e-04, -2.53232556e-05, -2.95468599e-05,
          1.76581052e-05, 8.97653299e-05, 3.27714282e-04, 2.03875912e-04,
          1.97862464e-04, 1.16215579e-05, 6.18637714e-05,
          -3.32271338e-05, 4.80196068e-05, -2.06408673e-04,
          2.41804755e-05, 2.41804755e-05, 2.41804755e-05, 1.33997295e-04,
          3.33646894e-04, 2.58094631e-04, 1.03293154e-04, 5.40655965e-05,
          5.77217179e-05, -3.32271338e-05, 6.88859582e-05,
          -2.17085195e-04, -1.46790146e-04, 2.11712213e-05,
          9.63153161e-06, 1.22457612e-04, 3.33646894e-04,
          -9.50230678e-05, 4.71935418e-05, -5.17313456e-05,
          7.69290200e-05, -1.47968394e-05, 7.58498500e-05,
          -6.47656489e-05, -1.49799394e-04, -1.61339078e-04,
          1.22457612e-04, 1.22457612e-04, 3.22107226e-04,
          -6.83039843e-06, 2.63271886e-05, -1.70816638e-04,
          -3.33646240e-05, 1.04511437e-05, 1.12815585e-04,
          1.59155934e-05, -4.85130004e-05, -4.85130004e-05,
          1.22457612e-04, 1.22457612e-04, 2.35731277e-04, 7.75490844e-05,
          -1.27680660e-05, -6.69538422e-05, 1.13453360e-04,
          3.86561078e-05, 8.21305075e-05, 6.76018826e-05,
          -4.85130004e-05, -4.85130004e-05, 1.22457612e-04,
          1.71989464e-04, 1.77123919e-04, 7.75490844e-05, 9.94594757e-06,
          4.89168960e-05, 1.13453360e-04, 7.12402179e-05, 2.20440052e-04,
          6.76018826e-05, -4.85130004e-05, -4.85130004e-05,
          1.22457612e-04, 2.27732977e-04, 8.89132862e-05, 2.67360756e-05,
          7.03457408e-05, 7.48979000e-05, 1.24993050e-04,
          -8.42987220e-07, 2.72126344e-04, 6.76018826e-05,
          -4.85130004e-05, -4.85130004e-05, 1.22457612e-04,
          9.96946037e-05, 3.94495401e-05, 5.98861843e-05,
          -6.58853241e-06, 1.60461743e-04, 1.57577160e-04,
          -5.14567473e-05, 1.76179892e-04, -2.17845400e-06,
          -4.85130004e-05, -4.85130004e-05, 1.22457612e-04,
          1.77210750e-04, 3.94495401e-05, -1.48624404e-05,
          -2.33270930e-05, 1.10929890e-04, 8.77968268e-05,
          3.55781049e-05, 1.76179892e-04, -2.17845400e-06,
          -4.85130004e-05, -4.85130004e-05, 1.22457612e-04,
          7.87677418e-05, 7.02515536e-05, -5.69235635e-05,
          -7.61625124e-05, 6.67697750e-05, 2.01640694e-04,
          1.83111333e-04, 1.21864934e-04, -2.17845400e-06,
          -4.85130004e-05, -4.85130004e-05, 1.22457612e-04,
          1.63147226e-04, -1.12289883e-04, -1.28094325e-04,
          -5.83739939e-06, 1.16301628e-04, 2.01640694e-04,
          1.38421543e-04, 1.96662193e-04, 1.20551907e-04,
          -4.85130004e-05, -4.85130004e-05, -3.57288191e-05,
          -7.29776320e-06, -1.12289883e-04, -1.09664034e-04,
          1.16315343e-04, 1.02118342e-04, 3.23107321e-04, 2.08201876e-04,
          1.96662193e-04, 1.48756866e-04, -4.85130004e-05,
          -4.85130004e-05, 1.28358524e-05, -4.26463303e-05,
          -6.76000855e-05, -8.10013662e-05, 2.87175935e-04,
          1.66733778e-04, 2.75673898e-04, 2.08201876e-04, 1.96662193e-04,
          1.55720758e-04, -4.85130004e-05, -9.95274022e-05,
          -1.43979341e-04, -3.73565890e-05, -1.96484121e-04,
          -1.12210319e-05, 2.13224295e-04, 2.55665684e-04,
          4.16275667e-04, 7.84308795e-05, 1.98235230e-05, 9.71133995e-05,
          -6.93793554e-05, -9.95274022e-05, -1.60924246e-04,
          -5.02426192e-05, -1.26703788e-04, -2.96513263e-05,
          3.94098752e-04, 2.41489790e-04, 5.57081912e-05, 1.39322913e-06,
          -9.96870294e-05, -1.52168141e-04, -8.10971105e-05,
          -5.52672500e-05, -1.40341450e-04, -2.11121005e-04,
          -1.26703788e-04, 1.04076480e-05, 1.23950842e-04,
          -6.08437995e-06, -8.71564407e-05, -1.20553377e-04,
          -1.20553377e-04, -1.50508422e-04, -6.02307555e-05,
          -1.55155794e-04, -2.12904139e-04, -1.90844410e-04,
          -1.26703788e-04, 4.35702786e-05, -7.15631495e-06,
          -1.24636950e-04, -9.30890601e-05, -1.95917033e-04,
          -1.26486004e-04, -9.78336902e-05, -6.02307555e-05,
          -8.93100223e-05, -1.60398777e-04, -1.72414118e-04,
          -1.67377308e-04, 4.35702786e-05, 4.85872006e-05,
          -2.46808457e-04, -1.23171776e-04, -2.47267075e-04,
          -1.88659702e-04, 9.59291210e-05, -1.86665668e-04,
          -1.52956345e-04, -1.60398777e-04, -1.52112421e-04,
          -2.27608063e-04, -1.98972033e-04, -4.21628974e-05,
          -3.18639824e-04, -3.47509224e-04, -2.22659219e-04,
          -2.22659219e-04, -7.45350007e-06, -1.74947912e-04,
          -1.52956345e-04, -1.39532436e-04, -6.18150516e-05,
          -1.37310679e-04, -9.71336194e-05, -1.55340560e-04,
          -2.16368964e-04, -1.35878974e-04, -2.34376974e-04,
          -9.37751902e-05, -3.50723567e-05, -1.35547860e-04,
          -2.01151735e-04, -3.61137500e-05, 3.52746429e-05,
          2.36482606e-06, 1.65541991e-04, -5.77180363e-05,
          -1.66134450e-05, 3.88268319e-07, 9.98817923e-05,
          3.04507703e-05, 8.00406560e-05 ]
      - [ 0., 4.42721102e-05, -2.74217873e-05, -1.05153616e-04,
          -1.99370174e-04, -2.02133408e-04, -2.01286421e-05,
          -2.90710432e-06, 1.04595521e-04, 1.85848243e-04,
          3.40516097e-04, 3.38304992e-04, 1.07605447e-04, 3.19056235e-05,
          -4.22389821e-05, 2.87716193e-05, -2.26210213e-05,
          -1.47349701e-05, -6.77626358e-21, 3.43956126e-05,
          1.93755150e-05, 1.31085311e-04, 1.84783610e-04, 3.13862663e-04,
          1.76115955e-05, -3.58834077e-05, 5.22108749e-05,
          -6.77626358e-21, -6.77626358e-21, 8.85357658e-05,
          1.12978087e-04, -8.43150247e-06, 1.93755150e-05,
          5.68149517e-05, -1.65441543e-05, 2.04017168e-04,
          1.31670415e-04, 6.08695264e-05, -6.77626358e-21,
          -6.77626358e-21, 1.23828184e-04, 2.40379144e-04,
          2.40379144e-04, 1.58093579e-04, -2.40758964e-05,
          5.68149517e-05, -1.65441543e-05, -1.45794154e-04,
          7.66330122e-05, 3.50487862e-05, 1.95186785e-05, 6.88700602e-05,
          2.09712161e-04, 3.59369515e-05, -1.42602912e-05,
          2.60045217e-05, 3.67370776e-05, 3.19042301e-05,
          -1.65441543e-05, -1.45794154e-04, 1.27344087e-04,
          -2.39560777e-05, -2.81993616e-05, -5.44804061e-06,
          4.56279013e-05, 1.55947026e-04, 1.71250416e-04, 8.23757910e-06,
          -5.97319422e-06, 3.19042301e-05, 5.68149517e-05,
          -9.09053488e-05, -1.08266970e-04, -1.92662177e-04,
          -1.20999292e-04, 3.12316006e-05, 1.11987363e-04,
          1.11987363e-04, 6.18449631e-05, -3.95576135e-05,
          5.15137108e-05, 5.05060925e-05, 5.68149517e-05,
          -7.89868936e-05, 2.03248492e-05, -6.17461628e-05,
          1.11987363e-04, 1.11987363e-04, 1.11987363e-04, 1.11987363e-04,
          1.76033762e-04, 8.03233706e-05, -8.80442021e-05,
          -9.61566911e-06, -4.14548776e-05, -1.36473798e-04,
          4.47059938e-05, 2.03248492e-05, 4.47059938e-05, 1.04827755e-04,
          1.11987363e-04, 1.75320703e-04, 2.21736569e-04, 1.93116619e-04,
          -2.89994296e-05, 5.05060925e-05, -4.14548776e-05,
          -1.95731118e-04, 0., 2.96858980e-05, 8.98076614e-05,
          8.98076614e-05, 1.11987363e-04, 1.75320703e-04, 1.40686068e-04,
          2.52705271e-04, -2.89994296e-05, -2.82175333e-05,
          3.19042301e-05, -1.21702302e-04, 0., 0., 8.98076614e-05,
          8.98076614e-05, 9.69672692e-05, 1.90055667e-04, 1.87614627e-04,
          -2.79997512e-05, -3.48398862e-05, -2.82175333e-05,
          3.19042301e-05, -2.82009587e-05, 0., 0., 8.98076614e-05,
          8.98076614e-05, 6.38260171e-05, 1.54134304e-05, 1.20719065e-04,
          -2.79997512e-05, -3.48398862e-05, 9.48488832e-06,
          3.19042301e-05, 5.62074529e-05, 0., 0., 8.98076614e-05,
          3.17556878e-05, -7.60952753e-05, -1.36228075e-04,
          -1.01941434e-04, -1.20067038e-04, -9.69672692e-05,
          -7.25861246e-05, 1.62769589e-04, 9.25706481e-05, 0., 0.,
          8.98076614e-05, 1.50753476e-05, -1.39422642e-04,
          -4.31900669e-04, -1.76713322e-04, -1.92579289e-04,
          -9.69672692e-05, -9.69672692e-05, 2.52174068e-04,
          9.25706481e-05, 0., 0., 8.98076614e-05, 4.16495550e-06,
          -2.72486592e-04, -4.45312267e-04, -1.91367260e-04,
          -2.07233243e-04, -9.69672692e-05, -5.68134310e-05,
          2.13057952e-04, 1.44691299e-07, 0., 0., 8.98076614e-05,
          3.74318843e-05, -1.16798721e-04, -1.44979640e-04,
          -5.36683146e-05, 5.81288850e-06, -9.69672692e-05,
          -1.11702240e-04, 1.30986955e-04, 1.89066395e-05, 0., 0.,
          8.98076614e-05, 1.11702240e-04, 3.74318843e-05, 1.41651806e-04,
          1.72064640e-04, 1.06873777e-04, -7.25249483e-05,
          -1.11702240e-04, -4.66753700e-05, -1.78735481e-05, 0., 0.,
          8.98076614e-05, 1.11702240e-04, 1.11702240e-04, 2.15922162e-04,
          3.00232467e-04, 1.37952899e-04, 1.58208495e-04,
          -1.11702240e-04, -1.02144462e-04, -1.52799359e-04, 0., 0.,
          8.98076614e-05, 1.11702240e-04, 1.11702240e-04, 2.15922162e-04,
          3.00232467e-04, 2.00405382e-04, 1.58208495e-04,
          -1.11702240e-04, -1.57033268e-04, -2.48529104e-04, 0., 0.,
          8.98076614e-05, 1.11702240e-04, 1.11702240e-04, 2.56371161e-04,
          3.00232467e-04, 2.59940774e-04, 6.27177578e-05,
          -1.11702240e-04, -1.52151231e-04, -1.75169989e-04,
          -3.10488576e-05, -3.10488576e-05, 9.05189518e-06,
          3.09464740e-05, 3.09464740e-05, 1.75615394e-04, 2.10424798e-04,
          1.91464074e-04, 6.27177578e-05, -1.11702240e-04,
          -1.52151231e-04, -1.73077598e-04, -5.59595828e-05,
          -6.38924321e-05, -4.90000784e-05, -7.69982362e-05,
          7.46070436e-05, 1.75615394e-04, 2.25270356e-04, 1.84978664e-04,
          5.68772994e-05, -8.73210884e-05, -9.72624257e-05,
          -1.75183814e-05, -5.80519736e-05, -4.91574610e-05,
          -5.47872587e-05, -1.07749416e-04, 5.19925052e-05,
          9.87195453e-05, 1.65148595e-04, 5.05865501e-05, 5.68772994e-05,
          -8.73210884e-05, -1.02285194e-05, 2.58923160e-06,
          -5.57430394e-05, -1.21565819e-04, -7.45924626e-05,
          -8.48552809e-05, -2.78167463e-05, -3.93110495e-05,
          2.73685532e-06, 1.84047476e-05, -4.95748573e-05,
          -9.70205438e-05, 3.82427643e-05, 2.58923160e-06,
          -7.45007492e-05, -1.28202024e-04, -1.92892345e-04,
          -1.74415240e-04, -1.05914442e-04, -5.40025430e-05,
          -5.21519505e-05, -5.58656066e-05, -4.95748573e-05,
          -4.64568693e-05, 3.82427643e-05, 2.71725556e-04,
          -7.45007492e-05, -1.60778203e-04, -2.36758788e-04,
          -1.86555830e-04, -1.35968774e-04, -1.85140205e-04,
          -1.63614441e-05, -6.42949235e-05, 1.68764709e-05,
          1.36648932e-05, 2.18965273e-04, 2.71725556e-04,
          -1.46816956e-05, -1.51974004e-04, -1.51726301e-04,
          -8.12333601e-05, -1.11135152e-04, -1.39051728e-04,
          -2.96145707e-04, -2.06278579e-04, 3.65492378e-05,
          9.59137906e-05, 2.95867270e-04, 3.06058500e-04,
          -9.54374627e-05, -8.07024917e-05, -1.08200788e-04,
          -6.97808864e-05, -2.40102763e-05, -2.82869987e-05,
          -3.46024462e-04, -1.46156817e-04, 5.58733009e-05,
          2.67649535e-04, 3.06058500e-04, 3.49584036e-04 ]
      - [ 2.68974618e-05, 2.25619806e-05, -3.53185642e-05,
          -6.02677574e-05, 9.54760399e-05, 5.92549914e-05,
          -5.31671212e-05, -1.07224841e-05, -3.93908740e-05,
          -8.20961668e-06, -3.09834240e-06, -6.64945674e-06,
          -1.61858115e-05, -3.60800072e-06, 3.54877338e-05,
          7.26730359e-05, 9.20870953e-05, 1.08307540e-04, 7.29825551e-05,
          -2.10654325e-05, 8.06538264e-06, 1.46381774e-06,
          1.72745767e-05, -2.07766516e-06, 1.06538482e-05,
          1.88971262e-05, 1.14134411e-04, 1.09385168e-04, 1.24584898e-04,
          1.08774140e-04, 7.93408690e-05, -6.92513026e-07,
          8.06538264e-06, 1.72745767e-05, 1.72745767e-05,
          -2.07766516e-06, 3.09865391e-05, 1.93637261e-05,
          1.14134411e-04, 1.15822622e-04, 1.06688356e-04, 1.08774140e-04,
          4.73476757e-05, -6.92513026e-07, 3.47987334e-05,
          1.72745767e-05, 1.72745767e-05, -1.51055920e-05,
          1.79586132e-05, 1.16341216e-04, 1.20571865e-04, 8.89829607e-05,
          9.06876303e-05, 8.25920943e-05, 8.96365054e-06, 1.43700640e-06,
          3.47987334e-05, 1.72745767e-05, 1.72745767e-05,
          -1.51055920e-05, 1.22958008e-04, 1.40520584e-04,
          6.16710167e-05, 3.48334379e-06, 5.95160018e-05, 3.00788324e-05,
          -2.75075054e-05, -2.46233467e-05, 5.06094912e-05,
          1.72745767e-05, 1.72745767e-05, 6.95536357e-07, 8.81764427e-05,
          6.88653890e-05, 2.49588848e-05, -2.32500061e-05,
          -1.08876509e-06, 1.09353023e-05, -3.30480143e-05,
          -2.46233467e-05, 5.06094912e-05, 2.37120294e-05,
          3.30757066e-05, 4.57166570e-05, 1.06072985e-04, 5.31139194e-05,
          2.38562643e-05, -2.83612808e-05, 1.68077804e-05,
          -1.79964882e-05, 7.69573962e-05, 2.39008095e-05,
          5.06094912e-05, 1.72745767e-05, 6.50688962e-05, 4.57166570e-05,
          1.05606385e-04, 5.31139194e-05, 1.18409371e-05,
          -5.10760910e-05, -7.43148030e-06, -1.38362502e-05,
          7.69573962e-05, 2.39008095e-05, 5.06094912e-05, 3.30757066e-05,
          6.50688962e-05, 4.57166570e-05, -1.08364784e-05,
          3.07802256e-05, 1.18409371e-05, -8.33228914e-05,
          -4.03449667e-05, 1.08721506e-05, -2.94013935e-05,
          5.06341603e-05, 5.06094912e-05, 3.30757066e-05, 6.50688962e-05,
          4.57166570e-05, -1.85904100e-05, -8.83039611e-05,
          -4.71392086e-05, -9.91240158e-05, -3.60094855e-05,
          1.25638189e-05, -2.42901187e-05, 5.06341603e-05,
          6.64106192e-05, 7.15063507e-05, 6.50688962e-05, 4.57166570e-05,
          -6.65886764e-05, -1.18795033e-04, -6.75121264e-05,
          -1.31117209e-04, -6.65646148e-05, 2.78069620e-05,
          1.82539898e-05, 5.06341603e-05, 1.30650602e-04, 7.15063507e-05,
          6.50688962e-05, 5.56430241e-05, -2.35054013e-05,
          -1.18795033e-04, -1.15306451e-04, -1.31117209e-04,
          -3.23934364e-05, 4.55133850e-05, 1.82539898e-05,
          9.84284779e-05, 1.30650602e-04, 7.15063507e-05, 6.50688962e-05,
          5.56430241e-05, -4.40833755e-05, -1.29308653e-04,
          -1.31117209e-04, -1.31117209e-04, -3.23934364e-05,
          6.13241427e-05, 1.60252603e-04, 9.84284779e-05, 1.31117209e-04,
          7.15063507e-05, 6.50688962e-05, 5.56430241e-05,
          -5.13050145e-05, -1.61301839e-04, -1.31117209e-04,
          -1.31117209e-04, -1.20205177e-05, 5.70998200e-05,
          1.76053727e-04, 9.84284779e-05, 1.31117209e-04, 7.15063507e-05,
          6.50688962e-05, 5.56430241e-05, -5.13050145e-05,
          -1.81674768e-04, -1.31117209e-04, -9.47877634e-05,
          -1.20205177e-05, 9.46708824e-05, 1.76053727e-04,
          9.84284779e-05, 1.26956977e-04, 9.95929076e-05, 6.50688962e-05,
          5.56430241e-05, -8.76336926e-05, -2.25311858e-04,
          -1.31117209e-04, -8.70338336e-05, -3.63190316e-06,
          9.42042825e-05, 1.76053727e-04, 9.84284779e-05, 3.13393757e-05,
          2.97701536e-05, -3.47089372e-05, 3.91267495e-05,
          -1.03434817e-04, -2.25311858e-04, -1.31117209e-04,
          -5.51037920e-05, 1.21788562e-05, 6.22110892e-05,
          1.32970454e-04, 4.35284664e-06, -6.09192057e-06,
          -2.70043220e-05, -1.19233982e-05, 2.24341402e-05,
          -1.07081440e-04, -2.25311858e-04, -1.29425534e-04,
          -5.51037920e-05, 1.21788562e-05, 6.22110892e-05,
          4.69066654e-05, -3.18212005e-05, -5.81925779e-05,
          -6.45530090e-05, -8.63438108e-05, -7.61488845e-05,
          -7.68439641e-05, -2.23226074e-04, -1.31117209e-04,
          -8.97415666e-05, 1.68695788e-05, 2.37365730e-05,
          -2.04445096e-05, -6.64589752e-05, -1.00963698e-04,
          -8.74577745e-05, -5.57886851e-05, -7.72515050e-05,
          -1.02328158e-04, -1.48149615e-04, -9.91240158e-05,
          -6.79357618e-05, -6.21114086e-05, -3.50981718e-05,
          -1.04055034e-04, -6.52159360e-05, -1.10005414e-04,
          -1.10005414e-04, -8.38111519e-05, -3.65947235e-05,
          -9.55359865e-05, -1.13511836e-04, -6.44862375e-05,
          -5.67323077e-05, -2.78242405e-05, -2.49658988e-05,
          2.51439064e-06, -1.03768587e-04, -1.10005414e-04,
          -1.10005414e-04, -4.29025968e-05, -5.22764203e-05,
          -9.14968114e-05, -9.25994318e-05, -4.35738366e-05,
          -4.35738366e-05, -5.11730977e-05, -5.13483428e-05,
          -2.68616168e-05, -7.17734656e-05, -1.10005414e-04,
          -1.10005414e-04, -4.29025968e-05, 1.81272408e-05,
          -4.31669614e-05, -6.35398828e-05, 5.85863063e-06,
          5.85863063e-06, 8.03334933e-06, -7.76777870e-06,
          2.19793174e-06, -6.63881583e-05, -1.04894141e-04,
          -1.10005414e-04, -5.39926805e-05, 3.74563715e-05,
          -4.31669614e-05, -4.31669614e-05, 5.85863063e-06,
          1.36125627e-05, 1.36125627e-05, -2.18856576e-06,
          2.19793174e-06, -9.12380710e-05, -1.04894141e-04,
          -8.96324927e-05, -5.39926805e-05, -2.13347562e-06,
          -3.00106894e-05, -3.00106894e-05, 1.90149040e-05,
          1.53682813e-05, 1.53682813e-05, -1.83806296e-05,
          6.44942338e-05, -6.40704893e-05, -1.10005414e-04,
          -8.96324927e-05, -2.01575767e-05, -2.92175628e-06,
          -2.78359712e-05, -3.00106894e-05, 7.99947229e-05,
          2.11896222e-05, 3.90861678e-05, 8.10973434e-05,
          -4.55111840e-05, -2.25043204e-05, -9.21088649e-05,
          -5.76392995e-05, 9.71298505e-06, 4.64463228e-05,
          -1.10262147e-06, -1.10262147e-06, 1.08902794e-04,
          1.10005414e-04, 1.10005414e-04, 1.10005414e-04, 2.18950408e-05,
          -3.52134339e-05, -8.00366979e-05, -2.49247914e-05,
          5.18358647e-05, 8.83197354e-05 ]
      - [ -4.96856555e-05, -4.40664408e-05, -5.74764708e-05,
          -3.96102878e-05, 3.18757666e-05, 9.35088756e-05,
          -6.37388439e-06, -6.54991527e-05, -3.99385499e-05,
          -5.58845932e-05, -2.74557806e-05, 1.44291753e-05,
          -1.10958463e-05, -7.97759858e-05, 1.48404979e-05,
          6.05094192e-06, -1.94939294e-05, 3.09769821e-05,
          -8.40659322e-06, -4.19569114e-05, -6.50911898e-05,
          -5.58845932e-05, -2.68974600e-05, -8.70510667e-06,
          -5.53823556e-05, -3.19758292e-05, 5.49738143e-05,
          4.90541024e-05, 6.44071988e-05, 5.70728662e-05, 5.99759333e-05,
          -3.96238538e-05, -2.98951363e-05, -1.99394053e-05,
          9.17302259e-06, 3.15963953e-05, -5.22237860e-06,
          -2.81754164e-05, 1.89227230e-05, 2.02048177e-05,
          8.21675494e-05, 1.23734062e-04, 1.35102760e-04, 7.71496798e-06,
          7.71496798e-06, -2.14769680e-05, -2.15359978e-05,
          1.97268819e-05, 1.74053475e-05, 6.00163730e-05, 1.75466921e-05,
          4.90057137e-05, 1.31530644e-04, 9.43715422e-05, 5.64015693e-07,
          -9.90537592e-06, 5.08945632e-05, 1.59876236e-05,
          1.59876236e-05, -5.67897177e-06, 1.05642983e-04,
          3.48565882e-05, -5.55086226e-05, -7.31809996e-05,
          -1.50159326e-06, 7.86279197e-05, 8.59058946e-06,
          -2.61891637e-06, 2.85641745e-05, 3.91219073e-05,
          3.91219073e-05, -5.67897177e-06, 8.52595913e-05,
          -1.72957862e-05, -1.27609994e-04, -4.43891113e-05,
          1.96322435e-05, 7.28935265e-05, 6.99111770e-05, 5.82742141e-05,
          4.51812411e-05, 3.91219073e-05, 3.91219073e-05, 1.09380935e-05,
          5.79024454e-05, -1.72957862e-05, -6.59768775e-05,
          -6.31950606e-05, 3.62493083e-05, 7.28935265e-05,
          1.64458688e-04, 9.61058904e-05, 1.09641791e-04, 1.20199518e-04,
          5.85664129e-05, 1.37655361e-05, 2.18609221e-05,
          -3.18906459e-05, -1.27609994e-04, -7.97515822e-05,
          3.12696247e-05, 1.30722692e-04, 1.61394724e-04, 1.38506599e-04,
          1.51302520e-04, 1.16395589e-04, 1.20199518e-04, 7.53986460e-05,
          -4.64015975e-05, -3.18906459e-05, -1.27609994e-04,
          -1.45956670e-04, -5.43694150e-05, 4.72153952e-05,
          -1.66600857e-05, 9.39370657e-05, 1.26045416e-04,
          1.16395589e-04, 1.16395589e-04, 7.53986460e-05,
          -2.82422079e-05, -1.65002115e-04, -1.90110703e-04,
          -1.89474784e-04, -1.31208843e-04, -9.57732263e-05,
          -3.51054405e-05, -1.52263092e-05, 6.02077052e-05,
          3.31642586e-05, 1.16395589e-04, 7.53986460e-05,
          -6.32464435e-05, -2.21002891e-04, -1.89430750e-04,
          -1.89430750e-04, -1.84451070e-04, -1.45642902e-04,
          -1.68542203e-04, -1.17850104e-04, -7.51029947e-05,
          8.01033002e-06, 3.98238481e-05, 7.53986460e-05,
          -4.07248626e-05, -1.50944688e-04, -1.56216673e-04,
          -1.51236993e-04, -1.45410842e-04, -4.92876788e-05,
          -1.01217585e-04, -6.50259681e-05, -9.45475040e-05,
          -5.05527751e-05, 5.45565272e-05, 9.97567531e-06,
          -3.78974182e-05, -1.28603948e-04, -1.18396703e-04,
          -9.46291693e-05, -5.83792425e-05, 2.89387044e-05,
          1.01271646e-04, -1.48735289e-05, -7.17362127e-05,
          -1.17909571e-04, 2.12045288e-05, 6.98767417e-06,
          -4.68333792e-06, -7.58207461e-05, -2.56830681e-05,
          3.35630502e-05, 6.72097522e-05, 9.66949519e-05, 1.86675083e-04,
          3.44416803e-05, -6.08069386e-05, -1.34526636e-04,
          2.12045288e-05, 6.30773229e-06, -6.35918582e-07,
          -2.45103147e-05, 3.95764619e-05, 4.44923207e-05,
          9.38073936e-05, 9.95223963e-05, 1.73360109e-04, 9.60747857e-05,
          -1.80739553e-05, -9.95223963e-05, -6.29501592e-05,
          4.28552403e-06, 0., -2.38743960e-05, 7.06731080e-05,
          7.14132257e-05, 9.45475040e-05, 9.95223963e-05, 1.76187546e-04,
          9.60747857e-05, 5.12049837e-06, -9.95223963e-05,
          -6.29501592e-05, -1.20745690e-05, -2.31342819e-05,
          -2.31342819e-05, 7.14132257e-05, 7.14132257e-05,
          9.45475040e-05, 9.95223963e-05, 1.76187546e-04, 9.60747857e-05,
          -1.67651651e-05, -9.28375812e-05, -7.58366587e-05,
          -1.62504530e-05, 0., -2.31342819e-05, 7.07332802e-05,
          9.45475040e-05, 9.45475040e-05, 9.95223963e-05, 1.42973469e-04,
          8.28805860e-05, -1.75052792e-05, -9.28375812e-05,
          -1.42035506e-05, -8.83998473e-06, -6.79941991e-07,
          -6.79941991e-07, 8.89517032e-05, 9.38675657e-05,
          9.45475040e-05, 1.17388583e-04, 1.07969230e-04, 8.00531416e-05,
          5.75641661e-06, -9.28375812e-05, 2.08006859e-05,
          -8.83998473e-06, -6.23130472e-05, -9.51533293e-05,
          -5.52168603e-06, 6.10272800e-05, 9.38675657e-05,
          1.17388583e-04, 4.84259581e-05, 3.36546618e-05, 5.12049837e-06,
          -9.28375812e-05, 2.08006859e-05, 6.19380501e-07,
          -1.14597839e-04, -1.14597839e-04, -2.00503346e-05,
          -3.43326928e-06, 7.95734086e-05, 1.17388583e-04,
          1.23203848e-04, 3.36546618e-05, 5.75641661e-06,
          -7.55291840e-05, 2.08006859e-05, 6.19380501e-07,
          -1.18897580e-04, -1.19577526e-04, -3.56051933e-05,
          -3.56051933e-05, 6.60407532e-05, 8.45482937e-05,
          1.06586784e-04, 3.36546618e-05, -1.87538972e-05,
          -2.56980347e-05, 2.08006859e-05, -4.20178476e-05,
          -3.39518119e-05, -1.30066270e-04, -7.26629441e-05,
          -6.91871464e-05, 2.28188965e-05, 6.41426595e-05,
          4.25000362e-05, 8.14376506e-07, -1.81179785e-05,
          -2.07231460e-05, 2.08006859e-05, -6.14165810e-06,
          -6.37430276e-05, -1.11049179e-04, -1.01281163e-04,
          -1.24158192e-04, -7.58312744e-05, -4.20394972e-05,
          -1.01215810e-05, -6.99038064e-05, -5.12368351e-05,
          -1.79913477e-05, 2.08006859e-05, 4.65692101e-05,
          -5.42154085e-05, -1.13093571e-04, -1.32493122e-04,
          -1.51257002e-04, -8.82847889e-05, -9.52841219e-05,
          -8.09748672e-05, -8.20651912e-05, -7.44784484e-05,
          4.42776764e-05, 6.17103578e-05, 9.22250692e-05,
          -3.32140808e-05, -5.42154085e-05, -4.48310493e-05,
          -7.00547826e-05, -1.09596083e-04, -1.37461480e-04,
          -1.77323105e-04, -1.44991063e-04, -7.34153800e-05,
          6.10304123e-05, 9.34982236e-05, 1.41074910e-04,
          -3.32140808e-05, -3.32140808e-05, 1.52263601e-05,
          -1.52387602e-05, -1.56974165e-05, -8.28758712e-05,
          -2.01042450e-04, -1.10655594e-04, 6.12515651e-05,
          1.15582028e-04, 1.41074910e-04, 1.06070671e-04 ]
      - [ 0., 3.41544546e-05, -6.69479732e-06, -4.51047163e-05,
          -7.64178367e-06, -1.89789098e-05, -2.58184646e-05,
          3.85410495e-08, 6.61020249e-06, 4.00099998e-05, 4.08793494e-05,
          4.08793494e-05, 3.41544546e-05, 3.40130027e-05, 8.71460434e-05,
          1.26291297e-05, -1.89789098e-05, -5.00801161e-06,
          -3.01733621e-06, -4.77420108e-05, -1.88676713e-05,
          -2.33072042e-05, 3.04744226e-05, 4.08793494e-05,
          4.43953377e-06, 2.47762764e-05, 2.87168059e-05,
          -1.35525272e-20, 2.34486961e-05, 2.34486961e-05,
          2.34486961e-05, -3.75392774e-05, -4.47246748e-05,
          -4.67559003e-05, -2.33072042e-05, 2.83264344e-05,
          -2.89296368e-05, 6.59274292e-06, 3.37248166e-05,
          2.34486961e-05, 6.87374850e-05, 6.87374850e-05, 7.59228788e-05,
          7.74950786e-06, -3.75392774e-05, -4.67559003e-05,
          -2.33072042e-05, -3.28160559e-06, -2.75617131e-05,
          5.13174200e-05, 7.18539741e-06, 2.34486961e-05, 1.07502587e-04,
          8.08682526e-05, -2.66808511e-05, 4.27683517e-05,
          1.23304935e-05, 5.71828377e-06, -1.61218068e-05,
          -2.28648823e-05, 1.49133179e-04, 2.10231192e-05,
          -3.53629184e-05, 2.05228844e-05, 9.12653632e-05,
          1.36746195e-04, 5.50540899e-05, 7.73156789e-05, 5.90897798e-05,
          3.37479651e-05, 3.37479651e-05, -2.28648823e-05,
          5.49615324e-05, -4.16641778e-05, -3.18001548e-05,
          -2.76536639e-06, 9.12653632e-05, 1.16043360e-04,
          3.29568466e-05, 5.52184356e-05, 8.92352909e-05, 6.53560055e-05,
          6.53560055e-05, 1.47200917e-05, 1.13833748e-05,
          -6.19350903e-05, -5.20710673e-05, -2.76536639e-06,
          4.09079548e-05, 1.10974739e-04, 1.43931582e-04, 5.52184356e-05,
          8.92352909e-05, 9.55015203e-05, 9.55015203e-05, 4.60740703e-05,
          1.13833748e-05, -7.95276937e-05, -5.20710673e-05,
          4.71892963e-06, 4.09079548e-05, 9.33821357e-05, 1.60960204e-04,
          1.12678601e-04, 1.23389749e-04, 9.55015203e-05, 9.04328990e-05,
          4.60740703e-05, -9.95913651e-05, -6.19350903e-05,
          -1.23389749e-04, -1.87297665e-05, 3.63269683e-05,
          6.99334414e-05, 3.04235509e-05, 8.92298995e-05, 5.71396849e-05,
          9.55015203e-05, 9.04328990e-05, 4.48656065e-05,
          -3.84099185e-05, -1.95571047e-04, -1.23389749e-04,
          -4.45867699e-05, -1.87297665e-05, -1.87297665e-05,
          -7.56196532e-05, -4.14651986e-05, -1.61787812e-05,
          4.56317466e-05, 9.55015203e-05, 4.48656065e-05,
          -3.84099185e-05, -1.50282271e-04, -1.23389749e-04,
          -1.23389749e-04, -1.10836838e-04, -1.10836838e-04,
          -1.40270102e-04, -1.06115644e-04, -7.25648206e-05,
          -2.33641786e-05, 4.56317466e-05, 4.48656065e-05,
          -3.84099185e-05, -1.50282271e-04, -1.23389749e-04,
          -1.23389749e-04, -9.99410549e-05, -8.73881363e-05,
          -1.09636007e-04, -1.06115644e-04, -9.84218277e-05,
          -5.49722172e-05, 6.63345782e-05, 4.64544019e-06,
          -3.84099185e-05, -1.81890311e-04, -1.23389749e-04,
          -9.99410549e-05, -6.83330145e-05, -1.12778453e-05,
          1.83846787e-05, -3.81646896e-05, -8.75260448e-05,
          -8.51177319e-05, 3.03329707e-05, -4.23178733e-07,
          -3.84099185e-05, -1.89075698e-04, -1.23389749e-04,
          -9.99410549e-05, -2.48834076e-05, 3.21717598e-05,
          1.11738140e-04, 3.75961718e-05, -8.75260448e-05,
          -1.10974739e-04, 3.03329707e-05, -1.24884600e-05,
          -3.84099185e-05, -1.89075698e-04, -1.23389749e-04,
          -4.24760110e-05, -5.14509611e-06, 1.10974739e-04,
          1.22259837e-04, 5.01490867e-05, -8.75260448e-05,
          -1.10974739e-04, -6.75251358e-05, -1.24884600e-05,
          -5.60025219e-05, -1.18244650e-04, -1.23389749e-04,
          -5.33717903e-05, -5.14509611e-06, 1.10974739e-04,
          9.64028295e-05, 5.01490867e-05, -7.03921469e-05,
          -1.10974739e-04, -6.75251358e-05, -5.84676091e-05,
          -5.60025219e-05, -1.18244650e-04, -1.23389749e-04,
          -3.57791905e-05, -5.14509611e-06, 1.16043360e-04,
          9.64028295e-05, 5.01490867e-05, -7.49731262e-05,
          -1.10974739e-04, -7.93666986e-05, -3.63703693e-05,
          -5.60025219e-05, -1.18244650e-04, -1.23389749e-04,
          -3.57791905e-05, -5.14509611e-06, 1.10974739e-04,
          1.22259837e-04, 5.01490867e-05, -2.96843427e-05,
          -1.10974739e-04, -6.17741025e-05, -3.43391439e-05,
          -6.31879157e-05, -1.18244650e-04, -1.23389749e-04,
          -3.57791905e-05, -5.14509611e-06, 1.10974739e-04,
          1.22259837e-04, 5.01490867e-05, 3.65657215e-05,
          -1.10974739e-04, -6.17741025e-05, -5.77878418e-05,
          -6.31879157e-05, -1.18244650e-04, -5.71396849e-05,
          -3.57791905e-05, -5.14509611e-06, 4.47246748e-05,
          1.00766310e-05, 5.78429026e-05, 4.11467081e-05,
          -1.10974739e-04, -6.17741025e-05, -5.77878418e-05,
          -6.31879157e-05, -1.18244650e-04, -5.71396849e-05,
          -5.33717903e-05, -5.14509611e-06, 4.47246748e-05,
          1.12361049e-04, 5.78429026e-05, 4.11467081e-05,
          -1.10974739e-04, -6.17741025e-05, -3.19308347e-05,
          -8.76105623e-05, -9.47959561e-05, -5.71396849e-05,
          -5.33717903e-05, -5.14509611e-06, 4.97932961e-05,
          8.65040420e-05, 5.78429026e-05, -2.51033580e-05,
          -1.10974739e-04, -3.59170954e-05, -6.60852893e-05,
          -7.00179589e-05, -9.47959561e-05, -5.71396849e-05,
          -1.29787313e-05, -2.27376968e-05, 2.71320750e-05,
          2.02539795e-05, -4.00152021e-05, -2.51033580e-05,
          -8.51177319e-05, -3.59170954e-05, 1.64773098e-07,
          -4.41609554e-05, -9.47959561e-05, -5.71396849e-05,
          -2.55316463e-05, -7.20433964e-05, -4.23176207e-05,
          -2.50348075e-05, -4.72005995e-05, -8.29450582e-05,
          -5.35096951e-05, 3.75183663e-05, 3.43192296e-05,
          -1.25529150e-05, -9.47959561e-05, -1.18508997e-05,
          -5.71396849e-05, -8.97910359e-05, -4.03269441e-05,
          -6.84092302e-05, -1.09623288e-04, -8.51177319e-05,
          -3.59170954e-05, 3.75183663e-05, 1.03056707e-04, 0.,
          -3.84099185e-05, 1.61787812e-05, -1.18508997e-05,
          -5.51490120e-05, -1.20190613e-04, -1.81231124e-04,
          -1.07214975e-04, -5.35096951e-05, 3.75183663e-05,
          8.28071570e-05, 1.10541005e-04, 0., 0., 7.25648206e-05,
          1.03226876e-05, -1.18508997e-05, -7.49018218e-05,
          -1.89528568e-04, -1.07214975e-04, 1.54211248e-05,
          8.28071570e-05, 1.16330455e-04, 1.15121991e-04 ]
      - [ -3.87328852e-04, -4.64753539e-04, -3.24553490e-04,
          -5.48769254e-04, -4.26523125e-04, -7.58279057e-05,
          1.32799818e-04, 3.76010030e-05, 1.97148329e-05,
          -5.65704868e-05, -5.65704868e-05, -2.59794815e-05,
          -3.81648104e-04, -2.34030431e-05, 3.09788535e-04,
          1.45030353e-04, 9.14773773e-05, 1.07814099e-04, 8.45902105e-05,
          1.11115041e-04, -1.21883793e-04, -1.21883793e-04,
          -1.21883793e-04, -1.03256949e-04, -1.13854810e-04,
          -2.82813940e-04, -2.55913357e-04, 7.72674757e-05,
          5.96179161e-05, 1.30157405e-05, 1.47133644e-04,
          -2.56389867e-05, -1.36607545e-04, -1.36607545e-04,
          -1.21883793e-04, 3.69042507e-04, 6.63259052e-05,
          -4.55456502e-05, 8.45978138e-05, 7.45348516e-05,
          2.19394627e-04, 4.93960455e-04, 4.34473070e-04, 1.70630432e-04,
          -1.91244748e-04, -1.96217865e-04, -7.69896287e-05,
          -6.01294334e-04, 1.09521134e-04, 1.08502063e-04,
          -7.72403364e-05, -4.85066048e-05, -3.90280147e-05,
          -5.45140065e-04, 6.61368540e-05, 2.20253394e-04,
          -1.91244748e-04, -1.96217865e-04, -1.00007046e-05,
          -5.93112491e-04, 5.83105430e-04, 1.56037990e-04,
          -1.94747001e-04, 5.11875005e-05, -1.49949468e-04,
          3.13287528e-05, 2.76791834e-04, 2.36236272e-04,
          -1.92479245e-04, -1.96217865e-04, -1.21683006e-04,
          1.34149144e-04, -8.91961245e-05, -8.95584890e-05,
          -3.42983054e-04, -1.09417240e-04, 8.68552670e-05,
          1.36599934e-04, 3.99498793e-04, -1.42227000e-04,
          -2.81696528e-04, -1.36599934e-04, -8.08254663e-06,
          -1.94124659e-04, -1.17717485e-04, -6.59968719e-05,
          -1.17864263e-04, 1.96217865e-04, 1.96217865e-04,
          1.40755466e-04, 3.91724985e-04, -4.09171662e-05,
          -2.27051700e-04, -1.36599934e-04, 1.26602890e-05,
          -4.70122104e-05, 6.02694017e-05, 8.52492958e-05,
          8.52492958e-05, 8.52492958e-05, 1.96217865e-04, 1.25838531e-04,
          3.81359452e-04, -2.39001194e-04, -1.36599934e-04,
          -7.71125269e-05, 9.98380056e-05, 2.58683449e-05, 0.,
          8.52492958e-05, 8.52492958e-05, 8.52492958e-05, 1.96217865e-04,
          1.25838531e-04, 1.29914563e-03, -3.33191565e-04,
          -1.36599934e-04, -5.63696922e-05, 4.32502187e-04,
          3.08414528e-05, 0., 0., 8.52492958e-05, 8.52492958e-05,
          1.96217865e-04, 1.86577163e-04, -9.33942210e-05,
          -8.52492958e-05, -1.36599934e-04, 1.07491898e-04,
          4.00322257e-04, 3.08414528e-05, 0., 0., 8.52492958e-05,
          8.52492958e-05, 1.21683006e-04, 3.01839144e-04,
          -1.28101194e-04, -8.52492958e-05, -1.21683006e-04,
          1.30890883e-04, 5.81600470e-04, 9.04517656e-05, 0., 0.,
          8.52492958e-05, 8.52492958e-05, 1.00007046e-05, 2.88823387e-04,
          -1.33074311e-04, -8.52492958e-05, 1.07421311e-05,
          1.97355461e-04, 4.16558323e-04, 9.04517656e-05, 0., 0.,
          8.52492958e-05, 2.56313797e-05, -1.07421311e-05,
          3.97717988e-04, -7.41399126e-05, -8.52492958e-05,
          7.20550088e-05, -2.95102200e-05, 6.07716443e-04,
          9.04517656e-05, 0., 0., 8.52492958e-05, 1.07144442e-05,
          -2.57169595e-05, 2.42596812e-04, -1.16766671e-04,
          -7.73520005e-05, 1.22215642e-04, -1.33125446e-04,
          4.90299775e-04, 9.04517656e-05, 0., 0., 2.56313797e-05,
          9.04707340e-05, -8.53272722e-05, 1.90309234e-04,
          -1.16766671e-04, -4.16922267e-05, 1.22215642e-04,
          9.62848353e-05, 4.86144272e-04, 9.04517656e-05, 0., 0.,
          2.56313797e-05, 4.59002586e-05, 1.77083595e-04, 4.15361690e-04,
          -5.71487508e-05, 2.87824878e-06, 1.84339719e-04,
          -9.75294097e-05, 3.21936968e-04, 9.04517656e-05, 0., 0.,
          1.07144442e-05, 1.94539738e-04, 4.02079488e-04, 3.93226597e-04,
          -4.22318153e-05, 1.66739846e-04, 1.97355461e-04,
          -9.25562999e-05, 7.39947063e-05, 9.04517656e-05, 0., 0.,
          -1.00283914e-05, 8.28574339e-05, 3.44818807e-04,
          6.34322641e-04, -2.14889806e-05, 1.81463591e-04,
          3.82665079e-04, -1.96131412e-04, -2.56748317e-04,
          9.04517656e-05, 0., 0., -6.93226175e-05, 6.61150334e-05,
          6.72322116e-04, 7.60604627e-04, 1.34763788e-04, 1.61317614e-04,
          3.55196360e-04, -1.42923949e-04, -2.56748317e-04,
          9.04517656e-05, 0., -7.45348516e-05, -1.64369820e-04,
          3.77429351e-05, -2.36991138e-04, -1.66494137e-04,
          9.96751405e-05, 1.61317614e-04, 4.49386745e-04, 8.14363244e-04,
          5.52919228e-04, 9.04517656e-05, -5.96179161e-05,
          -7.45348516e-05, -1.64369820e-04, 3.77429351e-05,
          7.05690618e-05, -1.30834364e-04, 1.84924444e-04,
          -7.41374606e-05, 1.70233485e-04, 6.66743610e-04,
          1.63291843e-04, 9.04517656e-05, -7.45348516e-05,
          -6.91126261e-05, -1.01355930e-04, 8.34065431e-05,
          7.05690618e-05, -1.58737370e-04, 2.61277135e-04,
          -6.11217183e-05, 1.95213390e-04, 4.11234127e-04,
          1.63291843e-04, 0., -8.92586031e-05, -8.98554645e-05,
          -2.13038235e-04, -4.22927624e-05, -2.61109381e-04,
          -2.12847895e-04, 2.66250252e-04, 8.79765794e-05,
          1.70233485e-04, 4.15389659e-04, 1.63291843e-04, 2.63149050e-05,
          -1.69611754e-04, 1.09290435e-04, 6.11419237e-05,
          -4.79781665e-05, -9.71758054e-05, -1.53237590e-04,
          2.66250252e-04, 8.79765794e-05, 1.70233485e-04, 4.15389659e-04,
          1.63291843e-04, 1.16766671e-04, -2.14182233e-04,
          -2.39186511e-06, 1.20759840e-04, 1.86202931e-04,
          -2.17546825e-04, -2.52185728e-05, 2.66250252e-04,
          1.40264165e-04, 1.95213390e-04, 4.11234127e-04, 1.63291843e-04,
          1.16766671e-04, -1.54571913e-04, -2.41073740e-05,
          -4.36645496e-05, 2.32978695e-04, 3.68983237e-05,
          -2.52185728e-05, 2.72019679e-04, 1.40264165e-04,
          -1.01021296e-05, 1.63291843e-04, 1.63291843e-04,
          1.16766671e-04, -9.52776900e-05, -2.81545130e-04,
          -1.76819303e-04, -3.57173849e-05, -1.66366095e-04,
          -3.70170630e-04, 4.84773882e-05, 8.34776365e-05,
          1.30050030e-05, 1.33103385e-04, 1.16766671e-04, 1.16766671e-04 ]
      - [ 0., 3.67225471e-06, -5.60032422e-05, -4.05278406e-05,
          -2.90760581e-05, -2.03183190e-05, -6.10170100e-05,
          -3.89356792e-05, 7.60844487e-05, 9.11484822e-05,
          9.82565034e-05, 6.15980534e-05, 3.67225471e-06,
          -2.56347830e-05, 3.75464515e-05, -3.00952142e-05,
          -2.18961832e-05, -1.25916622e-05, -1.03391503e-05,
          -5.87644972e-05, -4.84253469e-05, -1.32209234e-05,
          1.03725084e-04, 6.15980534e-05, 1.23377722e-05,
          -2.80497206e-05, 2.67116029e-05, 8.15291060e-06,
          1.04054216e-05, 8.62675079e-05, 1.00956204e-04,
          -3.33175885e-05, -4.84253469e-05, -4.84253469e-05,
          -1.32209234e-05, 3.95866955e-05, -3.34906581e-05,
          -1.67283451e-05, 4.91693281e-05, 1.84920609e-05,
          8.62675079e-05, 1.51960776e-04, 1.62219192e-04, 4.38040552e-05,
          -2.56961121e-05, -7.40893120e-06, -1.32209234e-05,
          3.40170700e-05, -1.80097722e-05, 6.64823674e-05,
          5.58125867e-05, 1.21218363e-05, 7.71300984e-05, 7.65543518e-05,
          1.27361809e-05, 1.68514689e-05, -2.56961121e-05,
          -4.21942968e-05, -6.24661407e-05, -1.00665002e-05,
          2.22387225e-05, -7.89371279e-06, -4.35278162e-05,
          -5.04604177e-05, 6.15945610e-05, 1.09514578e-04,
          2.63038655e-05, 7.54694793e-06, -2.93683679e-05,
          -4.21942968e-05, -6.24661407e-05, -6.55414624e-05,
          1.68731822e-05, -2.50278972e-05, -7.12049878e-05,
          -7.15109345e-05, 7.23285775e-05, 8.54632235e-05,
          8.81504184e-06, 3.50603186e-05, -5.41810959e-06,
          -8.32107180e-05, -6.24661407e-05, -6.23437591e-05,
          -3.55896482e-05, -5.36998887e-05, -9.22555046e-05,
          -1.02594655e-04, 5.38914901e-05, 8.54632235e-05,
          9.57216471e-05, 3.50603186e-05, -7.80893879e-06,
          -8.32107180e-05, -6.24661407e-05, -1.55676680e-05,
          9.90380795e-06, -5.64175607e-05, -1.02594655e-04,
          -1.02594655e-04, 7.00760647e-05, 8.32107180e-05,
          9.65362924e-05, 4.80370945e-05, -4.13668386e-06,
          -8.32107180e-05, -8.32107180e-05, 1.51526574e-05,
          -3.85215390e-05, -5.64175607e-05, -1.04847168e-04,
          -1.04847168e-04, 2.45826104e-05, 8.32107180e-05,
          2.69012544e-05, 6.24969471e-05, -2.25737695e-05,
          -8.32107180e-05, -8.32107180e-05, 8.23896426e-06,
          -4.07740517e-05, -1.23443708e-04, -1.04847168e-04,
          -1.04847168e-04, 2.45826104e-05, 8.32107180e-05,
          4.59331241e-05, 7.28360974e-05, -2.80869426e-05,
          -8.32107180e-05, -6.24661407e-05, 8.23896426e-06,
