%YAML:1.0
---
opencv_ml_svm:
   format: 3
   svmType: C_SVC
   kernel:
      type: LINEAR
   C: 1.
   term_criteria: { iterations:100 }
   var_count: 336
   class_count: 21
   class_labels: !!opencv-matrix
      rows: 21
      cols: 1
      dt: i
      data: [ 65, 66, 67, 68, 69, 70, 71, 72, 75, 76, 77, 78, 80, 82, 83,
          84, 85, 86, 88, 89, 90 ]
   sv_total: 210
   support_vectors:
      - [ 0., 0., -1.07630585e-05, -1.07630585e-05, -4.79003284e-05,
          1.31212992e-05, 5.41205445e-05, 5.41205445e-05, 3.05588474e-05,
          -2.82362489e-05, 0., 0., 0., -3.18755184e-07, -1.10818137e-05,
          -4.54284145e-06, -4.09992463e-05, 1.07630585e-05,
          1.07630585e-05, 1.07630585e-05, 5.57257636e-07,
          -2.82362489e-05, -3.18755184e-07, 0., -3.03203433e-05,
          -6.90008965e-05, -1.54376085e-05, 2.35824109e-06,
          -1.35525272e-20, -1.35525272e-20, -1.35525272e-20,
          -1.35525272e-20, -4.28002277e-05, -2.82362489e-05,
          -3.18755184e-07, 0., -5.82378379e-05, -6.90008965e-05,
          2.35824109e-06, 4.33574860e-05, 2.79174947e-05, 2.79174947e-05,
          2.79174947e-05, -1.35525272e-20, -5.35632862e-05,
          -7.15937349e-05, -2.82362489e-05, 0., -5.82378379e-05,
          -6.90008965e-05, 2.35824109e-06, 4.33574860e-05,
          5.82378379e-05, 5.82378379e-05, 5.82378379e-05, 2.82362489e-05,
          -1.70227268e-05, -7.13591362e-05, -7.15937349e-05, 0.,
          -5.82378379e-05, -6.90008965e-05, 2.35824109e-06,
          7.36778311e-05, 5.82378379e-05, 6.90008965e-05, 6.90008965e-05,
          7.15937349e-05, -1.35525272e-20, -7.13591362e-05,
          -8.23567971e-05, -4.33574860e-05, -5.82378379e-05,
          -6.90008965e-05, 2.35824109e-06, 3.00015890e-05,
          5.82378379e-05, 6.90008965e-05, 1.12358386e-04, 8.23567971e-05,
          4.33574860e-05, -1.12358386e-04, -8.23567971e-05,
          -5.41205445e-05, -5.82378379e-05, -6.90008965e-05,
          2.35824109e-06, 3.00015890e-05, 5.82378379e-05, 6.90008965e-05,
          1.12358386e-04, 8.23567971e-05, 4.33574860e-05,
          -1.12358386e-04, -8.23567971e-05, -5.41205445e-05,
          -5.82378379e-05, -5.82378379e-05, 2.35824109e-06,
          -1.35525272e-20, 5.82378379e-05, 6.90008965e-05,
          1.12358386e-04, 8.23567971e-05, 4.33574860e-05,
          -1.12358386e-04, -5.44393006e-05, -5.41205445e-05,
          -2.82362489e-05, -6.90008965e-05, 2.35824109e-06,
          3.18755184e-07, 5.82378379e-05, 6.90008965e-05, 1.12358386e-04,
          1.12358386e-04, 4.33574860e-05, -7.13591362e-05,
          -5.44393006e-05, -5.41205445e-05, -2.82362489e-05,
          -6.90008965e-05, 2.35824109e-06, -1.35525272e-20,
          5.82378379e-05, 1.12358386e-04, 1.12039626e-04, 5.41205445e-05,
          4.33574860e-05, -1.70227268e-05, -5.44393006e-05,
          -5.41205445e-05, -2.82362489e-05, -6.90008965e-05,
          2.35824109e-06, -1.35525272e-20, 3.00015890e-05,
          8.41221336e-05, 8.41221336e-05, 5.41205445e-05, 4.33574860e-05,
          -3.65405613e-05, -8.23567971e-05, -5.41205445e-05,
          -2.82362489e-05, -6.90008965e-05, 4.33574860e-05,
          -1.35525272e-20, -1.35525272e-20, -1.35525272e-20,
          5.41205445e-05, 4.33574860e-05, -1.35525272e-20,
          -3.65405613e-05, -8.23567971e-05, -1.07630585e-05,
          -2.82362489e-05, -3.24603352e-05, -1.35525272e-20,
          -1.35525272e-20, -1.35525272e-20, -1.35525272e-20,
          1.07630585e-05, -1.35525272e-20, -1.35525272e-20,
          -1.35525272e-20, -8.23567971e-05, -3.89993074e-05, 0.,
          -2.45874685e-06, -1.35525272e-20, -1.35525272e-20,
          -1.35525272e-20, -3.62218052e-05, 4.07646476e-05,
          3.00015890e-05, -1.35525272e-20, -1.35525272e-20,
          -1.12358386e-04, -2.82362489e-05, 0., -2.45874685e-06,
          -1.35525272e-20, -1.35525272e-20, -3.62218052e-05,
          -1.45639797e-05, -2.55616360e-05, 5.82378379e-05,
          -1.35525272e-20, -1.35525272e-20, -6.90008965e-05,
          -5.82378379e-05, 0., -2.45874685e-06, -1.35525272e-20,
          -1.35525272e-20, -2.53270391e-05, 1.77958500e-05,
          1.77958500e-05, 5.82378379e-05, 5.79190819e-05,
          -1.35525272e-20, -5.19781679e-05, -5.82378379e-05,
          -3.18755184e-07, 1.53371038e-05, -1.35525272e-20,
          -1.35525272e-20, 4.58162322e-05, 1.77958500e-05,
          1.77958500e-05, 2.80016502e-05, 5.79190819e-05,
          -1.35525272e-20, -1.09789244e-05, -5.82378379e-05,
          -3.18755184e-07, -1.09976572e-05, -1.35525272e-20,
          -1.35525272e-20, 4.58162322e-05, 1.77958500e-05,
          3.48185749e-05, 6.90008965e-05, 5.79190819e-05,
          -1.35525272e-20, 4.33574860e-05, -5.82378379e-05,
          -1.10818137e-05, -2.80203840e-05, -1.35525272e-20,
          -1.35525272e-20, 4.58162322e-05, 7.58178212e-05,
          3.48185749e-05, 1.12358386e-04, 3.00015890e-05,
          -1.35525272e-20, 4.33574860e-05, -4.12151094e-05,
          -1.10818137e-05, -1.09976572e-05, -1.35525272e-20,
          -1.35525272e-20, 5.44393006e-05, 1.12358386e-04,
          1.12358386e-04, 6.90008965e-05, 3.00015890e-05,
          -1.35525272e-20, 4.33574860e-05, -3.41823179e-05,
          -5.44393006e-05, -1.09976572e-05, 3.00015890e-05,
          -1.35525272e-20, 5.44393006e-05, 8.23567971e-05,
          1.12358386e-04, 4.07646476e-05, 3.00015890e-05,
          -1.35525272e-20, 4.33574860e-05, -5.94607036e-06,
          -1.78987393e-05, 3.00015890e-05, 3.00015890e-05,
          -1.35525272e-20, 4.33574860e-05, 5.41205445e-05,
          8.41221336e-05, 4.07646476e-05, -1.35525272e-20,
          -1.35525272e-20, 4.33574860e-05, 7.15937349e-05,
          -1.78987393e-05, 3.00015890e-05, 3.00015890e-05,
          -1.35525272e-20, 4.33574860e-05, -1.46644852e-05,
          -5.80219712e-05, -1.70227268e-05, -1.35525272e-20,
          4.33574860e-05, 7.15937349e-05, 1.01595324e-04,
          -1.09976572e-05, 3.00015890e-05, -1.35525272e-20,
          -1.35525272e-20, -3.65405613e-05, -9.45625361e-05,
          -1.12358386e-04, -7.58178212e-05, -1.70227268e-05,
          7.15937349e-05, 8.45725954e-05, 9.53356575e-05, 8.41221336e-05,
          3.00015890e-05, 3.00015890e-05, -1.35525272e-20,
          -9.45625361e-05, -1.12358386e-04, -1.12358386e-04,
          -8.41221336e-05, 2.34192612e-05, 8.45725954e-05,
          2.57775027e-05, 0., 8.41221336e-05, 8.41221336e-05,
          7.33590787e-05, -1.35525272e-20, -1.12358386e-04,
          -8.41221336e-05, -5.41205445e-05, -5.41205445e-05,
          -5.41205445e-05, -1.07630585e-05, 0., 0., 1.12039626e-04,
          8.41221336e-05, 8.41221336e-05, -2.15865469e-07,
          -8.41221336e-05, -8.41221336e-05, -5.41205445e-05,
          -5.41205445e-05, -1.07630585e-05, -1.07630585e-05, 0., 0. ]
      - [ 0., 0., -2.24482901e-05, -2.24482901e-05, 5.55829456e-06,
          2.06820332e-05, 2.40463214e-06, 2.40823229e-05,
          -2.24239593e-05, -2.57093780e-05, -2.47593562e-05, 0., 0., 0.,
          -2.69852080e-05, 4.60827277e-06, -3.28542046e-06,
          -2.03287907e-20, -2.03287907e-20, -2.92749719e-05,
          -4.87960460e-05, -2.81140110e-05, -2.57093780e-05, 0., 0.,
          -2.24482901e-05, 1.61664193e-05, -3.28542046e-06,
          -2.03287907e-20, -2.03287907e-20, -2.03287907e-20,
          -2.92749719e-05, -5.33329621e-05, -5.20814647e-05,
          -2.57093780e-05, 0., 0., -2.79352298e-05, -8.59293777e-06,
          -2.03287907e-20, -2.03287907e-20, -2.03287907e-20,
          -2.03287907e-20, -2.92749719e-05, -4.87960460e-05,
          -5.20814647e-05, -2.73221085e-05, -2.73221085e-05,
          -2.24482901e-05, -3.03398610e-05, -8.59293777e-06,
          -2.03287907e-20, 2.69852080e-05, 2.79352298e-05,
          2.24482901e-05, 2.24695941e-05, 1.09114471e-05,
          -2.40366880e-05, -2.73221085e-05, -2.73221085e-05,
          -2.69852080e-05, -5.50992190e-05, -3.28542046e-06,
          -2.03287907e-20, 2.79352298e-05, 5.50992190e-05,
          7.90666745e-05, 7.57120215e-05, 2.24695941e-05,
          -2.40366880e-05, -2.73221085e-05, -2.73221085e-05,
          -5.26945878e-05, -5.50992190e-05, -3.25603905e-05,
          2.24482901e-05, 5.26945878e-05, 7.90666745e-05, 7.90666745e-05,
          7.81166527e-05, 4.88416808e-05, -3.35465393e-06,
          -2.73221085e-05, -2.63720867e-05, -5.17445660e-05,
          -5.50992190e-05, -3.25603905e-05, 2.24482901e-05,
          5.26945878e-05, 7.90666745e-05, 7.90666745e-05, 7.90666745e-05,
          4.97917026e-05, 0., 0., 0., -5.26945878e-05, -5.50992190e-05,
          -3.25603905e-05, 2.24482901e-05, 3.03398610e-05,
          7.90666745e-05, 7.90666745e-05, 7.90666745e-05, 4.97917026e-05,
          0., 0., 0., -5.26945878e-05, -5.50992190e-05, -3.25603905e-05,
          -2.03287907e-20, 3.03398610e-05, 7.90666745e-05,
          7.90666745e-05, 7.90666745e-05, 4.97917026e-05, 3.28542046e-06,
          0., 0., -5.26945878e-05, -5.50992190e-05, -3.28542046e-06,
          -2.03287907e-20, 5.50992190e-05, 7.90666745e-05,
          7.90666745e-05, 7.90666745e-05, 4.97917026e-05, 3.82335566e-05,
          0., 0., -3.02462977e-05, -5.50992190e-05, -3.28542046e-06,
          -2.03287907e-20, 2.79352298e-05, 7.90666745e-05,
          7.90666745e-05, 7.90666745e-05, 4.97917026e-05, 1.48435674e-05,
          0., 0., -2.57093780e-05, -5.66183844e-05, -2.03287907e-20,
          -2.03287907e-20, 2.79352298e-05, 7.90666745e-05,
          7.90666745e-05, 7.90666745e-05, 4.97917026e-05, 1.48435674e-05,
          0., 0., -2.57093780e-05, -2.16702483e-05, -2.03287907e-20,
          -2.03287907e-20, 4.81576681e-05, 7.90666745e-05,
          7.90666745e-05, 7.90666745e-05, 4.97917026e-05, 4.97917026e-05,
          0., 0., -2.57093780e-05, -2.16702483e-05, -2.03287907e-20,
          -2.03287907e-20, 7.21251199e-05, 4.41185402e-05,
          7.90666745e-05, 7.90666745e-05, 7.90666745e-05, 4.97917026e-05,
          0., 0., -2.57093780e-05, -2.16702483e-05, -2.03287907e-20,
          -2.03287907e-20, -1.00306588e-05, 3.25603905e-05,
          2.92749719e-05, 7.90666745e-05, 7.90666745e-05, 4.97917026e-05,
          0., 0., -2.81140110e-05, -2.16702483e-05, -2.03287907e-20,
          -2.03287907e-20, -1.91841737e-05, 2.92749719e-05,
          2.92749719e-05, 7.90666745e-05, 7.90666745e-05, 4.97917026e-05,
          1.15581470e-05, 0., -2.81140110e-05, -2.16702483e-05,
          -2.03287907e-20, -2.03287907e-20, 1.71333304e-05,
          2.92749719e-05, 2.92749719e-05, 7.57812522e-05, 7.90666745e-05,
          7.90666745e-05, 1.48435674e-05, 0., -5.20814647e-05,
          -5.57518388e-06, -2.03287907e-20, -2.03287907e-20,
          1.71333304e-05, 6.82668133e-06, 4.08331180e-05, 7.90666745e-05,
          7.90666745e-05, 7.81166527e-05, 4.88416808e-05,
          -9.50021899e-07, -5.20814647e-05, -1.71333304e-05,
          -2.03287907e-20, -2.03287907e-20, 1.71333304e-05,
          2.16702483e-05, 4.08331180e-05, 7.90666745e-05, 7.81166527e-05,
          7.81166527e-05, 3.09090028e-05, -3.65995220e-05,
          -5.20814647e-05, -5.57518388e-06, 2.24482901e-05,
          -2.03287907e-20, 5.20814647e-05, 5.66183844e-05,
          7.90666745e-05, 7.81166527e-05, 5.33572929e-05, 3.09090028e-05,
          2.63720867e-05, -4.11364381e-05, -5.20814647e-05,
          2.36997876e-05, 2.24482901e-05, -2.03287907e-20,
          4.96768334e-05, 5.42137495e-05, 7.90666745e-05, 7.81166527e-05,
          5.33572929e-05, 2.63720867e-05, 2.63720867e-05,
          -4.11364381e-05, -1.71333304e-05, 2.69852080e-05,
          2.24482901e-05, -2.03287907e-20, 2.49174755e-05,
          2.94543934e-05, 5.19026835e-05, 5.09526617e-05, 2.39674537e-05,
          2.39674537e-05, 2.39674537e-05, 2.18564728e-05,
          -1.47286983e-05, 2.69852080e-05, 2.24482901e-05,
          -2.03287907e-20, 9.50021899e-07, 1.00739089e-05,
          -1.03066495e-05, -7.02122861e-06, 2.39674537e-05,
          2.39674537e-05, 4.87268117e-05, 7.45297511e-05, 2.07969024e-05,
          2.93898393e-05, 2.69852080e-05, 2.24482901e-05,
          -6.42231025e-05, -7.90666745e-05, -7.90666745e-05,
          -4.41185402e-05, -1.15581470e-05, -2.03287907e-20,
          6.05669738e-05, 6.75085248e-05, 5.43073147e-05, 5.33572929e-05,
          2.93898393e-05, 2.24482901e-05, -5.66183844e-05,
          -7.90666745e-05, -7.90666745e-05, -7.90666745e-05,
          -1.15581470e-05, 1.41512319e-05, 5.72815552e-05,
          2.92749719e-05, 5.43073147e-05, 5.33572929e-05, 2.93898393e-05,
          2.69852080e-05, -5.66183844e-05, -7.90666745e-05,
          -5.43073147e-05, -5.43073147e-05, -5.33572929e-05,
          -2.63720867e-05, -2.40463214e-06, -2.40463214e-06,
          7.90666745e-05, 7.90666745e-05, 5.33572929e-05,
          -3.48332651e-05, -5.66183844e-05, -3.18590246e-05,
          -5.43073147e-05, -5.33572929e-05, -2.63720867e-05,
          -2.40463214e-06, -2.40463214e-06, 0. ]
      - [ 0., 0., 0., 0., -3.54949880e-05, -1.38379737e-05,
          -3.04931861e-20, 3.59984588e-05, -1.14542922e-06,
          -1.26393315e-05, 0., 0., 0., 0., -1.33058029e-05,
          5.03470744e-07, -2.10176859e-05, -3.04931861e-20,
          -3.04931861e-20, 3.59984588e-05, -2.03601539e-05,
          -3.12292286e-05, 0., 0., -1.27014846e-05, -4.32642446e-05,
          1.30943690e-05, 1.49807729e-05, -3.04931861e-20,
          -3.04931861e-20, -3.04931861e-20, -3.04931861e-20,
          -5.63586109e-05, -7.92627034e-05, -3.05627582e-05, 0.,
          -3.25205256e-05, -5.04439558e-05, 1.49807729e-05,
          -3.04931861e-20, -3.04931861e-20, -3.04931861e-20,
          -3.04931861e-20, -3.04931861e-20, -5.63586109e-05,
          -8.64424146e-05, -3.05627582e-05, 0., -3.25205256e-05,
          -5.04439558e-05, 1.49807729e-05, -3.04931861e-20,
          1.26393315e-05, 2.46743439e-05, 1.26393315e-05,
          -3.04931861e-20, -1.25908982e-05, -6.54247269e-05,
          -3.12292286e-05, 0., -3.84089399e-05, -5.04439558e-05,
          1.49807729e-05, -3.04931861e-20, 2.46743439e-05,
          2.53408161e-05, 2.53408161e-05, -3.04931861e-20,
          -3.04931861e-20, -6.54247269e-05, -6.72276874e-05, 0.,
          -3.84089399e-05, -5.04439558e-05, 1.49807729e-05,
          1.79234266e-05, 4.25977705e-05, 4.32642446e-05, 7.92627034e-05,
          4.80334711e-05, -3.04931861e-20, -8.64424146e-05,
          -7.92627034e-05, -5.45883559e-05, -3.84089399e-05,
          -5.04439558e-05, -2.10176859e-05, 1.79234266e-05,
          4.32642446e-05, 8.64424146e-05, 8.64424146e-05, 6.66233682e-05,
          3.59984588e-05, -8.64424146e-05, -8.64424146e-05,
          -5.45883559e-05, -3.84089399e-05, -5.04439558e-05,
          -2.10176859e-05, 1.79234266e-05, 5.04439558e-05,
          8.64424146e-05, 8.64424146e-05, 5.58796528e-05, 3.59984588e-05,
          -5.04439558e-05, -8.64424146e-05, -3.66649292e-05,
          -3.84089399e-05, -5.04439558e-05, -2.10176859e-05,
          -3.04931861e-20, 5.04439558e-05, 8.64424146e-05,
          8.64424146e-05, 6.85189880e-05, 3.59984588e-05,
          -2.94262682e-05, -8.64424146e-05, -4.38446405e-05,
          -3.84089399e-05, -5.04439558e-05, -2.10176859e-05,
          -3.04931861e-20, 5.04439558e-05, 8.64424146e-05,
          8.64424146e-05, 6.85189880e-05, 3.59984588e-05,
          -1.25908982e-05, -8.64424146e-05, -5.58796528e-05,
          -3.84089399e-05, -8.64424146e-05, -2.10176859e-05,
          -3.04931861e-20, 5.04439558e-05, 8.64424146e-05,
          8.64424146e-05, 5.52131823e-05, 3.59984588e-05,
          -4.37677154e-05, -8.64424146e-05, -6.85189880e-05,
          -3.84089399e-05, -5.04439558e-05, -3.04931861e-20,
          1.79234266e-05, 5.04439558e-05, 8.64424146e-05, 8.64424146e-05,
          6.78525103e-05, 4.31781700e-05, -4.37677154e-05,
          -8.64424146e-05, -6.85189880e-05, -3.84089399e-05,
          -6.67624090e-06, -3.04931861e-20, 1.79234266e-05,
          5.04439558e-05, 8.64424146e-05, 8.64424146e-05, 6.78525103e-05,
          4.31781700e-05, -3.04931861e-20, -8.64424146e-05,
          -8.64424146e-05, -3.84089399e-05, -6.67624090e-06,
          -3.04931861e-20, -3.04931861e-20, 5.04439558e-05,
          4.26746992e-05, 8.64424146e-05, 6.85189880e-05, 4.31781700e-05,
          -3.04931861e-20, -8.64424146e-05, -8.64424146e-05,
          -3.84089399e-05, -6.67624090e-06, -3.04931861e-20,
          -3.04931861e-20, 6.67624090e-06, 3.00838001e-05,
          9.06611513e-06, 6.85189880e-05, 4.31781700e-05,
          -3.04931861e-20, -8.64424146e-05, -8.64424146e-05,
          -3.84089399e-05, -4.26746992e-05, -3.04931861e-20,
          -3.04931861e-20, 3.00838001e-05, 9.06611513e-06,
          9.06611513e-06, 6.85189880e-05, 7.17971125e-06,
          -3.04931861e-20, -7.38515155e-05, -6.85189880e-05,
          -2.57696101e-05, -3.36085832e-05, -3.04931861e-20,
          1.79234266e-05, 4.26746992e-05, 9.06611513e-06, 9.06611513e-06,
          4.68348262e-05, -3.04931861e-20, -3.04931861e-20,
          -5.28338278e-05, -6.85189880e-05, -3.12292286e-05,
          -2.10176859e-05, -3.04931861e-20, 1.79234266e-05,
          6.67624090e-06, 9.06611513e-06, 2.16570133e-05, 6.78525103e-05,
          -3.04931861e-20, -3.04931861e-20, -3.04931861e-20,
          -4.97774818e-05, -6.66471806e-07, -3.36085832e-05,
          -3.04931861e-20, 1.79234266e-05, 3.06396869e-05,
          4.26746992e-05, 2.16570133e-05, 6.85189880e-05,
          -3.04931861e-20, -3.04931861e-20, -3.04931861e-20,
          -3.71865863e-05, -5.45883559e-05, -2.10176859e-05,
          -3.04931861e-20, 1.79234266e-05, 8.64424146e-05,
          8.64424146e-05, 8.64424146e-05, 4.80334711e-05, 1.20350132e-05,
          -3.04931861e-20, -3.04931861e-20, -8.30142653e-06,
          -6.72276874e-05, -2.10176859e-05, -3.04931861e-20,
          -3.04931861e-20, 7.44073986e-05, 8.64424146e-05,
          7.92627034e-05, 4.80334711e-05, -3.04931861e-20,
          -3.04931861e-20, -3.04931861e-20, -8.30142653e-06,
          -1.08206432e-05, 7.17971125e-06, -3.04931861e-20,
          -3.04931861e-20, 4.31781700e-05, 6.59568977e-05,
          4.80334711e-05, 4.80334711e-05, -3.04931861e-20,
          -3.04931861e-20, 1.98190428e-05, 5.64839720e-05,
          -2.34599738e-05, -3.04931861e-20, -3.04931861e-20,
          -3.04931861e-20, -3.04931861e-20, 2.38987445e-06,
          2.38987445e-06, -1.25908982e-05, -3.04931861e-20,
          1.26393315e-05, 1.98190428e-05, 7.44073986e-05,
          -1.80296126e-06, -3.04931861e-20, -3.04931861e-20,
          -3.04931861e-20, -4.37677154e-05, -7.73762949e-05,
          -8.64424146e-05, -3.00353677e-05, 4.84331508e-08,
          1.98190428e-05, 2.58180444e-05, 7.38515155e-05, 3.18540551e-05,
          -3.04931861e-20, -3.04931861e-20, -3.04931861e-20,
          -7.73762949e-05, -8.64424146e-05, -7.38030794e-05,
          -7.38030794e-05, -1.83797067e-06, 1.99296301e-05,
          4.37677154e-05, 0., 8.57759442e-05, 6.59568977e-05,
          -3.04931861e-20, -3.04931861e-20, -7.38030794e-05,
          -7.31366090e-05, -7.38030794e-05, -5.39218854e-05,
          -5.39218854e-05, 0., 0., 0., 8.57759442e-05, 7.31366090e-05,
          5.39218854e-05, -4.19603975e-06, -3.71381502e-05,
          -2.51031379e-05, -5.39218854e-05, -3.59984588e-05,
          -3.59984588e-05, 0., 0., 0. ]
      - [ 0., 0., -9.75938656e-06, -9.75938656e-06, -1.22113397e-05,
          6.13886223e-05, 6.92189496e-05, 1.96703095e-05,
          -3.50726514e-05, -4.87217803e-05, -2.60679953e-05, 0., 0.,
          -9.75938656e-06, -2.54119914e-05, -1.22113397e-05,
          2.08447582e-05, 3.51680828e-05, 8.59190368e-06, 1.55271518e-05,
          -3.50726514e-05, -6.70730733e-05, -5.79729822e-05,
          -1.83512893e-05, -1.56526057e-05, -2.54119914e-05,
          1.86948164e-05, -1.08007839e-06, -8.47032947e-21,
          8.59190368e-06, 8.59190368e-06, -2.71156223e-05,
          -7.77154273e-05, -5.79729822e-05, -3.58273828e-05,
          -2.24944488e-05, -1.56526057e-05, -4.93810803e-05,
          -7.38807694e-06, -8.47032947e-21, -8.47032947e-21,
          -8.47032947e-21, -8.47032947e-21, -2.71156223e-05,
          -6.86153362e-05, -5.65453192e-05, -2.24944488e-05,
          -1.83512893e-05, -2.21456012e-05, -6.70730733e-05,
          -7.38807694e-06, -8.47032947e-21, -8.47032947e-21,
          4.78450129e-05, 5.43380083e-05, 3.13655437e-05, 2.80172626e-05,
          -2.83194477e-05, -5.24021598e-05, -8.59190368e-06,
          -3.53888463e-05, -6.70730733e-05, 1.97275440e-05,
          -8.47032947e-21, 4.45786209e-05, 5.84811678e-05,
          9.25320346e-05, 9.25320346e-05, 3.13655437e-05,
          -2.83194477e-05, -3.40508705e-05, -3.40508705e-05,
          -4.39807518e-05, -6.70730733e-05, -7.38807694e-06,
          -8.47032947e-21, 4.45786209e-05, 5.84811678e-05,
          9.25320346e-05, 1.01123936e-04, 7.40083196e-05,
          -3.40508705e-05, -3.40508705e-05, -3.40508705e-05,
          -3.74877527e-05, -6.70730733e-05, -7.38807694e-06,
          9.10008748e-06, 4.87217803e-05, 6.70730733e-05, 1.01123936e-04,
          1.01123936e-04, 7.40083196e-05, 0., -3.40508705e-05,
          -3.40508705e-05, -5.08206867e-05, -6.70730733e-05,
          -7.38807694e-06, -8.47032947e-21, 5.73136822e-05,
          6.70730733e-05, 1.01123936e-04, 1.01123936e-04, 7.40083196e-05,
          0., 0., 0., -3.74877527e-05, -6.70730733e-05, -7.38807694e-06,
          9.10008748e-06, 5.73136822e-05, 1.01123936e-04, 1.01123936e-04,
          1.01123936e-04, 7.40083196e-05, 1.43233246e-05, 0., 0.,
          -2.47526914e-05, -6.70730733e-05, -1.43233246e-05,
          -8.47032947e-21, 5.73136822e-05, 6.70730733e-05,
          1.01123936e-04, 7.63712451e-05, 2.94296970e-05, 3.25744113e-05,
          -1.33329331e-05, 0., -2.47526914e-05, -6.70730733e-05,
          -1.43233246e-05, -8.47032947e-21, 2.83281461e-05,
          2.83281461e-05, 4.67859318e-05, 5.24021598e-05, 2.52865375e-05,
          -2.19649828e-05, -2.89260170e-05, 0., -3.33445969e-05,
          -6.70730733e-05, -8.47032947e-21, -8.47032947e-21,
          8.59190368e-06, 8.59190368e-06, 8.59190368e-06, 4.26427723e-05,
          1.55271518e-05, -2.19649828e-05, -4.14315900e-06, 0.,
          -3.33445969e-05, -1.98215494e-05, -8.47032947e-21,
          -8.47032947e-21, -8.47032947e-21, -8.47032947e-21,
          -8.47032947e-21, -8.47032947e-21, 2.46272375e-05,
          5.42125526e-05, -4.14315900e-06, 0., -4.66775273e-05,
          -5.38724198e-05, -8.47032947e-21, -8.47032947e-21,
          -8.47032947e-21, -4.72515203e-05, -8.47032947e-21,
          3.80856254e-05, 4.07843108e-05, 6.98651565e-05, 0., 0.,
          -3.33445969e-05, -5.38724198e-05, -8.47032947e-21,
          -8.47032947e-21, -3.15989164e-05, -6.02118143e-06,
          -6.44196052e-06, 5.84811678e-05, 6.70730733e-05,
          7.40083196e-05, 0., 0., -2.83876670e-05, -5.38724198e-05,
          -8.47032947e-21, -8.47032947e-21, 2.80296881e-05,
          2.76089086e-05, 2.76089086e-05, 9.25320346e-05, 1.01123936e-04,
          7.40083196e-05, 3.34828201e-06, 0., -2.18351488e-05,
          -4.47872299e-05, -8.47032947e-21, -8.47032947e-21,
          3.55211305e-05, 3.62008104e-05, 3.62008104e-05, 8.68006173e-05,
          1.01123936e-04, 1.01123936e-04, 1.76716057e-05, 0.,
          -1.27350622e-05, -4.14389469e-05, -8.47032947e-21,
          -8.47032947e-21, 3.55211305e-05, 3.62008104e-05,
          3.95490933e-05, 1.01123936e-04, 1.01123936e-04, 1.01123936e-04,
          7.40083196e-05, 0., -2.18351488e-05, -4.47872299e-05,
          -8.47032947e-21, -8.47032947e-21, 5.38724198e-05,
          5.38724198e-05, 3.95490933e-05, 1.01123936e-04, 1.01123936e-04,
          1.01123936e-04, 1.01123936e-04, 3.34828201e-06,
          -7.57714733e-05, -4.14389469e-05, -8.47032947e-21,
          -8.47032947e-21, 1.01123936e-04, 1.01123936e-04,
          1.01123936e-04, 1.01123936e-04, 1.01123936e-04, 1.01123936e-04,
          7.86909150e-05, -9.99954864e-06, -6.24385357e-05,
          -1.43233246e-05, -8.47032947e-21, -8.47032947e-21,
          9.13645563e-05, 1.01123936e-04, 1.01123936e-04, 1.01123936e-04,
          7.45477591e-05, 6.80547673e-05, 5.24021598e-05,
          -1.41427072e-05, -2.85199494e-05, -8.47032947e-21,
          -8.47032947e-21, -8.47032947e-21, 8.59190368e-06,
          7.15687856e-05, 5.88951552e-05, 5.24021598e-05, 4.38102543e-05,
          4.38102543e-05, 3.40508705e-05, 2.52865375e-05,
          -3.56916757e-06, -8.47032947e-21, -8.47032947e-21,
          -8.47032947e-21, -8.47032947e-21, 1.63792629e-05,
          1.63792629e-05, 3.07025875e-05, 3.40508705e-05, 3.40508705e-05,
          3.40508705e-05, 4.31509579e-05, -8.95081484e-07,
          -8.47032947e-21, -8.47032947e-21, -8.47032947e-21,
          -7.43671408e-05, -9.20387465e-05, -1.01123936e-04,
          -5.38724198e-05, 3.07025875e-05, 4.31509579e-05,
          5.31356091e-05, 5.31356091e-05, 4.05438659e-05, 3.40508705e-05,
          3.40508705e-05, 3.40508705e-05, -9.20387465e-05,
          -1.01123936e-04, -1.01123936e-04, -9.20238526e-05,
          4.81935786e-05, 5.72787685e-05, 4.03632475e-05, 1.73562348e-05,
          4.05438659e-05, 3.40508705e-05, 3.40508705e-05, 3.40508705e-05,
          -4.95969762e-05, -5.88951552e-05, -6.59558573e-05,
          -4.38102543e-05, -4.38102543e-05, -9.75938656e-06,
          -9.75938656e-06, 0., 5.44464092e-05, 5.03032497e-05,
          3.40508705e-05, -3.54989170e-05, -2.48442848e-05,
          -9.75938656e-06, -4.38102543e-05, -4.38102543e-05,
          -4.38102543e-05, -9.75938656e-06, -9.75938656e-06, 0. ]
      - [ 0., 0., 0., 0., -2.84422658e-05, 3.91966678e-05,
          3.94854542e-05, -2.79071246e-05, -5.68015603e-05,
          -8.77662460e-05, -6.23750529e-05, -5.99925625e-05, 0., 0.,
          -2.38249299e-06, -3.08247581e-05, 1.38054747e-05,
          -2.03287907e-20, -2.03287907e-20, -2.79071246e-05,
          -5.68015603e-05, -8.77662460e-05, -6.23750529e-05,
          -5.99925625e-05, -2.38249299e-06, -2.28896024e-05,
          -5.88718103e-05, -6.70163445e-06, -2.03287907e-20,
          -2.03287907e-20, -2.03287907e-20, -2.79071246e-05,
          -5.68015603e-05, -6.23750529e-05, -5.99925625e-05,
          -5.99925625e-05, -2.38249299e-06, -4.82807918e-05,
          -3.46087581e-05, -2.03287907e-20, -2.03287907e-20,
          -2.03287907e-20, 2.38249299e-06, -1.33440182e-07,
          -8.52076755e-06, -3.94854542e-05, -3.94854542e-05,
          -3.94854542e-05, -4.82807918e-05, -4.82807918e-05,
          -3.46087581e-05, 2.38249299e-06, 2.77736835e-05,
          2.77736835e-05, 4.82807918e-05, 2.03736690e-05, 4.20078723e-05,
          6.70163445e-06, -3.94854542e-05, -3.94854542e-05,
          -4.82807918e-05, -4.82807918e-05, -6.70163445e-06,
          2.38249299e-06, 2.77736835e-05, 4.82807918e-05, 8.77662460e-05,
          8.77662460e-05, 5.98591214e-05, 6.70163445e-06, 0., 0.,
          -4.82807918e-05, -4.82807918e-05, -3.46087581e-05,
          -2.03287907e-20, 2.77736835e-05, 8.77662460e-05,
          8.77662460e-05, 8.77662460e-05, 5.98591214e-05, 0., 0., 0.,
          -2.28896024e-05, -8.77662460e-05, -3.46087581e-05,
          2.38249299e-06, 2.77736835e-05, 8.77662460e-05, 8.77662460e-05,
          8.77662460e-05, 5.98591214e-05, 0., 0., 0., -2.28896024e-05,
          -8.77662460e-05, -3.46087581e-05, 2.38249299e-06,
          2.77736835e-05, 8.77662460e-05, 8.77662460e-05, 8.77662460e-05,
          5.98591214e-05, 0., 0., 0., -2.28896024e-05, -8.77662460e-05,
          -3.46087581e-05, 2.38249299e-06, 2.77736835e-05,
          8.77662460e-05, 8.77662460e-05, 8.77662460e-05, 5.98591214e-05,
          6.70163445e-06, -2.53911912e-05, 0., -2.28896024e-05,
          -8.77662460e-05, -6.70163445e-06, -2.03287907e-20,
          2.77736835e-05, 8.77662460e-05, 8.77662460e-05, 8.77662460e-05,
          5.98591214e-05, 1.66166828e-05, -2.53911912e-05,
          -2.53911912e-05, -2.28896024e-05, -6.23750529e-05,
          -6.70163445e-06, -2.03287907e-20, 2.53911912e-05,
          6.72591341e-05, 6.72591341e-05, 3.94854542e-05, 1.15783287e-05,
          -1.84432029e-05, -2.77736835e-05, -2.77736835e-05,
          -2.38249299e-06, -6.23750529e-05, -2.03287907e-20,
          -2.03287907e-20, -2.03287907e-20, -2.03287907e-20,
          3.94854542e-05, -2.03287907e-20, -2.79071246e-05,
          -3.89503111e-05, -6.72591341e-05, -6.72591341e-05,
          -2.38249299e-06, -5.13318664e-05, -2.03287907e-20,
          -2.03287907e-20, -2.03287907e-20, -2.03287907e-20,
          -2.03287907e-20, -2.03287907e-20, -2.79071246e-05,
          -2.79071246e-05, -6.72591341e-05, -4.18679447e-05,
          -2.38249299e-06, -5.13318664e-05, 2.53911912e-05,
          -2.03287907e-20, -2.03287907e-20, -1.10431884e-05,
          -2.03287907e-20, 2.38249299e-06, 2.38249299e-06,
          2.03736690e-05, -4.18679447e-05, 0., -2.38249299e-06,
          -5.13318664e-05, 2.53911912e-05, 2.53911912e-05,
          -8.66069513e-06, -2.65119434e-05, -3.32135787e-05,
          2.77736835e-05, 4.82807918e-05, 2.03736690e-05, 0., 0.,
          -2.38249299e-06, -1.18464141e-05, 2.53911912e-05,
          2.53911912e-05, -2.65119434e-05, -3.32135787e-05,
          2.67789837e-05, 8.77662460e-05, 8.77662460e-05, 5.98591214e-05,
          1.78512491e-05, 0., -2.38249299e-06, 1.24166372e-05,
          2.53911912e-05, 2.53911912e-05, -8.66069513e-06,
          -1.27064695e-05, 2.67789837e-05, 8.10646088e-05,
          8.77662460e-05, 8.77662460e-05, 2.45528827e-05, 0.,
          -2.38249299e-06, 3.02678854e-05, 2.53911912e-05,
          2.53911912e-05, -8.66069513e-06, 2.67789837e-05,
          4.46302329e-05, 8.77662460e-05, 8.77662460e-05, 8.77662460e-05,
          5.98591214e-05, 0., -2.38249299e-06, -2.70688161e-05,
          2.53911912e-05, 2.53911912e-05, -8.66069513e-06,
          3.08247581e-05, 4.46302329e-05, 8.77662460e-05, 8.77662460e-05,
          8.77662460e-05, 8.77662460e-05, 1.78512491e-05,
          -2.38249299e-06, -9.21756782e-06, 2.53911912e-05,
          2.53911912e-05, 2.38249299e-06, 4.18679447e-05, 6.23750529e-05,
          8.77662460e-05, 8.77662460e-05, 8.77662460e-05, 8.77662460e-05,
          4.21143013e-05, -2.28896024e-05, 1.86895577e-05,
          2.53911912e-05, 2.53911912e-05, -2.03287907e-20,
          2.28896024e-05, 6.23750529e-05, 6.23750529e-05, 8.77662460e-05,
          8.77662460e-05, 8.77662460e-05, 4.21143013e-05,
          -1.18464141e-05, 2.53911912e-05, 2.53911912e-05,
          2.53911912e-05, -2.03287907e-20, 2.38249299e-06,
          6.23750529e-05, 6.23750529e-05, 8.77662460e-05, 8.77662460e-05,
          8.77662460e-05, 5.98591214e-05, 8.66069513e-06, 6.48766436e-05,
          2.53911912e-05, 2.53911912e-05, 2.53911912e-05,
          -2.21703904e-05, -1.66328095e-06, 4.45238074e-05,
          6.23750529e-05, 8.77662460e-05, 8.77662460e-05, 8.77662460e-05,
          5.07749937e-05, 2.53911912e-05, 2.53911912e-05, 2.53911912e-05,
          -1.35591208e-05, -6.11206997e-05, -2.53911912e-05,
          -1.43480029e-05, 4.45238074e-05, 8.77662460e-05,
          6.99149969e-05, 6.99149969e-05, 8.53837555e-05, 2.53911912e-05,
          2.53911912e-05, 2.53911912e-05, -3.81120044e-05,
          -6.23750529e-05, -2.53911912e-05, -2.53911912e-05,
          2.02607553e-05, 4.45238074e-05, 3.89503111e-05, 2.79071246e-05,
          4.58983013e-05, 4.58983013e-05, 2.53911912e-05, 2.53911912e-05,
          -6.23750529e-05, -2.05071101e-05, -2.53911912e-05,
          -2.53911912e-05, -2.53911912e-05, -2.53911912e-05, 0., 0.,
          4.58983013e-05, 4.58983013e-05, 2.53911912e-05,
          -3.78221739e-05, -2.05071101e-05, 0., -2.53911912e-05,
          -2.53911912e-05, -2.53911912e-05, 0., 0., 0. ]
      - [ 0., 0., 0., 0., 2.80939753e-06, 6.36150071e-06, 6.59109219e-06,
          -3.82780371e-07, -4.69877450e-05, -3.14504505e-05, 0., 0., 0.,
          0., 0., 2.24147025e-05, 2.13198564e-05, 2.37169225e-20,
          2.37169225e-20, -3.82780371e-07, -4.69877450e-05,
          -6.80464436e-05, -2.48057859e-05, 0., 0., 0., 3.53291507e-05,
          -9.14194243e-06, 2.37169225e-20, 2.37169225e-20,
          2.37169225e-20, -3.82780371e-07, -4.69877450e-05,
          -6.80464436e-05, -4.44072612e-05, 0., 0., -2.89038180e-05,
          -9.52472328e-06, 2.37169225e-20, 2.37169225e-20,
          2.37169225e-20, 2.37169225e-20, -3.82780371e-07,
          -4.69877450e-05, -6.80464436e-05, -4.44072612e-05,
          -4.04638668e-05, 0., -6.18573104e-05, -9.52472328e-06,
          2.37169225e-20, 2.26505326e-05, 6.68262655e-05, 6.41030492e-05,
          3.38278005e-05, 8.36465370e-06, -3.62539686e-05,
          -4.14525166e-05, -1.02871627e-05, -1.12758116e-05,
          -6.80464436e-05, -9.14194243e-06, 2.37169225e-20,
          6.30774884e-05, 6.80464436e-05, 6.80464436e-05, 6.53232200e-05,
          3.38278005e-05, -3.12850098e-05, -2.89038180e-05,
          -1.02871627e-05, -5.77592800e-05, -6.80464436e-05,
          -9.52472328e-06, 2.37169225e-20, 6.30774884e-05,
          6.80464436e-05, 6.80464436e-05, 6.80464436e-05, 6.76636628e-05,
          -1.86166544e-05, 0., 0., -6.80464436e-05, -6.80464436e-05,
          -9.52472328e-06, 3.71186911e-06, 6.30774884e-05,
          6.80464436e-05, 6.80464436e-05, 6.80464436e-05, 6.76636628e-05,
          0., 0., 0., -6.80464436e-05, -6.80464436e-05, -9.52472328e-06,
          2.72321950e-06, 6.80464436e-05, 6.80464436e-05, 6.80464436e-05,
          6.80464436e-05, 6.76636628e-05, 0., 0., 0., -6.80464436e-05,
          -6.80464436e-05, -9.52472328e-06, 2.37169225e-20,
          6.80464436e-05, 6.80464436e-05, 6.80464436e-05, 6.80464436e-05,
          4.50131301e-05, -1.35085893e-05, -2.76194878e-05, 0.,
          -6.80464436e-05, -6.80464436e-05, -9.14194243e-06,
          2.37169225e-20, 6.80464436e-05, 6.80464436e-05, 6.80464436e-05,
          4.53959110e-05, 4.50131301e-05, 2.61410751e-05,
          -2.76194878e-05, -2.76194878e-05, -6.80464436e-05,
          -6.80464436e-05, -9.14194243e-06, 2.26505326e-05,
          6.80464436e-05, 6.80464436e-05, 6.80464436e-05, 4.04269522e-05,
          4.00441750e-05, 7.34230889e-06, -2.76194878e-05,
          -2.76194878e-05, -4.94297892e-05, -6.80464436e-05,
          2.37169225e-20, 2.37169225e-20, 6.80464436e-05, 6.80464436e-05,
          4.53959110e-05, 4.04269522e-05, 2.14275187e-05,
          -1.49862153e-05, -5.01795366e-05, -5.01795366e-05,
          -4.94297892e-05, -3.53445794e-05, 2.37169225e-20,
          2.37169225e-20, 6.80464436e-05, 6.80464436e-05, 6.80464436e-05,
          2.18102996e-05, 1.64954745e-05, 1.64954745e-05,
          -6.14553501e-05, -5.11681865e-05, -4.94297892e-05,
          -3.53445794e-05, 2.37169225e-20, 2.37169225e-20,
          6.80464436e-05, 3.53445794e-05, 4.94297892e-05, 3.79066514e-05,
          2.37169225e-20, -3.82780371e-07, -6.80464436e-05,
          -6.80464436e-05, -4.94297892e-05, -3.53445794e-05,
          2.37169225e-20, 2.37169225e-20, 3.53445794e-05, 2.14414795e-05,
          -1.02605127e-05, 2.76194878e-05, 2.37169225e-20,
          -3.82780371e-07, -6.80464436e-05, -6.80464436e-05,
          -2.01881630e-05, -3.53445794e-05, 2.37169225e-20,
          2.37169225e-20, 2.14414795e-05, 1.22995370e-05, 5.70844486e-06,
          2.76194878e-05, 2.37169225e-20, -3.82780371e-07,
          -5.41433437e-05, -4.94297892e-05, -6.68262655e-05,
          -2.34278214e-05, 2.37169225e-20, 2.37169225e-20,
          3.53445794e-05, 1.22995370e-05, 5.70844486e-06, 3.83143743e-05,
          2.37169225e-20, 2.37169225e-20, -4.50014013e-05,
          -6.80464436e-05, -3.01397922e-05, -9.52472328e-06,
          2.37169225e-20, 2.37169225e-20, 1.67279231e-05, 1.22995370e-05,
          2.62026351e-05, 6.14553501e-05, 2.37169225e-20, 2.37169225e-20,
          -3.82780371e-07, -6.80464436e-05, -4.04269522e-05,
          -2.34278214e-05, 2.37169225e-20, 2.37169225e-20,
          3.53445794e-05, 3.53445794e-05, 2.62026351e-05, 6.80464436e-05,
          4.12671870e-05, 2.37169225e-20, 2.37169225e-20,
          -5.41433437e-05, -4.82096111e-05, -9.52472328e-06,
          2.37169225e-20, 2.37169225e-20, 4.53959110e-05, 6.80464436e-05,
          6.80464436e-05, 6.80464436e-05, 1.96053043e-05, 2.37169225e-20,
          2.37169225e-20, -4.22265875e-05, -2.18472105e-05,
          -9.14194243e-06, 2.37169225e-20, 2.37169225e-20,
          6.30774884e-05, 6.80464436e-05, 6.80464436e-05, 6.80464436e-05,
          2.26505326e-05, 2.37169225e-20, 2.37169225e-20,
          -3.56354940e-05, 1.31003899e-05, 2.37169225e-20,
          2.37169225e-20, 2.37169225e-20, 2.67792548e-05, 6.80464436e-05,
          6.80464436e-05, 3.60815975e-05, 2.37169225e-20, 2.37169225e-20,
          2.37169225e-20, 3.15820653e-05, -2.79304504e-06,
          2.37169225e-20, 2.37169225e-20, 2.37169225e-20, 1.02871627e-05,
          -3.95796178e-06, -2.18248661e-05, -1.39030981e-05,
          2.37169225e-20, 2.37169225e-20, 2.92416244e-05, 5.77592800e-05,
          3.79315970e-05, 2.37169225e-20, 2.37169225e-20, 2.37169225e-20,
          -3.30846451e-05, -5.61296874e-05, -6.80464436e-05,
          -3.53445794e-05, -1.39030981e-05, 2.37169225e-20,
          4.28675303e-05, 5.41433437e-05, 5.11681865e-05, 2.26505326e-05,
          2.37169225e-20, 2.37169225e-20, -5.61296874e-05,
          -6.80464436e-05, -6.80464436e-05, -6.80464436e-05,
          -1.92287625e-05, 2.52395275e-05, 3.30846451e-05,
          3.82780371e-07, 6.80464436e-05, 3.29376962e-05, 2.37169225e-20,
          2.37169225e-20, -6.80464436e-05, -6.80464436e-05,
          -4.53959110e-05, -4.26726911e-05, -1.15073381e-05, 0., 0., 0.,
          6.80464436e-05, 6.30774884e-05, 1.02871627e-05,
          -4.50014013e-05, -6.80464436e-05, -6.80464436e-05,
          -2.01881630e-05, -1.02871627e-05, 0., 0., 0., 0. ]
      - [ 0., 0., -6.84772942e-07, -6.84772942e-07, 2.55586419e-05,
          7.25255159e-05, 4.74326444e-05, 2.75125840e-05, 1.68578736e-05,
          -4.67478712e-05, -8.07263586e-06, -7.80365735e-06, 0., 0.,
          -6.84772942e-07, 2.48738688e-05, 7.18407464e-05,
          7.69171020e-05, 4.74326444e-05, 2.75125840e-05, 9.52373011e-06,
          -4.67478712e-05, -2.75125840e-05, -8.07263586e-06,
          -2.94844613e-05, -4.91933897e-05, 3.76172284e-05,
          5.28165874e-05, 1.13113521e-04, 1.13798291e-04, 4.74326444e-05,
          2.75125840e-05, -2.02297106e-05, -4.74326444e-05,
          -4.74326444e-05, -8.75740898e-06, -4.94045198e-05,
          -1.13798291e-04, -4.12727750e-05, 6.63656538e-05,
          1.05779378e-04, 1.13798291e-04, 4.74326444e-05, 2.01784424e-05,
          -2.02297106e-05, -4.74326444e-05, -2.75125840e-05,
          -8.75740898e-06, -1.12375026e-04, -1.13798291e-04,
          -4.12727750e-05, 6.63656538e-05, 1.05779378e-04,
          1.13798291e-04, 4.74326444e-05, 4.74326444e-05, 5.32893091e-06,
          -6.15986664e-06, -4.74326444e-05, -8.75740898e-06,
          -1.13059803e-04, -1.13798291e-04, -4.12727750e-05,
          6.63656538e-05, 1.13798291e-04, 1.13798291e-04, 4.74326444e-05,
          2.75125840e-05, 6.84772942e-07, -6.15986664e-06,
          -2.86774666e-05, -1.42326644e-06, -8.69704818e-05,
          -1.13798291e-04, -4.12727750e-05, 6.63656538e-05,
          1.13798291e-04, 1.13798291e-04, 7.69171020e-05, 2.75125840e-05,
          6.84772942e-07, -4.74326444e-05, -2.13433250e-05,
          -1.42326644e-06, -8.69704818e-05, -1.13798291e-04,
          -4.12727750e-05, 6.63656538e-05, 1.13798291e-04,
          1.13798291e-04, 1.13798291e-04, 2.75125840e-05, 6.84772942e-07,
          -4.74326444e-05, -2.86774666e-05, -8.75740898e-06,
          -1.05725660e-04, -1.13798291e-04, -4.12727750e-05,
          2.94844613e-05, 1.13798291e-04, 1.13798291e-04, 1.13798291e-04,
          4.74326444e-05, 9.53752078e-07, -7.69171020e-05,
          -4.74326444e-05, -8.75740898e-06, -6.81596939e-05,
          -1.13798291e-04, -4.12727750e-05, 2.94844613e-05,
          1.13798291e-04, 1.13798291e-04, 1.13798291e-04, 4.74326444e-05,
          1.15428736e-06, -3.56443270e-05, -2.86774666e-05,
          -1.42326644e-06, -3.86752326e-05, -1.13798291e-04,
          -4.12727750e-05, -3.38813179e-20, 1.13798291e-04,
          1.13798291e-04, 8.43138332e-05, 2.75125840e-05, 6.84772942e-07,
          -3.22370324e-05, -2.86774666e-05, -8.75740898e-06,
          -2.72542002e-05, -1.13798291e-04, -4.12727750e-05,
          -3.38813179e-20, 6.48738860e-05, 8.43138332e-05,
          6.43937747e-05, 1.15428736e-06, -3.38813179e-20,
          -2.55586419e-05, -2.86774666e-05, -8.75740898e-06,
          -1.99200585e-05, -4.74326444e-05, -3.38813179e-20,
          -3.38813179e-20, 3.73507028e-05, 4.46848462e-05,
          -3.38813179e-20, -3.38813179e-20, -3.38813179e-20,
          -2.55586419e-05, -2.86774666e-05, -8.75740898e-06,
          -1.99200585e-05, -2.18740024e-05, -3.38813179e-20,
          -3.38813179e-20, -3.38813179e-20, -3.38813179e-20,
          -3.38813179e-20, -3.38813179e-20, -3.38813179e-20,
          -3.38813179e-20, -8.75740898e-06, -8.75740898e-06,
          -1.94399490e-05, -2.18740024e-05, -3.38813179e-20,
          -3.38813179e-20, -3.38813179e-20, -2.55586419e-05,
          2.94844613e-05, -3.38813179e-20, -3.38813179e-20,
          -3.38813179e-20, -4.74326444e-05, -8.75740898e-06,
          -6.84772942e-07, -2.18740024e-05, -3.38813179e-20,
          -3.38813179e-20, -2.55586419e-05, -3.18516300e-07,
          -4.02533124e-06, 6.71041416e-05, 4.69514362e-07,
          -3.38813179e-20, -4.74326444e-05, -8.75740898e-06,
          -6.84772942e-07, -2.18740024e-05, -3.38813179e-20,
          -3.38813179e-20, 9.72775567e-08, -2.21513437e-05,
          1.47298451e-05, 1.13798291e-04, 4.69514362e-07,
          -3.38813179e-20, -1.51956119e-05, -8.75740898e-06,
          -2.06048317e-05, -7.14415683e-06, -3.38813179e-20,
          -3.38813179e-20, 5.13584637e-05, 1.47298451e-05,
          1.47298451e-05, 7.25255159e-05, -3.38813179e-20,
          -3.38813179e-20, -4.02884871e-05, -8.75740898e-06,
          -2.79389733e-05, 2.50928733e-05, -3.38813179e-20,
          -3.38813179e-20, 2.18740024e-05, 1.47298451e-05,
          4.69668739e-05, 1.13798291e-04, 6.84772942e-07,
          -3.38813179e-20, -3.38813179e-20, -8.75740898e-06,
          -8.01891565e-06, -7.14415683e-06, -3.38813179e-20,
          -3.38813179e-20, 2.18740024e-05, 8.82396489e-05,
          4.69668739e-05, 1.13798291e-04, 6.84772942e-07,
          -3.38813179e-20, -3.38813179e-20, 2.34796225e-05,
          -1.94399490e-05, 2.50928733e-05, -3.38813179e-20,
          -3.38813179e-20, 4.74326444e-05, 7.69171020e-05,
          1.13798291e-04, 9.38782323e-05, 3.75659620e-05,
          -3.38813179e-20, -3.38813179e-20, 1.82894091e-05,
          -2.70430701e-05, 2.50928733e-05, 3.68811889e-05,
          -3.38813179e-20, 2.86774666e-05, 7.69171020e-05,
          1.13798291e-04, 9.38782323e-05, 3.75659620e-05,
          -3.38813179e-20, -3.38813179e-20, -6.68314169e-05,
          -2.18740024e-05, 6.63656538e-05, 3.68811889e-05,
          -3.38813179e-20, 2.86774666e-05, 7.69171020e-05,
          1.13798291e-04, 9.38782323e-05, 3.75659620e-05,
          -3.38813179e-20, -3.38813179e-20, -3.38813179e-20,
          -2.18740024e-05, 6.63656538e-05, 3.68811889e-05,
          -3.38813179e-20, 4.74326444e-05, 3.40729707e-06,
          4.02884871e-05, 8.15612657e-05, 3.75659620e-05,
          -3.38813179e-20, -3.38813179e-20, 1.99200585e-05,
          2.50928733e-05, 6.63656538e-05, 3.68811889e-05,
          -3.38813179e-20, 3.11882604e-06, -5.16358050e-05, 0.,
          2.55586419e-05, 5.11367216e-06, -3.38813179e-20,
          -1.23169730e-05, -4.51331562e-06, 6.63656538e-05,
          6.63656538e-05, 3.68811889e-05, -3.38813179e-20,
          -9.03110413e-05, -6.63656538e-05, 0., 0., 4.73914697e-05,
          6.18523336e-05, -2.36347478e-05, -9.53752078e-07,
          6.63656538e-05, 6.63656538e-05, 3.68811889e-05, 6.84772942e-07,
          -8.53898018e-05, -6.63656538e-05, -3.68811889e-05, 0.,
          -6.84772942e-07, -6.84772942e-07, -6.84772942e-07,
          -6.84772942e-07, 6.70504232e-05, 6.70504232e-05,
          3.75659620e-05, 5.08113271e-06, -6.63656538e-05,
          -3.68811889e-05, 0., 0., 0., -6.84772942e-07, -6.84772942e-07,
          -6.84772942e-07 ]
      - [ 0., -4.55925583e-05, -4.55925583e-05, -4.55925583e-05,
          2.82201381e-05, 1.75902620e-04, 1.34093934e-04, 5.77406172e-05,
          -3.43634238e-05, -8.63214082e-05, -8.23921873e-05, 0.,
          -4.55925583e-05, -4.55925583e-05, -4.55925583e-05,
          -1.73724202e-05, 1.30310058e-04, 1.34093934e-04,
          1.34093934e-04, 5.38113891e-05, -3.43634238e-05,
          -8.63214082e-05, -8.23921873e-05, 0., -2.17997126e-06,
          -1.55465968e-04, -8.65026377e-05, 6.92899121e-05,
          1.75902620e-04, 1.32365254e-04, 1.26256055e-04,
          -2.85807964e-05, -7.99559784e-05, -1.31913970e-04,
          -1.27984735e-04, 0., -7.48024759e-05, -1.55465968e-04,
          -3.23646782e-05, 6.53606839e-05, 1.74173925e-04,
          1.28436033e-04, 1.26256055e-04, 1.32278801e-05,
          -7.99559784e-05, -1.31913970e-04, -4.55925583e-05,
          -4.55925583e-05, -2.92099194e-05, -1.97274654e-04,
          -5.37367123e-05, 4.18086747e-05, 1.28436033e-04,
          1.28436033e-04, 6.69645888e-05, 1.32278801e-05,
          -5.17358421e-05, -1.26256055e-04, -4.55925583e-05,
          -4.55925583e-05, -7.10185923e-05, -1.97274654e-04,
          2.71050543e-20, 2.71050543e-20, 2.17997126e-06, 4.77725298e-05,
          2.13720341e-05, 6.31807125e-05, -3.06359907e-05,
          -4.55925583e-05, 0., 0., -7.10185923e-05, -1.51682092e-04,
          -9.55453870e-05, 2.71050543e-20, 2.17997126e-06,
          2.17997126e-06, 2.13720341e-05, 6.31807125e-05,
          -2.45267911e-05, -4.55925583e-05, 0., 0., -1.51682092e-04,
          -1.51682092e-04, -9.55453870e-05, 2.71050543e-20,
          2.71050543e-20, 2.13720341e-05, 2.13720341e-05, 6.31807125e-05,
          5.61367051e-05, 0., 0., 0., -7.10185923e-05, -1.51682092e-04,
          -9.55453870e-05, 2.71050543e-20, 2.71050543e-20,
          2.13720341e-05, 6.31807125e-05, 6.31807125e-05, 5.61367051e-05,
          0., 0., 0., -2.92099194e-05, -1.51682092e-04, -9.55453870e-05,
          2.71050543e-20, 2.71050543e-20, 2.13720341e-05, 6.31807125e-05,
          6.88386208e-05, 5.61367051e-05, 0., 0., 0., -2.70299479e-05,
          -1.51682092e-04, 2.71050543e-20, 2.71050543e-20,
          2.13720341e-05, 6.31807125e-05, 6.88386208e-05, 6.88386208e-05,
          1.01729260e-04, 8.23580995e-05, 0., 0., -2.70299479e-05,
          -1.51682092e-04, 2.71050543e-20, 2.71050543e-20,
          2.13720341e-05, 6.31807125e-05, 6.88386208e-05, 6.88386208e-05,
          1.01729260e-04, 7.35091235e-05, 0., 0., -2.70299479e-05,
          -1.51682092e-04, 2.71050543e-20, 2.71050543e-20,
          2.13720341e-05, 6.31807125e-05, 6.88386208e-05, 6.88386208e-05,
          1.01729260e-04, 7.35091235e-05, 0., 0., -2.70299479e-05,
          -1.23461956e-04, 2.71050543e-20, 2.71050543e-20,
          2.13720341e-05, 2.13720341e-05, 6.49094000e-05, 6.88386208e-05,
          5.61367051e-05, 1.01729260e-04, 0., 0., -7.26225044e-05,
          -8.83910179e-05, 2.71050543e-20, 2.71050543e-20,
          2.13720341e-05, -6.84810357e-06, 2.13720341e-05,
          6.88386208e-05, 6.88386208e-05, 1.01729260e-04, 0., 0.,
          -7.08938169e-05, -4.65823396e-05, 2.71050543e-20,
          2.71050543e-20, -6.84810357e-06, -2.62192698e-05,
          -2.62192698e-05, 6.49094000e-05, 6.88386208e-05,
          1.01729260e-04, 0., 0., -2.70299479e-05, -8.83910179e-05,
          2.71050543e-20, 2.71050543e-20, -2.62192698e-05,
          -2.62192698e-05, -2.62192698e-05, 2.13720341e-05,
          6.88386208e-05, 2.10657654e-05, 1.93711658e-05, 0.,
          -2.70299479e-05, -7.31078762e-05, 2.71050543e-20,
          2.71050543e-20, -2.82201381e-05, -2.62192698e-05,
          -2.62192698e-05, 2.13720341e-05, 2.70299479e-05,
          1.16611154e-04, 1.93711658e-05, 0., -2.31007216e-05,
          -5.37367123e-05, 2.71050543e-20, 2.71050543e-20,
          -2.82201381e-05, -2.62192698e-05, -6.84810357e-06,
          2.13720341e-05, 2.31007216e-05, 2.70299479e-05, 5.99205887e-05,
          0., -7.26225044e-05, -7.31078762e-05, 2.71050543e-20,
          2.71050543e-20, -2.60401666e-05, -2.60401666e-05,
          -4.66813208e-06, 2.13720341e-05, 2.13720341e-05,
          2.70299479e-05, 7.48024759e-05, -2.24375108e-05,
          -7.26225044e-05, -5.37367123e-05, 2.71050543e-20,
          2.71050543e-20, 2.17997126e-06, 4.77725298e-05, 1.04215505e-04,
          2.13720341e-05, 2.13720341e-05, 2.13720341e-05, 7.26225044e-05,
          3.17004487e-05, -7.26225044e-05, 1.22472178e-04,
          2.71050543e-20, 2.71050543e-20, 2.17997126e-06, 1.28436033e-04,
          1.70244704e-04, 1.46024177e-04, 2.13720341e-05, 2.13720341e-05,
          2.53012622e-05, -4.89630474e-05, -4.04731400e-05,
          4.18086747e-05, 4.18086747e-05, 2.71050543e-20, 4.77725298e-05,
          1.28436033e-04, 1.70244704e-04, 1.91616738e-04, 6.31807125e-05,
          2.13720341e-05, 2.13720341e-05, -2.24715968e-05,
          -4.44023681e-05, 4.18086747e-05, 4.18086747e-05,
          2.71050543e-20, 4.77725298e-05, 1.09064858e-04, 1.50873544e-04,
          1.05280982e-04, 6.31807125e-05, 6.31807125e-05, 6.31807125e-05,
          1.10953239e-04, -5.15567408e-05, 4.18086747e-05,
          4.18086747e-05, 2.71050543e-20, -7.81729686e-05,
          -1.07714368e-05, -2.70299479e-05, -7.94733060e-05,
          4.38095449e-05, 6.31807125e-05, 4.38095449e-05, 4.38095449e-05,
          8.95812045e-05, 4.18086747e-05, 4.18086747e-05, 2.71050543e-20,
          -7.61721021e-05, -6.31807125e-05, -2.13720341e-05,
          -1.07693442e-04, -1.03284156e-05, 4.38095449e-05,
          -1.03284156e-05, -3.85485546e-05, 8.95812045e-05,
          8.74012330e-05, 8.74012330e-05, 6.69645888e-05,
          -4.79178743e-05, -4.18086747e-05, 0., 0., -5.12504703e-05,
          -5.34304418e-05, -5.34304418e-05, -4.77725298e-05,
          8.95812045e-05, 8.74012330e-05, 8.74012330e-05,
          -3.02753961e-05, -4.57379028e-05, 0., 0., 0., 0.,
          -4.55925583e-05, -4.55925583e-05, -4.55925583e-05 ]
      - [ -1.20680061e-05, -1.20680061e-05, -5.68954092e-05,
          -4.48274041e-05, -1.60537422e-06, 8.21602589e-05,
          8.21602589e-05, 4.76158602e-05, 0., 0., 0., 0.,
          -1.20680061e-05, -1.20680061e-05, -8.21602589e-05,
          -2.68702242e-05, 1.20680061e-05, 8.21602589e-05,
          8.21602589e-05, 4.76158602e-05, 0., 0., 0., 0.,
          -1.20680061e-05, -8.21602589e-05, -3.45443987e-05,
          1.20680061e-05, 1.20680061e-05, 8.21602589e-05, 8.21602589e-05,
          4.76158602e-05, 0., 0., 0., 0., -1.20680061e-05,
          -3.73328548e-05, -3.45443987e-05, 1.20680061e-05,
          3.73328548e-05, 8.21602589e-05, 8.21602589e-05, 4.76158602e-05,
          0., 0., 0., 0., -1.20680061e-05, -3.73328548e-05,
          -3.45443987e-05, -1.35525272e-20, 3.73328548e-05,
          8.21602589e-05, 8.21602589e-05, 4.76158602e-05, 4.32220295e-05,
          0., 0., 0., -1.20680061e-05, -8.21602589e-05, -1.35525272e-20,
          -1.35525272e-20, 3.73328548e-05, 8.21602589e-05,
          8.21602589e-05, 8.21602589e-05, 4.76158602e-05, 0., 0., 0.,
          -3.73328548e-05, -3.73328548e-05, -3.45443987e-05,
          -1.35525272e-20, 3.73328548e-05, 8.21602589e-05,
          8.21602589e-05, 8.21602589e-05, 4.76158602e-05, 0., 0., 0.,
          -1.20680061e-05, -8.21602589e-05, -3.45443987e-05,
          -1.35525272e-20, 3.73328548e-05, 8.21602589e-05,
          8.21602589e-05, 8.21602589e-05, 4.76158602e-05, 0., 0., 0.,
          -1.20680061e-05, -8.21602589e-05, -3.45443987e-05,
          -1.35525272e-20, 1.20680061e-05, 8.21602589e-05,
          8.21602589e-05, 8.21602589e-05, 4.76158602e-05, 0., 0., 0., 0.,
          -8.21602589e-05, -3.45443987e-05, -1.35525272e-20,
          3.73328548e-05, 8.21602589e-05, 8.21602589e-05, 8.21602589e-05,
          4.76158602e-05, 0., 0., 0., -2.52648497e-05, -8.21602589e-05,
          -1.35525272e-20, -1.35525272e-20, 3.73328548e-05,
          8.21602589e-05, 8.21602589e-05, 8.21602589e-05, 4.76158602e-05,
          4.32220295e-05, 0., 0., -2.52648497e-05, -8.21602589e-05,
          -1.35525272e-20, -1.35525272e-20, 2.52648497e-05,
          8.21602589e-05, 8.21602589e-05, 8.21602589e-05, 4.76158602e-05,
          4.39383348e-06, 0., 0., -2.52648497e-05, -7.00922537e-05,
          -1.35525272e-20, -1.35525272e-20, 2.52648497e-05,
          8.21602589e-05, 8.21602589e-05, 8.21602589e-05, 4.76158602e-05,
          4.39383348e-06, 0., 0., -2.52648497e-05, -3.89382294e-05,
          -1.35525272e-20, -1.35525272e-20, 2.52648497e-05,
          8.21602589e-05, 8.21602589e-05, 8.21602589e-05, 4.76158602e-05,
          4.76158602e-05, 0., 0., -2.52648497e-05, -2.68702242e-05,
          -1.35525272e-20, -1.35525272e-20, 2.52648497e-05,
          3.89382294e-05, 8.21602589e-05, 8.21602589e-05, 8.21602589e-05,
          4.76158602e-05, 0., 0., -2.52648497e-05, -2.68702242e-05,
          -1.35525272e-20, -1.35525272e-20, 2.68702242e-05,
          3.45443987e-05, 3.45443987e-05, 8.21602589e-05, 8.21602589e-05,
          4.76158602e-05, 0., 0., 0., -2.68702242e-05, -1.35525272e-20,
          -1.35525272e-20, 2.24763899e-05, 3.45443987e-05,
          3.45443987e-05, 8.21602589e-05, 8.21602589e-05, 4.76158602e-05,
          4.39383348e-06, 0., 0., -2.68702242e-05, -1.35525272e-20,
          -1.35525272e-20, 2.68702242e-05, 3.45443987e-05,
          3.45443987e-05, 8.21602589e-05, 8.21602589e-05, 8.21602589e-05,
          4.39383348e-06, 0., 0., -2.24763899e-05, -1.35525272e-20,
          -1.35525272e-20, 2.68702242e-05, 2.24763899e-05,
          3.89382294e-05, 8.21602589e-05, 8.21602589e-05, 8.21602589e-05,
          4.76158602e-05, 0., 0., -2.68702242e-05, 1.20680061e-05,
          -1.35525272e-20, 2.68702242e-05, 2.68702242e-05,
          3.89382294e-05, 8.21602589e-05, 8.21602589e-05, 5.68954092e-05,
          5.68954092e-05, -2.08710171e-05, 0., -2.24763899e-05,
          -1.35525272e-20, -1.35525272e-20, 7.00922537e-05,
          7.00922537e-05, 8.21602589e-05, 8.21602589e-05, 5.68954092e-05,
          5.68954092e-05, 4.48274041e-05, -2.08710171e-05, 0.,
          1.20680061e-05, 1.20680061e-05, -1.35525272e-20,
          4.48274041e-05, 7.00922537e-05, 5.68954092e-05, 5.68954092e-05,
          5.68954092e-05, 4.48274041e-05, -1.35525272e-20,
          -3.29390241e-05, 1.79571798e-05, 1.20680061e-05,
          1.20680061e-05, -1.35525272e-20, -1.35525272e-20,
          4.48274041e-05, -1.35525272e-20, -1.35525272e-20,
          -1.35525272e-20, -1.35525272e-20, -1.35525272e-20,
          -9.27954716e-06, 1.79571798e-05, 1.20680061e-05,
          1.20680061e-05, -1.35525272e-20, -1.35525272e-20,
          -4.39383348e-06, -4.39383348e-06, -4.39383348e-06,
          -1.35525272e-20, 2.52648497e-05, 2.52648497e-05,
          2.52648497e-05, -2.24763899e-05, 1.20680061e-05,
          1.20680061e-05, -1.35525272e-20, -7.77664245e-05,
          -8.21602589e-05, -8.21602589e-05, -1.36733806e-05,
          2.08710171e-05, 2.52648497e-05, 2.08710171e-05, 2.08710171e-05,
          1.20680061e-05, 1.20680061e-05, 1.20680061e-05,
          -1.35525272e-20, -8.21602589e-05, -8.21602589e-05,
          -5.68954092e-05, -5.68954092e-05, 2.08710171e-05,
          2.08710171e-05, 7.77664245e-05, -1.02830063e-05,
          1.20680061e-05, 1.20680061e-05, 1.20680061e-05, 3.73328548e-05,
          -5.68954092e-05, -5.68954092e-05, -1.20680061e-05,
          -1.20680061e-05, 0., 0., 0., 0., 1.20680061e-05,
          1.20680061e-05, 3.73328548e-05, -4.04335697e-05,
          -1.20680061e-05, -1.20680061e-05, -1.20680061e-05, 0., 0., 0.,
          0., 0. ]
      - [ 0., 0., -2.59762273e-05, -2.59762273e-05, 2.36815104e-05,
          1.11962712e-04, 1.07797729e-04, 8.97719947e-05, 3.33633980e-05,
          -5.18882443e-05, 0., 0., 0., -2.59762273e-05, -2.59762273e-05,
          -2.29471766e-06, 1.11962712e-04, 1.07797729e-04,
          9.44718849e-05, 5.13578707e-05, 6.56343263e-06,
          -6.52140880e-05, 0., 0., 0., -2.59762273e-05, 3.92193833e-05,
          8.59864813e-05, 1.29022636e-04, 1.07797729e-04, 7.78644680e-05,
          5.13578707e-05, -1.94127952e-05, -1.07797729e-04,
          -2.67999658e-05, 0., 0., -6.43903477e-05, 5.77681931e-05,
          1.02222672e-04, 1.02222672e-04, 9.44718849e-05, 7.78644680e-05,
          2.45579049e-05, -1.94127952e-05, -1.07797729e-04,
          -5.27761949e-05, 0., -5.50215373e-05, -1.07797729e-04,
          2.74665877e-06, 6.38085476e-05, 8.88968279e-05, 8.88968279e-05,
          5.10645041e-05, 2.45579049e-05, 4.26871475e-06,
          -6.47615743e-05, -5.27761949e-05, 0., -1.02222672e-04,
          -1.29022636e-04, -4.30361579e-05, 6.38085476e-05,
          8.88968279e-05, 8.88968279e-05, 5.10645041e-05,
          -4.74338450e-20, 4.57828137e-05, -4.81541610e-05,
          -5.27761949e-05, -2.59762273e-05, -1.02222672e-04,
          -1.29022636e-04, -4.44544785e-05, 6.38085476e-05,
          8.88968279e-05, 8.88968279e-05, 2.50882786e-05,
          -4.74338450e-20, -1.41832186e-06, -9.11903189e-05,
          -5.27761949e-05, -2.59762273e-05, -1.02222672e-04,
          -1.29022636e-04, -4.44544785e-05, 4.72011379e-05,
          6.38085476e-05, 8.88968279e-05, -4.74338450e-20,
          -4.74338450e-20, -1.41832186e-06, -1.07797729e-04,
          -5.27761949e-05, -2.59762273e-05, -5.50215373e-05,
          -1.29022636e-04, -4.44544785e-05, -4.74338450e-20,
          6.38085476e-05, 1.66074133e-05, -4.74338450e-20,
          -4.74338450e-20, -1.41832186e-06, -9.11903189e-05,
          -7.78644680e-05, 0., -5.50215373e-05, -1.29022636e-04,
          -4.44544785e-05, -4.74338450e-20, -4.74338450e-20,
          -4.74338450e-20, -4.74338450e-20, -4.74338450e-20,
          -1.41832186e-06, -6.47615743e-05, -5.27761949e-05, 0.,
          -2.99332587e-05, -1.29022636e-04, -4.30361579e-05,
          -4.74338450e-20, -4.74338450e-20, 1.33258454e-05,
          1.33258454e-05, 1.33258454e-05, -1.41832186e-06,
          4.26871475e-06, -5.27761949e-05, 0., -5.50215373e-05,
          -1.54998866e-04, -4.30361579e-05, -4.74338450e-20,
          1.33258454e-05, 1.33258454e-05, 1.33258454e-05, 1.33258454e-05,
          -1.41832186e-06, -2.50998310e-05, -7.78644680e-05, 0.,
          -1.33258454e-05, -1.07797729e-04, -4.74338450e-20,
          1.33258454e-05, 1.33258454e-05, 4.01258112e-05, 4.01258112e-05,
          1.33258454e-05, -1.41832186e-06, -2.50998310e-05,
          -5.27761949e-05, -2.59762273e-05, -2.99332587e-05,
          -8.41162182e-05, -4.74338450e-20, 1.33258454e-05,
          4.01258112e-05, 4.01258112e-05, 4.01258112e-05, 4.01258112e-05,
          -1.41832186e-06, -1.41832186e-06, -9.11903189e-05, 0.,
          -1.33258454e-05, -8.41162182e-05, -4.74338450e-20,
          -4.74338450e-20, 4.01258112e-05, 1.64443009e-05,
          4.01258112e-05, 4.01258112e-05, -4.74338450e-20,
          -1.41832186e-06, -6.61020385e-05, -2.67999658e-05,
          -3.93020746e-05, -8.41162182e-05, -4.74338450e-20,
          1.33258454e-05, 1.64443009e-05, -2.50697994e-05,
          -6.81059537e-05, 4.01258112e-05, -4.74338450e-20,
          -1.41832186e-06, -1.38391450e-04, -2.67999658e-05,
          -3.93020746e-05, -8.41162182e-05, -4.74338450e-20,
          -4.74338450e-20, -2.50697994e-05, -6.81059537e-05,
          -6.81059537e-05, 4.01258112e-05, -4.74338450e-20,
          -1.41832186e-06, -9.68773529e-05, -2.67999658e-05,
          -2.59762273e-05, -3.87674409e-05, 4.72011379e-05,
          -4.74338450e-20, 1.64443009e-05, -6.81059537e-05,
          -5.14985441e-05, 6.08982045e-05, -4.74338450e-20,
          -4.74338450e-20, -5.38411987e-05, -7.40011019e-05,
          -2.59762273e-05, 2.74665877e-06, 4.72011379e-05,
          -4.74338450e-20, 1.64443009e-05, -2.55223149e-05,
          6.31929215e-05, 1.03934362e-04, 4.72011379e-05,
          -4.74338450e-20, -1.41832186e-06, -8.73269455e-05,
          -2.59762273e-05, -3.87674409e-05, 4.72011379e-05,
          -4.74338450e-20, 5.90279415e-05, 5.90279415e-05,
          6.31929215e-05, 1.29910593e-04, 4.72011379e-05,
          -4.74338450e-20, -4.74338450e-20, -4.58128488e-05,
          -5.27761949e-05, 2.74665877e-06, 4.72011379e-05,
          -4.74338450e-20, 1.07797729e-04, 1.54998866e-04,
          1.54998866e-04, 1.29910593e-04, 4.72011379e-05,
          -4.74338450e-20, -4.74338450e-20, -4.21597615e-05,
          -5.27761949e-05, 4.16498096e-06, 4.72011379e-05,
          -4.74338450e-20, 1.07797729e-04, 1.54998866e-04,
          1.54998866e-04, 1.54998866e-04, 4.72011379e-05,
          -4.74338450e-20, -4.74338450e-20, -6.81359888e-05,
          -2.90946846e-05, 4.72011379e-05, 4.72011379e-05,
          -4.74338450e-20, 1.07797729e-04, 1.07797729e-04,
          1.54998866e-04, 1.29910593e-04, 4.72011379e-05, 4.72011379e-05,
          -4.74338450e-20, -1.41832186e-06, -3.11845633e-06,
          4.72011379e-05, 4.72011379e-05, -4.74338450e-20,
          7.78644680e-05, 2.32474722e-05, 7.04486083e-05, 1.13484763e-04,
          4.72011379e-05, 4.72011379e-05, 4.72011379e-05, 4.72011379e-05,
          8.37444240e-05, 7.31773616e-05, 7.31773616e-05, 2.59762273e-05,
          5.27646407e-05, -1.85235899e-06, -4.72011379e-05,
          2.36815104e-05, 2.22944491e-05, 6.38085476e-05, 2.22944491e-05,
          7.41826952e-05, 1.28198895e-04, 7.31773616e-05, 7.31773616e-05,
          7.31773616e-05, -5.85855814e-05, -4.72011379e-05, 0., 0.,
          4.21597615e-05, 7.41826952e-05, -1.42022409e-05,
          -2.45579049e-05, 1.28198895e-04, 7.31773616e-05,
          7.31773616e-05, 7.31773616e-05, -7.71343985e-05,
          -4.72011379e-05, 0., 0., 0., -2.59762273e-05, -2.59762273e-05,
          -2.59762273e-05, 1.28198895e-04, 8.97847785e-05,
          7.31773616e-05, 2.95287209e-05, -4.72011379e-05, 0., 0., 0.,
          0., -2.59762273e-05, -2.59762273e-05, -2.59762273e-05 ]
      - [ 0., 0., -4.32182314e-05, -4.32182314e-05, 1.55732323e-05,
          1.22660465e-04, 6.49775684e-05, 5.28576747e-05, 3.10235737e-05,
          -5.55195438e-05, -5.37607484e-05, -3.80509800e-06, 0.,
          -3.37602032e-05, -4.32182314e-05, -1.81869727e-05,
          7.94422303e-05, 1.05852327e-04, 6.49775684e-05, 4.22460762e-05,
          3.10235737e-05, -5.55195438e-05, -5.37607484e-05,
          -3.80509800e-06, -3.37602032e-05, -4.81769021e-05,
          -3.30882494e-06, 6.67843269e-05, 1.12167065e-04,
          1.05852327e-04, 6.49775684e-05, 4.22460762e-05,
          -5.62845662e-06, -5.55195438e-05, -4.64181066e-05,
          -3.80509800e-06, -1.35692797e-04, -1.48955922e-04,
          4.68823919e-06, 9.30797905e-05, 1.03314262e-04, 1.05852327e-04,
          6.49775684e-05, 4.22460762e-05, -5.62845662e-06,
          -6.49775684e-05, -5.58761349e-05, -2.21159298e-05,
          -1.10188514e-04, -1.56298571e-04, -4.57580063e-05,
          9.13209951e-05, 1.43035446e-04, 1.05852327e-04, 6.49775684e-05,
          4.22460762e-05, 5.60548324e-05, -7.22142140e-05,
          -6.32187730e-05, -4.70233317e-05, -1.10188514e-04,
          -1.56298571e-04, -3.36381054e-05, 5.04462441e-05,
          1.00422432e-04, 1.46840539e-04, 6.49775684e-05, 5.43659735e-05,
          5.15894717e-05, -7.22142140e-05, -5.58761349e-05,
          -4.70233317e-05, -1.09275235e-04, -1.56298571e-04,
          -4.57580063e-05, -1.35525272e-20, 5.95476813e-05,
          1.05052517e-04, 6.49775684e-05, 5.43659735e-05, 1.14322836e-06,
          -1.05852327e-04, -5.58761349e-05, -1.32631267e-05,
          -1.09275235e-04, -1.46840539e-04, -4.57580063e-05,
          -1.35525272e-20, 5.04462441e-05, 6.84004845e-05,
          6.49775684e-05, 2.94585716e-05, 2.29955248e-07,
          -9.63942948e-05, -5.58761349e-05, -1.32631267e-05,
          -5.88289913e-05, -1.46840539e-04, -4.57580063e-05,
          -1.35525272e-20, 5.04462441e-05, 6.84004845e-05,
          8.07503384e-05, 1.96924957e-05, 2.29955248e-07,
          -1.05852327e-04, -6.32187730e-05, -4.70233317e-05,
          -5.88289913e-05, -1.56298571e-04, -4.57580063e-05,
          -1.35525272e-20, -1.35525272e-20, 5.04462441e-05,
          5.33380698e-05, 2.89182481e-06, -9.22807340e-06,
          -7.22142140e-05, -5.58761349e-05, -4.70233317e-05,
          -1.79542403e-05, -1.46840539e-04, -3.36381054e-05,
          -1.35525272e-20, -1.35525272e-20, -1.35525272e-20,
          2.89182481e-06, -1.35525272e-20, -1.21198982e-05,
          9.03150158e-06, -5.58761349e-05, -4.41315060e-05,
          -1.79542403e-05, -1.46840539e-04, -3.36381054e-05,
          -1.35525272e-20, -1.35525272e-20, -1.35525272e-20,
          -1.35525272e-20, -1.35525272e-20, -1.21198982e-05,
          1.32950854e-05, -5.58761349e-05, -4.70233317e-05,
          -1.71087177e-05, -9.63942948e-05, -1.35525272e-20,
          -1.35525272e-20, -1.35525272e-20, -1.35525272e-20,
          -1.35525272e-20, -1.35525272e-20, -1.21198982e-05,
          -3.71511596e-05, -5.58761349e-05, -4.70233317e-05,
          -1.61954449e-05, -1.31267312e-04, -1.35525272e-20,
          -1.35525272e-20, -1.35525272e-20, -1.35525272e-20,
          -1.35525272e-20, -1.35525272e-20, -1.21198982e-05,
          -1.21198982e-05, -5.76349303e-05, -4.70233317e-05,
          -1.61954449e-05, -8.08210607e-05, -1.35525272e-20,
          -1.35525272e-20, -1.35525272e-20, -2.50312605e-05,
          -1.35525272e-20, -1.35525272e-20, -1.35525272e-20,
          -1.21198982e-05, -5.76349303e-05, -1.32631267e-05,
          -1.61954449e-05, -8.08210607e-05, -1.35525272e-20,
          -1.35525272e-20, -2.50312605e-05, -5.43261049e-05,
          -8.79642103e-05, -1.35525272e-20, -1.35525272e-20,
          -1.21198982e-05, -5.76349303e-05, -1.32631267e-05,
          -1.61954449e-05, -8.08210607e-05, -1.35525272e-20,
          -1.35525272e-20, -5.14342792e-05, -8.50723882e-05,
          -8.79642103e-05, -1.35525272e-20, -1.35525272e-20,
          -1.21198982e-05, -8.59008796e-05, -1.03713019e-05,
          -2.56534731e-05, -2.46066047e-05, -1.35525272e-20,
          -1.35525272e-20, -2.21394348e-05, -7.56143563e-05,
          -7.85061857e-05, -3.36381054e-05, -1.35525272e-20,
          -1.35525272e-20, -5.22627706e-05, -9.13273141e-07,
          -6.23055021e-05, 4.68823919e-06, 5.04462441e-05,
          -1.35525272e-20, -3.27192197e-06, 1.83787070e-05,
          4.50014813e-05, 4.08747510e-05, -1.35525272e-20,
          -1.35525272e-20, -1.21198982e-05, -3.80509800e-06,
          -2.85452988e-05, -2.28478093e-05, 5.04462441e-05,
          -1.35525272e-20, 6.18610648e-06, 9.75071016e-05,
          4.76735513e-05, 9.13209951e-05, -1.35525272e-20,
          -1.35525272e-20, -1.35525272e-20, 2.54897459e-05,
          -6.23055021e-05, 4.55629925e-05, 5.04462441e-05,
          7.34264268e-06, 1.05852327e-04, 1.05852327e-04, 1.13685564e-04,
          9.13209951e-05, -1.35525272e-20, -1.35525272e-20,
          -1.35525272e-20, -2.02283900e-05, -6.32187730e-05,
          5.76828897e-05, 5.04462441e-05, 7.34264268e-06, 1.05852327e-04,
          1.05852327e-04, 1.47445768e-04, 9.13209951e-05,
          -1.35525272e-20, -1.35525272e-20, -1.35525272e-20,
          -7.07892686e-05, -3.72742434e-05, 9.13209951e-05,
          5.04462441e-05, 5.77888859e-05, 5.37607484e-05, 1.05852327e-04,
          1.47445768e-04, 9.22342733e-05, 5.04462441e-05,
          -1.35525272e-20, -1.35525272e-20, -1.21198982e-05,
          -2.87294861e-05, 9.13209951e-05, 5.04462441e-05,
          7.34264268e-06, 6.32187730e-05, 4.29193751e-05, 9.33656193e-05,
          7.97400935e-05, 5.04462441e-05, -1.35525272e-20,
          -1.35525272e-20, -1.35525272e-20, 5.67798161e-05,
          1.00779027e-04, 5.99042723e-05, 6.72469178e-05, 2.60676170e-05,
          5.76821503e-06, -5.04462441e-05, -2.04735716e-05,
          6.20261562e-05, -1.35525272e-20, -2.92948444e-05,
          2.11513998e-05, 1.02537822e-04, 1.00779027e-04, 5.99042723e-05,
          6.72469178e-05, -4.57181341e-05, -5.04462441e-05,
          -5.04462441e-05, -3.37602032e-05, 2.37659351e-05,
          6.20261562e-05, -1.72148157e-05, -3.93542505e-05,
          1.02537822e-04, 1.00779027e-04, 5.99042723e-05, 5.99042723e-05,
          -9.30797905e-05, -5.04462441e-05, -5.04462441e-05, 0.,
          -4.32182314e-05, -4.32182314e-05, -4.32182314e-05,
          -4.32182314e-05, 1.11390626e-04, 1.02537822e-04,
          5.99042723e-05, -2.61187033e-05, -9.13209951e-05,
          -5.04462441e-05, -5.04462441e-05, 0., 0., -4.32182314e-05,
          -4.32182314e-05, -9.45802822e-06 ]
      - [ 0., -5.42686212e-06, -2.60122888e-05, -3.35665172e-05,
          -6.14943383e-06, 3.78105142e-05, 5.31058577e-05,
          4.03387130e-05, -2.12802411e-06, -7.55422707e-06,
          -3.46477973e-05, -2.70935707e-05, 0., -2.60122888e-05,
          -3.35665172e-05, -3.21617226e-05, 1.17982245e-05,
          5.31058577e-05, 5.31058577e-05, 4.03387130e-05,
          -2.92215955e-05, -5.96245191e-05, -7.55422707e-06,
          -7.55422707e-06, 0., -1.29810896e-05, -1.60765012e-05,
          1.17982245e-05, 2.70935707e-05, 2.70935707e-05,
          -1.35525272e-20, -1.27671474e-05, -2.12802411e-06,
          -3.25309484e-05, -7.55422707e-06, -7.55422707e-06,
          -2.49767218e-05, -3.79578123e-05, -2.80624936e-05,
          2.70935707e-05, -1.35525272e-20, 7.55422707e-06,
          3.25309484e-05, -5.21292077e-06, -7.55488645e-06,
          -3.25309484e-05, -3.25309484e-05, -7.55422707e-06,
          -5.20702924e-05, -8.56368060e-05, -2.80624936e-05,
          -1.35525272e-20, 3.25309484e-05, 3.25309484e-05,
          3.25309484e-05, 1.97638019e-05, -2.12981413e-05,
          -4.32478919e-05, -5.31163751e-05, -3.25309484e-05,
          -5.20702924e-05, -8.02099457e-05, -1.52953471e-05,
          -1.35525272e-20, 3.25309484e-05, 3.79578123e-05,
          5.85432390e-05, 3.79578123e-05, -5.21292077e-06,
          -4.32478919e-05, -5.85432390e-05, -5.31163751e-05,
          -5.20702924e-05, -5.96245191e-05, -2.80624936e-05,
          -1.35525272e-20, 3.79578123e-05, 5.85432390e-05,
          8.56368060e-05, 5.85432390e-05, -5.21292077e-06,
          -8.56368060e-05, -5.85432390e-05, -5.31163751e-05,
          -2.49767218e-05, -6.50513830e-05, -2.80624936e-05,
          -1.35525272e-20, 6.50513830e-05, 8.56368060e-05,
          8.56368060e-05, 8.56368060e-05, -5.21292077e-06,
          -8.56368060e-05, -8.56368060e-05, -5.85432390e-05,
          -2.70935707e-05, -6.50513830e-05, -2.80624936e-05,
          2.70935707e-05, 5.31058577e-05, 8.56368060e-05, 8.56368060e-05,
          8.56368060e-05, 1.53725050e-05, -8.56368060e-05,
          -5.85432390e-05, -5.85432390e-05, -2.70935707e-05,
          -4.00746612e-05, -2.80624936e-05, 2.70935707e-05,
          6.06600879e-05, 8.56368060e-05, 8.56368060e-05, 8.56368060e-05,
          3.82218641e-05, -7.03414626e-05, -8.56368060e-05,
          -5.85432390e-05, -2.70935707e-05, -4.00746612e-05,
          -1.52953471e-05, 2.70935707e-05, 6.06600879e-05,
          8.56368060e-05, 8.56368060e-05, 8.56368060e-05, 3.82218641e-05,
          -2.88523679e-05, -8.56368060e-05, -5.85432390e-05,
          -2.70935707e-05, -6.06600879e-05, -1.52953471e-05,
          2.70935707e-05, 5.31058577e-05, 6.06600879e-05, 8.56368060e-05,
          7.80825794e-05, 1.32451405e-05, -3.91486610e-05,
          -8.56368060e-05, -5.09890087e-05, -2.70935707e-05,
          -5.52332240e-05, -1.35525272e-20, 2.70935707e-05,
          3.25204346e-05, 5.31058577e-05, 5.31058577e-05, 2.60122888e-05,
          -1.27671474e-05, -3.91486610e-05, -7.80825794e-05,
          -2.60122888e-05, -2.70935707e-05, -2.88517094e-05,
          -1.35525272e-20, -1.35525272e-20, 2.70935707e-05,
          2.70935707e-05, 5.31058577e-05, 2.60122888e-05,
          -1.27671474e-05, -1.27671474e-05, -2.60122888e-05,
          -5.42686212e-06, 0., -3.42785715e-05, -1.35525272e-20,
          -1.35525272e-20, 2.70935707e-05, 7.12055964e-07,
          -1.35525272e-20, 7.55422707e-06, 7.55422707e-06,
          1.97638019e-05, -2.60122888e-05, -5.42686212e-06, 0.,
          -3.42785715e-05, 2.49767218e-05, -1.35525272e-20,
          -2.63815145e-05, -3.49125075e-05, -5.02078547e-05,
          7.55422707e-06, 5.96245191e-05, 4.68573708e-05,
          -2.60122888e-05, -5.42686212e-06, 0., -3.42785715e-05,
          2.49767218e-05, -1.35525272e-20, -1.43270818e-05,
          -2.96224280e-05, -2.31142840e-05, 5.96245191e-05,
          5.96245191e-05, 4.68573708e-05, 1.06583584e-05,
          -5.42686212e-06, 0., -1.91709933e-05, 2.49767218e-05,
          -1.35525272e-20, 1.75813864e-06, 2.89800437e-06,
          -1.76874219e-05, 4.43291719e-05, 5.96245191e-05,
          8.56368060e-05, 3.13805685e-05, 0., -1.29810896e-05,
          -3.08577251e-06, 2.49767218e-05, 2.49767218e-05,
          2.88517094e-05, 2.89800437e-06, 1.89832244e-05, 8.56368060e-05,
          8.56368060e-05, 8.56368060e-05, 7.28696614e-05, 0.,
          -3.35665172e-05, -1.91709933e-05, 2.49767218e-05,
          2.49767218e-05, 2.88517094e-05, 3.42785715e-05, 1.89832244e-05,
          6.06600879e-05, 8.56368060e-05, 8.56368060e-05, 8.56368060e-05,
          1.60852214e-05, -3.35665172e-05, -3.08577251e-06,
          2.49767218e-05, 2.49767218e-05, 2.05854267e-05, 6.06600879e-05,
          6.06600879e-05, 6.06600879e-05, 8.56368060e-05, 8.56368060e-05,
          8.56368060e-05, 3.11927979e-05, -3.35665172e-05,
          9.68137556e-06, 2.49767218e-05, 2.49767218e-05, 2.05854267e-05,
          6.06600879e-05, 6.06600879e-05, 6.06600879e-05, 8.56368060e-05,
          8.56368060e-05, 8.56368060e-05, 3.11927979e-05,
          -7.18500087e-06, 2.49767218e-05, 2.49767218e-05,
          2.49767218e-05, 2.81396533e-05, 6.06600879e-05, 6.06600879e-05,
          6.06600879e-05, 8.56368060e-05, 8.56368060e-05, 8.56368060e-05,
          7.28696614e-05, -7.18500087e-06, 2.49767218e-05,
          2.49767218e-05, 2.49767218e-05, 2.81396533e-05, 2.92795194e-05,
          2.92795194e-05, 4.45748665e-05, 6.06600879e-05, 8.56368060e-05,
          8.56368060e-05, 8.56368060e-05, 2.40077989e-05, 2.49767218e-05,
          2.49767218e-05, 2.49767218e-05, 6.41348561e-06,
          -9.86914347e-06, -2.49767218e-05, 1.40479301e-06,
          4.45748665e-05, 8.56368060e-05, 6.95515846e-05, 6.95515846e-05,
          5.20702924e-05, 2.49767218e-05, 2.49767218e-05, 2.49767218e-05,
          -1.19859924e-05, -2.49767218e-05, -2.49767218e-05,
          -2.49767218e-05, 2.94672864e-05, 6.95515846e-05,
          3.91486610e-05, 1.27671474e-05, 7.80825794e-05, 2.49767218e-05,
          2.49767218e-05, 2.49767218e-05, -5.42686212e-06,
          -2.49767218e-05, -2.49767218e-05, -2.49767218e-05,
          -2.49767218e-05, 0., 0., 0., 5.09890087e-05, 4.55621484e-05,
          2.49767218e-05, -1.13986573e-06, -5.42686212e-06,
          -2.49767218e-05, -2.49767218e-05, -2.49767218e-05, 0., 0., 0.,
          0. ]
      - [ 0., -1.52226221e-05, -1.52226221e-05, -3.79024168e-05,
          -1.56399146e-05, -4.03419972e-06, 1.52226221e-05,
          1.24583194e-05, -8.42620102e-06, -2.94637593e-05, 0., 0., 0.,
          -3.79024168e-05, -5.54428225e-05, -2.18700861e-05,
          -1.92568223e-05, -2.37169225e-20, -2.37169225e-20,
          1.24583194e-05, -3.11059957e-05, -6.46917033e-05, 0., 0.,
          -2.26797929e-05, -6.67530621e-05, -6.52006638e-05,
          -1.92568223e-05, -2.37169225e-20, -2.37169225e-20,
          -2.37169225e-20, -2.76430296e-06, -4.63286160e-05,
          -9.35423523e-05, -2.94637593e-05, 0., -6.40785947e-05,
          -1.08764973e-04, -2.20211241e-05, -2.37169225e-20,
          -2.37169225e-20, -2.37169225e-20, -2.37169225e-20,
          -2.76430296e-06, -4.63286160e-05, -9.35423523e-05,
          -5.33221501e-05, -2.94637593e-05, -9.35423523e-05,
          -1.08764973e-04, -2.20211241e-05, -2.37169225e-20,
          6.40785947e-05, 9.35423523e-05, 8.09941994e-05, 2.66994557e-05,
          -1.27558787e-05, -8.95081539e-05, -5.33221501e-05,
          -2.94637593e-05, -1.08764973e-04, -1.08764973e-04,
          -1.92568223e-05, 1.75404093e-05, 7.93012150e-05,
          1.08764973e-04, 1.08764973e-04, 2.94637593e-05,
          -2.76430296e-06, -8.95081539e-05, -5.59966174e-05,
          -2.94637593e-05, -1.08764973e-04, -1.08764973e-04,
          -2.20211241e-05, 2.88506453e-05, 1.08764973e-04,
          1.08764973e-04, 1.08764973e-04, 4.46863814e-05, 2.66994557e-05,
          -1.08764973e-04, -9.12245669e-05, -2.94637593e-05,
          -7.93012150e-05, -1.08764973e-04, -2.20211241e-05,
          1.75404093e-05, 1.08764973e-04, 1.08764973e-04, 1.08764973e-04,
          4.46863814e-05, 2.66994557e-05, -1.08764973e-04,
          -1.08764973e-04, -2.94637593e-05, -6.40785947e-05,
          -1.08764973e-04, -2.20211241e-05, 2.26797929e-05,
          1.08764973e-04, 1.08764973e-04, 1.08764973e-04, 7.47749436e-05,
          2.66994557e-05, -1.08764973e-04, -9.12245669e-05,
          -4.46863814e-05, -4.65381854e-05, -7.93012150e-05,
          -2.20211241e-05, -2.37169225e-20, 1.08764973e-04,
          1.08764973e-04, 1.08764973e-04, 6.22267908e-05,
          -2.76430296e-06, -8.95081539e-05, -9.12245669e-05,
          -4.46863814e-05, -2.26797929e-05, -1.08764973e-04,
          -1.92568223e-05, -2.37169225e-20, 7.93012150e-05,
          1.08764973e-04, 1.08764973e-04, 6.22267908e-05,
          -2.76430296e-06, -1.27558787e-05, -3.79024168e-05,
          -1.52226221e-05, -2.26797929e-05, -1.08764973e-04,
          -1.92568223e-05, -2.37169225e-20, 7.93012150e-05,
          1.08764973e-04, 8.60851796e-05, 4.46863814e-05,
          -2.76430296e-06, -3.63370418e-05, -1.52226221e-05,
          -1.52226221e-05, -2.26797929e-05, -1.08764973e-04,
          -2.37169225e-20, -2.37169225e-20, 1.52226221e-05,
          3.27630296e-05, 1.52226221e-05, -2.37169225e-20,
          -2.76430296e-06, 2.77415529e-05, -1.52226221e-05,
          -1.52226221e-05, 0., -7.51922344e-05, -2.37169225e-20,
          -2.37169225e-20, -2.37169225e-20, 1.52226221e-05,
          -2.37169225e-20, -2.37169225e-20, -2.76430296e-06,
          6.13142911e-05, -1.52226221e-05, 0., -2.26797929e-05,
          -7.51922344e-05, -2.37169225e-20, -2.37169225e-20,
          -2.37169225e-20, -3.35727382e-05, -2.37169225e-20,
          -2.37169225e-20, -2.37169225e-20, 6.13142911e-05, 0., 0.,
          -1.52226221e-05, -7.51922344e-05, -2.37169225e-20,
          -2.37169225e-20, -3.35727382e-05, -4.35643124e-05,
          -6.28211346e-05, -2.37169225e-20, -2.37169225e-20,
          6.13142911e-05, 0., 0., -1.52226221e-05, -7.51922344e-05,
          -2.37169225e-20, -2.37169225e-20, -2.08845195e-05,
          -2.26009324e-05, -6.28211346e-05, -2.37169225e-20,
          -2.37169225e-20, 3.51381132e-05, 9.99157601e-06, 0.,
          -1.52226221e-05, -1.44722917e-05, -2.37169225e-20,
          -2.37169225e-20, 6.64746494e-06, -2.26009324e-05,
          -4.52807253e-05, -1.92568223e-05, -2.37169225e-20,
          1.52226221e-05, 2.92483983e-05, 0., -4.46863814e-05,
          -4.48071569e-06, -2.37169225e-20, -2.37169225e-20,
          2.18700861e-05, 1.64800804e-05, -8.75629121e-06,
          -2.37169225e-20, -2.37169225e-20, -2.37169225e-20,
          5.89965020e-05, 0., -4.46863814e-05, -1.44722917e-05,
          -2.37169225e-20, -2.37169225e-20, 1.68778315e-05,
          7.51922344e-05, 5.59354157e-05, 1.75404093e-05,
          -2.37169225e-20, -2.37169225e-20, 3.79024168e-05,
          -1.94721833e-05, -4.46863814e-05, -4.48071569e-06,
          -2.37169225e-20, -2.37169225e-20, 6.79909790e-05,
          1.08764973e-04, 1.08764973e-04, 4.70041668e-05,
          -2.37169225e-20, -2.37169225e-20, 1.52226221e-05,
          1.11591989e-05, -4.46863814e-05, -1.71641284e-06,
          -2.37169225e-20, -2.37169225e-20, 5.04505697e-05,
          1.08764973e-04, 1.08764973e-04, 4.70041668e-05,
          -2.37169225e-20, -2.37169225e-20, 1.52226221e-05,
          -1.76914473e-05, -1.11136442e-05, 1.75404093e-05,
          -2.37169225e-20, -2.37169225e-20, 3.79024168e-05,
          1.08764973e-04, 1.08764973e-04, 7.08625594e-05,
          -2.37169225e-20, -2.37169225e-20, 1.52226221e-05,
          1.24583194e-05, -1.11136442e-05, 1.75404093e-05,
          -2.37169225e-20, -2.37169225e-20, 1.52226221e-05,
          7.95165761e-05, 7.95165761e-05, 6.08709815e-05, 1.75404093e-05,
          -2.37169225e-20, -2.37169225e-20, 1.52226221e-05,
          4.20574688e-05, 1.75404093e-05, -2.37169225e-20,
          -2.37169225e-20, -2.11144179e-05, 1.37157767e-05, 0.,
          1.83501161e-05, 3.70125927e-05, -2.37169225e-20,
          1.31866068e-06, 5.85531961e-05, 9.35423523e-05, 1.75404093e-05,
          -2.37169225e-20, 1.52226221e-05, -5.03628144e-05,
          -1.75404093e-05, 0., -1.52226221e-05, 1.76914473e-05,
          6.08709815e-05, 2.11144179e-05, 2.76430296e-06, 1.08764973e-04,
          4.40732692e-05, 1.52226221e-05, 1.52226221e-05,
          -5.27683551e-05, 0., 0., -1.52226221e-05, -1.52226221e-05,
          -1.52226221e-05, 0., 0., 1.08764973e-04, 4.40732692e-05,
          1.52226221e-05, -6.42939558e-05, -1.25481538e-05, 0., 0., 0.,
          -1.52226221e-05, -1.52226221e-05, 0., 0. ]
      - [ 0., 0., 0., -1.09012635e-05, -4.62444259e-05, -3.80028587e-06,
          8.72990040e-06, -6.25757821e-06, -4.30155742e-05,
          -3.84304440e-05, 0., 0., 0., -9.77774562e-07, -7.03278711e-05,
          -4.03541380e-05, -1.15952735e-05, -1.35525272e-20,
          -1.35525272e-20, -1.67390754e-05, -6.03142871e-05,
          -3.92042639e-05, -3.84304440e-05, 0., -9.77774562e-07,
          -1.18790385e-05, -3.52830575e-05, -1.15952735e-05,
          -1.35525272e-20, -1.35525272e-20, -1.35525272e-20,
          -1.67390754e-05, -6.12920630e-05, -7.89011247e-05,
          -7.71495324e-05, -1.16795354e-05, -2.99000458e-05,
          -4.89119411e-05, -2.83343488e-05, -1.35525272e-20,
          -1.35525272e-20, -1.35525272e-20, 2.17136335e-06,
          -1.45677132e-05, -6.12920630e-05, -8.76310296e-05,
          -8.66532500e-05, -4.26036349e-05, -3.57903336e-05,
          -5.67069292e-05, -2.83343488e-05, -1.35525272e-20,
          3.21203879e-05, 4.30216496e-05, 7.30108368e-05, 2.85430797e-05,
          -2.77004456e-05, -7.60357580e-05, -8.76310296e-05,
          -5.91285243e-05, -4.59667535e-05, -5.67069292e-05,
          -1.15952735e-05, -1.35525272e-20, 1.99896695e-05,
          8.76310296e-05, 8.76310296e-05, 8.76310296e-05, 1.58010771e-05,
          -4.71134845e-05, -5.87087561e-05, -5.18406923e-05,
          -3.36189696e-05, -8.76310296e-05, -2.83343488e-05,
          -1.35525272e-20, 1.99896695e-05, 8.76310296e-05,
          8.76310296e-05, 8.76310296e-05, 7.08919542e-05,
          -4.92005856e-05, -4.92005856e-05, -8.56880979e-06,
          -3.36189696e-05, -5.67069292e-05, -2.83343488e-05,
          -1.35525272e-20, 1.04859464e-05, 8.76310296e-05,
          8.76310296e-05, 8.76310296e-05, 7.08919542e-05, 0.,
          -3.87190885e-05, -7.79498714e-06, -3.36189696e-05,
          -5.45355651e-05, -2.83343488e-05, -1.35525272e-20,
          9.77774562e-07, 4.99788584e-05, 8.76310296e-05, 8.76310296e-05,
          7.08919542e-05, 0., 0., 0., -6.86806379e-06, -4.50318403e-05,
          -2.83343488e-05, -1.35525272e-20, -1.35525272e-20,
          9.77774562e-07, 8.76310296e-05, 8.76310296e-05, 7.08919542e-05,
          1.15952735e-05, 0., 0., 0., -3.72368522e-05, -1.15952735e-05,
          -1.35525272e-20, -1.35525272e-20, -1.35525272e-20,
          1.55979651e-05, 8.76310296e-05, 7.08919542e-05, 5.99305822e-05,
          0., 0., 0., -5.89028923e-06, 3.10039140e-05, -1.35525272e-20,
          -1.35525272e-20, -1.35525272e-20, -1.35525272e-20,
          4.64249315e-05, 6.72740716e-05, 3.73003386e-05, 0., 0., 0., 0.,
          6.08801201e-05, 4.25991857e-05, -1.35525272e-20,
          -1.35525272e-20, -1.35525272e-20, 8.72990040e-06,
          5.87052600e-05, 3.36824560e-05, 0., 0., 0., 3.35916156e-05,
          8.76310296e-05, 5.40120564e-05, 3.16979240e-05, 7.73822876e-07,
          -1.35525272e-20, -1.35525272e-20, 2.77811596e-05,
          5.87052600e-05, 0., 0., 0., 3.35916156e-05, 8.76310296e-05,
          8.76310296e-05, 5.18406923e-05, 9.51917809e-06, 3.61788261e-06,
          -1.35525272e-20, 2.17136335e-06, 2.18908699e-05,
          -1.21866924e-05, 0., 0., 3.35916156e-05, 8.76310296e-05,
          8.76310296e-05, 2.72885063e-05, -1.44219200e-06,
          -1.30374647e-05, -1.35525272e-20, -1.35525272e-20,
          -1.35899381e-05, -4.90010825e-05, -4.39170526e-06, 0.,
          3.35916156e-05, 8.76310296e-05, 8.76310296e-05, 4.30780419e-05,
          4.73186265e-06, -1.30374647e-05, 7.73822876e-07,
          -1.35525272e-20, -1.67390754e-05, -3.80397105e-05,
          -1.21866924e-05, 0., 4.83353106e-05, 8.76310296e-05,
          8.76310296e-05, 5.40394140e-05, 3.14827703e-05,
          -4.30756427e-06, 3.15155194e-05, -1.35525272e-20,
          -1.35525272e-20, -6.19252460e-05, -1.80769821e-05, 0.,
          2.83725785e-05, 5.67069292e-05, 8.76310296e-05, 5.40394140e-05,
          3.14827703e-05, 1.56932329e-05, 4.31107946e-05, 3.61788261e-06,
          -1.35525272e-20, -1.45677132e-05, -7.57519883e-05,
          -3.87190885e-05, 8.84239853e-06, 4.81381176e-05,
          7.90622144e-05, 5.40394140e-05, 5.40394140e-05, 4.24441387e-05,
          5.28184682e-05, 7.73822876e-07, -1.35525272e-20,
          -1.35525272e-20, -7.44982972e-05, -3.94929120e-05,
          1.10738674e-05, 4.45202350e-05, 4.45202350e-05, 8.68572024e-05,
          8.76310296e-05, 8.76310296e-05, 5.21502188e-05, 7.73822876e-07,
          -1.35525272e-20, -1.35525272e-20, -5.97546023e-05,
          -5.28184682e-05, 2.32172861e-05, 3.57903336e-05,
          4.45202350e-05, 5.59331056e-05, 8.76310296e-05, 8.76310296e-05,
          6.08801201e-05, 7.73822876e-07, -1.35525272e-20,
          -1.35525272e-20, -6.19259663e-05, -1.92268526e-05,
          -1.35525272e-20, -1.35525272e-20, 2.17136335e-06,
          1.77693273e-05, 5.67069292e-05, 5.67069292e-05, 2.40657318e-05,
          -1.35525272e-20, -1.35525272e-20, -1.35525272e-20,
          -1.67390754e-05, -2.23414900e-05, -1.35525272e-20,
          -1.35525272e-20, -1.35525272e-20, 2.17136335e-06,
          -1.37338452e-06, -8.19858724e-06, -1.01875466e-05,
          -1.35525272e-20, -1.35525272e-20, -1.35525272e-20,
          3.03687902e-05, 3.36357380e-06, -1.35525272e-20,
          -1.35525272e-20, -1.35525272e-20, -5.03306910e-05,
          -7.28873347e-05, -8.76310296e-05, -5.40394140e-05,
          -1.09613702e-05, -1.35525272e-20, -1.09613702e-05,
          2.93737703e-05, 4.82228097e-05, 4.04278253e-05,
          -1.35525272e-20, -1.35525272e-20, -7.28873347e-05,
          -8.76310296e-05, -8.76310296e-05, -8.76310296e-05,
          -2.57050633e-05, -1.09613702e-05, 2.61639161e-05,
          6.25757821e-06, 7.81228591e-05, 7.71450796e-05, 4.82228097e-05,
          9.50372305e-06, -7.89011247e-05, -8.76310296e-05,
          -8.76310296e-05, -8.76310296e-05, -8.76310296e-05,
          -4.35769616e-05, -8.72990040e-06, 0., 8.76310296e-05,
          8.76310296e-05, 7.71450796e-05, -1.68515744e-05,
          -7.81273047e-05, -7.89011247e-05, -8.76310296e-05,
          -8.40131470e-05, -5.13719497e-05, -1.09012635e-05, 0., 0. ]
      - [ 0., 0., 0., 0., 0., 6.18595295e-05, 6.75165211e-05,
          -9.34662057e-06, -2.29344205e-05, -6.64108011e-05,
          -8.25817624e-05, -8.25817624e-05, 0., -1.50652413e-05,
          -1.50652413e-05, -1.50652413e-05, 4.67942846e-05,
          3.19487553e-05, 3.19487553e-05, -2.29344205e-05,
          -4.12953741e-05, -8.25817624e-05, -8.25817624e-05,
          -8.25817624e-05, -5.06330070e-05, -5.06330070e-05,
          -5.06330070e-05, -4.55127747e-06, 1.61709577e-05,
          -2.41404390e-20, -2.41404390e-20, -4.12953741e-05,
          -4.12953741e-05, -8.25817624e-05, -8.25817624e-05,
          -6.75165211e-05, -5.06330070e-05, -6.42208033e-05,
          -4.58466529e-05, -2.41404390e-20, -2.41404390e-20,
          -2.41404390e-20, -2.41404390e-20, -4.12953741e-05,
          -4.12953741e-05, -6.75165211e-05, -1.83609554e-05, 0.,
          -8.25817624e-05, -8.25817624e-05, -6.20176070e-05,
          1.50652413e-05, -2.41404390e-20, -2.41404390e-20,
          -2.41404390e-20, -4.12953741e-05, -2.62301346e-05,
          -9.03652199e-06, 0., 0., -3.19487553e-05, -6.75165211e-05,
          -5.65699338e-06, 1.50652413e-05, 1.50652413e-05,
          -2.41404390e-20, -2.41404390e-20, -2.41404390e-20,
          -2.40401369e-05, 2.07222347e-05, 0., 0., -1.61709577e-05,
          -1.83609554e-05, 2.20319566e-06, 1.72552391e-05,
          1.50652413e-05, -2.41404390e-20, -2.41404390e-20,
          -2.41404390e-20, 4.12863847e-05, 0., 0., 0., 0., 0.,
          2.05641500e-05, 8.25817624e-05, 3.08430390e-05,
          -2.41404390e-20, -2.41404390e-20, -2.41404390e-20,
          4.12863847e-05, 0., 0., 0., 0., 0., 2.05641500e-05,
          8.25817624e-05, 3.19487553e-05, -2.41404390e-20,
          -2.41404390e-20, -2.41404390e-20, 4.12863847e-05, 0., 0., 0.,
          0., 0., 2.05641500e-05, 8.25817624e-05, 3.19487553e-05,
          -2.41404390e-20, -2.41404390e-20, -2.41404390e-20,
          4.12863847e-05, 2.07222347e-05, 0., 0., 0., 0., 6.18595295e-05,
          8.25817624e-05, 3.19487553e-05, -2.41404390e-20,
          -2.41404390e-20, -2.41404390e-20, -2.62301346e-05,
          4.12863847e-05, 0., 0., 0., 0., 6.18595295e-05, 8.25817624e-05,
          3.19487553e-05, -2.41404390e-20, -2.41404390e-20,
          -2.41404390e-20, -2.62301346e-05, 4.12863847e-05, 0., 0., 0.,
          0., 8.25817624e-05, 8.25817624e-05, 3.19487553e-05,
          -2.41404390e-20, -2.41404390e-20, -2.41404390e-20,
          -2.62301346e-05, 4.12863847e-05, 0., 0., 0., 0.,
          8.25817624e-05, 8.25817624e-05, 1.83609554e-05,
          -2.41404390e-20, -2.41404390e-20, -2.41404390e-20,
          -2.62301346e-05, 4.12863847e-05, 0., 0., 0., 0.,
          8.25817624e-05, 4.70139967e-05, 1.83609554e-05,
          -2.41404390e-20, -2.41404390e-20, -2.41404390e-20,
          1.50652413e-05, 4.12863847e-05, 0., 0., 0., 0., 8.25817624e-05,
          4.70139967e-05, 1.83609554e-05, -2.41404390e-20,
          -2.07222347e-05, -2.41404390e-20, 5.06330070e-05,
          4.12863847e-05, 0., 0., 0., 0., 8.25817624e-05, 8.25817624e-05,
          3.19487553e-05, -2.07222347e-05, -2.07222347e-05,
          -2.41404390e-20, 1.50652413e-05, 4.12863847e-05, 0., 0., 0.,
          2.05641500e-05, 8.25817624e-05, 8.25817624e-05, 3.19487553e-05,
          -2.07222347e-05, -2.07222347e-05, -2.07222347e-05,
          1.50652413e-05, 6.89939625e-05, 2.07222347e-05, 0., 0.,
          2.05641500e-05, 8.25817624e-05, 8.25817624e-05, 3.19487553e-05,
          -1.85322369e-05, -2.07222347e-05, -2.41404390e-20,
          5.06330070e-05, 8.25817624e-05, 4.12863847e-05, 0., 0.,
          2.05641500e-05, 8.25817624e-05, 8.25817624e-05, 3.19487553e-05,
          2.18999776e-06, -2.07222347e-05, -2.41404390e-20,
          5.06330070e-05, 6.68039647e-05, 8.25817624e-05, 0., 0.,
          2.05641500e-05, 8.25817624e-05, 8.25817624e-05, 3.19487553e-05,
          2.18999776e-06, -2.41404390e-20, -2.41404390e-20,
          1.50652413e-05, 5.06330070e-05, 8.25817624e-05, 2.05641500e-05,
          0., 6.18595295e-05, 8.25817624e-05, 8.25817624e-05,
          3.19487553e-05, -2.41404390e-20, -2.41404390e-20,
          -2.41404390e-20, 1.50652413e-05, 5.06330070e-05,
          8.25817624e-05, 2.05641500e-05, 0., 8.25817624e-05,
          8.25817624e-05, 4.70139967e-05, 3.19487553e-05,
          -2.41404390e-20, -2.41404390e-20, -2.41404390e-20,
          1.50652413e-05, 5.06330070e-05, 8.25817624e-05, 4.12863847e-05,
          0., 8.25817624e-05, 8.25817624e-05, 4.70139967e-05,
          3.19487553e-05, -1.85322369e-05, -2.07222347e-05,
          -2.41404390e-20, 1.50652413e-05, 5.06330070e-05,
          8.25817624e-05, 8.25817624e-05, 2.05641500e-05, 8.25817624e-05,
          8.25817624e-05, 4.70139967e-05, -9.34662057e-06,
          -6.20176070e-05, -8.25817624e-05, -8.25817624e-05,
          1.50652413e-05, 5.06330070e-05, 8.25817624e-05, 8.25817624e-05,
          8.25817624e-05, 8.25817624e-05, 8.25817624e-05, 4.70139967e-05,
          -3.00688553e-05, -8.25817624e-05, -8.25817624e-05,
          -8.25817624e-05, -5.49890956e-06, 1.50652413e-05,
          4.12953741e-05, 4.12953741e-05, 8.25817624e-05, 8.25817624e-05,
          8.25817624e-05, 4.70139967e-05, -5.06330070e-05,
          -8.25817624e-05, -8.25817624e-05, -8.25817624e-05,
          -6.75165211e-05, -3.19487553e-05, 0., 0., 8.25817624e-05,
          8.25817624e-05, 8.25817624e-05, 2.07222347e-05,
          -5.06330070e-05, -5.06330070e-05, -8.25817624e-05,
          -6.75165211e-05, -3.19487553e-05, 0., 0., 0. ]
      - [ -1.20317764e-05, -1.20317764e-05, -1.20317764e-05, 0.,
          2.57021147e-05, 4.21652112e-05, 6.71795569e-05, 3.29901777e-05,
          1.23438685e-05, -1.72061209e-05, -1.84344699e-05,
          -3.75227955e-06, -1.20317764e-05, -1.57840568e-05,
          -1.57840568e-05, 9.91805791e-06, 4.21652112e-05,
          6.71795569e-05, 3.57381286e-05, 1.83079865e-05,
          -1.90975588e-05, -3.29901777e-05, -2.09584014e-05,
          -3.75227955e-06, -1.20317764e-05, -1.57840568e-05,
          4.41536849e-06, 1.16989650e-05, 5.13955019e-05, 6.71795569e-05,
          3.29901777e-05, 1.57840568e-05, -3.48816138e-05,
          -6.71795569e-05, -3.29901777e-05, -3.75227955e-06,
          -2.67139676e-05, -3.57381286e-05, 6.42708164e-06,
          3.41893792e-05, 5.51477788e-05, 6.71795569e-05, 3.29901777e-05,
          1.57840568e-05, -3.48816138e-05, -3.57381286e-05,
          -3.04662462e-05, -1.57840568e-05, -3.19858482e-05,
          -6.71795569e-05, -2.50143457e-05, 3.41893792e-05,
          5.51477788e-05, 6.71795569e-05, 3.57381286e-05, 1.57840568e-05,
          -9.17950092e-06, -4.21652112e-05, -3.29901777e-05,
          -1.57840568e-05, -6.34272801e-05, -6.71795569e-05,
          -2.50143457e-05, 3.41893792e-05, 5.51477788e-05,
          6.71795569e-05, 3.57381286e-05, 1.57840568e-05, 3.75227955e-06,
          -4.21652112e-05, -3.29901777e-05, -1.57840568e-05,
          -6.34272801e-05, -6.71795569e-05, -2.50143457e-05,
          3.41893792e-05, 5.51477788e-05, 6.71795569e-05, 3.57381286e-05,
          1.57840568e-05, 3.75227955e-06, -6.71795569e-05,
          -3.29901777e-05, -1.84344699e-05, -5.13955019e-05,
          -6.71795569e-05, -2.50143457e-05, 3.41893792e-05,
          5.51477788e-05, 6.71795569e-05, 3.57381286e-05, 1.83079865e-05,
          3.75227955e-06, -6.71795569e-05, -3.29901777e-05,
          -1.84344699e-05, -5.13955019e-05, -6.71795569e-05,
          -2.50143457e-05, 3.14414283e-05, 5.51477788e-05,
          6.71795569e-05, 6.71795569e-05, 1.57840568e-05, 3.75227955e-06,
          -6.71795569e-05, -3.29901777e-05, -1.84344699e-05,
          -5.13955019e-05, -6.71795569e-05, -2.50143457e-05,
          2.41404390e-20, 5.51477788e-05, 6.71795569e-05, 6.71795569e-05,
          3.29901777e-05, 2.41404390e-20, -4.21652112e-05,
          -3.29901777e-05, -1.84344699e-05, -6.06793255e-05,
          -6.71795569e-05, -2.50143457e-05, 2.41404390e-20,
          5.51477788e-05, 6.71795569e-05, 6.71795569e-05, 3.57381286e-05,
          2.41404390e-20, -9.17950092e-06, -6.44316024e-05,
          -3.75227955e-06, -4.34732028e-05, -6.71795569e-05,
          -2.50143457e-05, 2.41404390e-20, 6.71795569e-05,
          6.71795569e-05, 6.71795569e-05, 3.57381286e-05, 2.41404390e-20,
          -2.57021147e-05, -6.71795569e-05, -3.75227955e-06,
          -4.34732028e-05, -6.71795569e-05, 2.41404390e-20,
          2.41404390e-20, 6.71795569e-05, 6.71795569e-05, 6.71795569e-05,
          3.57381286e-05, 2.41404390e-20, -2.57021147e-05,
          -6.71795569e-05, -3.75227955e-06, -1.20317764e-05,
          -4.14774440e-05, 2.41404390e-20, 2.41404390e-20,
          6.71795569e-05, 6.71795569e-05, 6.71795569e-05, 6.71795569e-05,
          2.41404390e-20, 2.41404390e-20, -6.71795569e-05,
          -3.75227955e-06, -1.84344699e-05, -4.14774440e-05,
          2.41404390e-20, 2.41404390e-20, 6.71795569e-05, 4.14774440e-05,
          6.71795569e-05, 6.71795569e-05, 3.75227955e-06, 2.41404390e-20,
          -6.71795569e-05, -1.83079865e-05, -3.75227955e-06,
          -4.14774440e-05, 2.41404390e-20, 2.41404390e-20,
          -1.99576107e-06, 3.22979431e-05, 7.28359601e-06,
          6.71795569e-05, 3.75227955e-06, 2.41404390e-20,
          -6.71795569e-05, -5.24973657e-05, -1.57840568e-05,
          -3.87294895e-05, 2.41404390e-20, 2.41404390e-20,
          8.56514532e-07, 7.28359601e-06, 7.28359601e-06, 6.71795569e-05,
          3.75227955e-06, 2.41404390e-20, -5.80000560e-05,
          -5.24973657e-05, -1.57840568e-05, -3.41938467e-05,
          2.41404390e-20, 2.41404390e-20, 7.28806344e-06, 7.28359601e-06,
          7.28359601e-06, 4.21652112e-05, 6.50023185e-06, 2.41404390e-20,
          -3.29857103e-05, -5.24973657e-05, -1.57840568e-05,
          9.17503348e-06, 2.41404390e-20, 2.41404390e-20, 7.28806344e-06,
          7.28359601e-06, 1.64630965e-05, 6.71795569e-05, 6.50023185e-06,
          2.41404390e-20, 2.41404390e-20, -5.24973657e-05,
          -1.57840568e-05, -4.46713777e-09, 2.41404390e-20,
          2.41404390e-20, -7.39412690e-06, 4.14774440e-05,
          1.64630965e-05, 6.71795569e-05, 6.50023185e-06, 2.41404390e-20,
          2.41404390e-20, -4.33178648e-05, -3.75227955e-06,
          9.17503348e-06, 2.41404390e-20, 2.41404390e-20, 1.83079865e-05,
          6.71795569e-05, 6.71795569e-05, 6.71795569e-05, 2.74795229e-06,
          2.41404390e-20, 2.41404390e-20, -3.60342710e-05,
          -1.57840568e-05, 9.17503348e-06, 2.41404390e-20,
          2.41404390e-20, 6.27621057e-06, 6.71795569e-05, 6.71795569e-05,
          6.71795569e-05, 3.41893792e-05, 2.41404390e-20, 2.41404390e-20,
          -3.60342710e-05, 9.91805791e-06, 3.41893792e-05,
          2.41404390e-20, 2.41404390e-20, 3.75227955e-06, 2.37063523e-05,
          6.71795569e-05, 6.71795569e-05, 2.74795229e-06, 2.41404390e-20,
          2.41404390e-20, 3.14414283e-05, 9.91805791e-06, 3.41893792e-05,
          2.41404390e-20, 2.41404390e-20, 3.75227955e-06,
          -1.32354462e-05, -1.04874944e-05, 1.20029208e-05,
          2.41404390e-20, 2.41404390e-20, 2.41404390e-20, 5.23998278e-05,
          3.84129307e-05, 3.41893792e-05, 3.14414283e-05, 2.41404390e-20,
          -2.57021147e-05, -5.98959596e-05, -6.71795569e-05,
          -4.14774440e-05, -9.17950092e-06, 2.41404390e-20,
          3.69441150e-05, 4.59682778e-05, 6.34272801e-05, 4.62211574e-05,
          3.41893792e-05, 2.41404390e-20, -5.98959596e-05,
          -6.71795569e-05, -6.71795569e-05, -6.71795569e-05,
          -1.64630965e-05, -6.65556990e-06, 1.36703375e-05,
          -1.20317764e-05, 6.71795569e-05, 6.34272801e-05,
          4.62211574e-05, 2.41404390e-20, -6.71795569e-05,
          -6.71795569e-05, -6.71795569e-05, -6.71795569e-05,
          -6.46556291e-05, -1.47797291e-05, -1.20317764e-05, 0.,
          6.71795569e-05, 6.71795569e-05, 6.09033450e-05, 1.32354462e-05,
          -6.71795569e-05, -6.71795569e-05, -6.71795569e-05,
          -6.46556291e-05, -1.57840568e-05, -1.20317764e-05, 0., 0. ]
      - [ 0., 0., -5.02255125e-06, 0., 6.69960036e-06, 6.72112801e-05,
          4.53344983e-05, 1.07589376e-05, 3.72075228e-05,
          -4.53344983e-05, -3.24125976e-05, -3.24125976e-05, 0.,
          -8.66147366e-06, -8.66147366e-06, 1.67704911e-06,
          6.72112801e-05, 9.05435518e-05, 3.24125976e-05, 1.07589376e-05,
          1.77940565e-05, -4.53344983e-05, -3.24125976e-05,
          -3.24125976e-05, -8.66147366e-06, -2.75511520e-05,
          -1.86746784e-05, 3.47986825e-05, 9.05435518e-05,
          9.05435518e-05, 3.24125976e-05, 1.07589376e-05, 9.81747598e-06,
          -4.53344983e-05, -3.24125976e-05, -3.24125976e-05,
          -3.24125976e-05, -7.76216475e-05, -3.20640283e-05,
          5.81309541e-05, 9.05435518e-05, 9.05435518e-05, 3.24125976e-05,
          1.07589376e-05, 9.81747598e-06, -4.53344983e-05,
